{"learner":{"attributes":{"scikit_learn":"{\"_estimator_type\": \"regressor\"}"},"feature_names":["ground_truth","Compute throughput","Memory throughput","DRAM throughput","Achieved occupancy","Maximum occupancy","L1 hit rate","L2 hit rate"],"feature_types":["float","float","float","float","float","float","float","float"],"gradient_booster":{"model":{"gbtree_model_param":{"num_parallel_tree":"1","num_trees":"100"},"iteration_indptr":[0,1,2,3,4,5,6,7,8,9,10,11,12,13,14,15,16,17,18,19,20,21,22,23,24,25,26,27,28,29,30,31,32,33,34,35,36,37,38,39,40,41,42,43,44,45,46,47,48,49,50,51,52,53,54,55,56,57,58,59,60,61,62,63,64,65,66,67,68,69,70,71,72,73,74,75,76,77,78,79,80,81,82,83,84,85,86,87,88,89,90,91,92,93,94,95,96,97,98,99,100],"tree_info":[0,0,0,0,0,0,0,0,0,0,0,0,0,0,0,0,0,0,0,0,0,0,0,0,0,0,0,0,0,0,0,0,0,0,0,0,0,0,0,0,0,0,0,0,0,0,0,0,0,0,0,0,0,0,0,0,0,0,0,0,0,0,0,0,0,0,0,0,0,0,0,0,0,0,0,0,0,0,0,0,0,0,0,0,0,0,0,0,0,0,0,0,0,0,0,0,0,0,0,0],"trees":[{"base_weights":[-1.5950539E-8,5.4381485E0,-8.163502E-1,8.37472E0,4.615251E0,2.1125345E-1,-1.3029087E0,3.9610465E0,1.2863831E1,5.290322E0,3.0087059E0,1.0984522E0,-3.9430144E-1,-4.0710843E-1,-9.7329205E-1,4.7358212E0,-2.1935654E-1,9.539148E-1,5.073288E0,1.8406578E0,3.850347E0,3.2717109E0,-2.1935654E-1,1.04117E0,-1.0983083E0,-7.5891167E-1,-1.2527008E0,2.3946702E-1,1.5777152E0,8.7924886E-1,4.211986E0,4.3576827E0,2.4560823E0,-9.0948045E-1,4.352886E0,-8.2271737E-1,-4.2114076E-1,-9.335843E-1,-4.8555222E-1,-1.2953961E-1,-3.9849785E-1,-2.1935654E-1,6.1501855E-1,1.7260464E0,2.3366737E0,1.4182475E0,3.7629566E-1,-2.9247537E-1,3.2397742E0,-1.2045592E0,5.2629304E-1,1.02871306E-1,1.3844461E0,-3.4338605E-1,-1.0281125E0,-2.625042E-1,-3.032108E-1,-5.341505E-1,-1.4550781E-1,1.0809072E0,-2.9247537E-1,1.6317733E-1,3.988526E0,-4.0652487E-1,3.0080092E-1,2.5966763E-1,-5.8628446E-1,-5.36652E-2,-1.0805117E0,-1.1666167E-1,-1.4652193E-3,-4.1784957E-2,-1.6791268E-1,-5.7542987E-2,-7.9355305E-3,-2.1935654E-1,2.9278633E-1,1.2835162E0,2.9392475E-1,1.4455652E-1,-9.196097E-3,1.2573142E-1,1.3674657E-2,-3.9159724E-1,-2.9247537E-1,-3.327635E-1,-4.620414E-1,-1.3849551E-2,2.0003147E-2,-1.7334417E-1,1.734407E-1,1.1437887E-2,-2.1935654E-1,8.897199E-2,-1.09236725E-2],"categories":[],"categories_nodes":[],"categories_segments":[],"categories_sizes":[],"default_left":[0,0,0,0,0,0,0,0,0,0,0,0,0,0,0,0,0,0,0,0,0,0,0,0,0,0,0,0,0,0,0,0,0,0,0,0,0,0,0,0,0,0,0,0,0,0,0,0,0,0,0,0,0,0,0,0,0,0,0,0,0,0,0,0,0,0,0,0,0,0,0,0,0,0,0,0,0,0,0,0,0,0,0,0,0,0,0,0,0,0,0,0,0,0,0],"id":0,"left_children":[1,3,5,7,9,11,13,15,17,19,21,-1,23,-1,25,27,-1,-1,-1,-1,29,31,-1,33,35,37,39,-1,-1,41,43,45,47,49,51,53,-1,55,57,-1,-1,-1,-1,-1,59,-1,-1,-1,61,63,-1,-1,-1,65,67,69,-1,71,73,-1,-1,75,77,-1,79,81,83,-1,85,-1,-1,-1,-1,-1,-1,-1,-1,-1,-1,-1,-1,-1,87,89,-1,-1,91,-1,-1,-1,93,-1,-1,-1,-1],"loss_changes":[2.210838E3,1.1842102E2,2.1677057E2,2.0662091E2,4.156311E1,2.9394827E2,3.9237976E0,3.2546173E1,1.8138507E2,2.0190613E1,2.0097244E1,0E0,1.2241335E2,0E0,1.7448006E0,1.02239685E1,0E0,0E0,0E0,0E0,1.3488052E1,4.354904E0,0E0,2.623589E2,5.6645737E0,8.8365173E-1,5.4389E-1,0E0,0E0,7.1555433E0,2.7027145E1,9.561386E-1,3.5424675E1,2.2549898E1,1.4172791E1,4.0773163E0,0E0,5.62727E-1,1.3710952E-1,0E0,0E0,0E0,0E0,0E0,3.7061726E1,0E0,0E0,0E0,2.2385239E1,5.845829E0,0E0,0E0,0E0,2.3494506E0,1.1861763E0,9.5765546E-2,0E0,3.3055782E-2,1.1463933E-2,0E0,0E0,2.8943665E0,2.7852783E0,0E0,1.9480428E-1,1.9037095E-1,4.505062E-1,0E0,2.2506714E-3,0E0,0E0,0E0,0E0,0E0,0E0,0E0,0E0,0E0,0E0,0E0,0E0,0E0,1.2593143E-2,1.0471916E0,0E0,0E0,4.3173343E-1,0E0,0E0,0E0,8.83181E-2,0E0,0E0,0E0,0E0],"parents":[2147483647,0,0,1,1,2,2,3,3,4,4,5,5,6,6,7,7,8,8,9,9,10,10,12,12,14,14,15,15,20,20,21,21,23,23,24,24,25,25,26,26,29,29,30,30,31,31,32,32,33,33,34,34,35,35,37,37,38,38,44,44,48,48,49,49,53,53,54,54,55,55,57,57,58,58,61,61,62,62,64,64,65,65,66,66,68,68,82,82,83,83,86,86,90,90],"right_children":[2,4,6,8,10,12,14,16,18,20,22,-1,24,-1,26,28,-1,-1,-1,-1,30,32,-1,34,36,38,40,-1,-1,42,44,46,48,50,52,54,-1,56,58,-1,-1,-1,-1,-1,60,-1,-1,-1,62,64,-1,-1,-1,66,68,70,-1,72,74,-1,-1,76,78,-1,80,82,84,-1,86,-1,-1,-1,-1,-1,-1,-1,-1,-1,-1,-1,-1,-1,88,90,-1,-1,92,-1,-1,-1,94,-1,-1,-1,-1],"split_conditions":[-1.4459695E0,1.1467087E0,-4.5840463E-1,-1.4608E0,-1.4608E0,-1.5860147E0,1.2291533E0,-1.7758368E0,1.0988531E0,-6.9481504E-1,1.3249298E0,1.0984522E0,-5.422155E-1,-4.0710843E-1,-3.6764053E-1,-1.7811353E0,-2.1935654E-1,9.539148E-1,5.073288E0,1.8406578E0,-5.523703E-1,-1.7823128E0,-2.1935654E-1,-1.2262771E0,2.7102245E-2,9.518231E-1,9.769609E-1,2.3946702E-1,1.5777152E0,-6.940764E-1,-1.7814296E0,-5.5187386E-1,-1.781724E0,-4.940343E-1,-7.0818037E-1,-4.2040774E-1,-4.2114076E-1,1.2324091E0,-3.6768708E-1,-1.2953961E-1,-3.9849785E-1,-2.1935654E-1,6.1501855E-1,1.7260464E0,-5.520995E-1,1.4182475E0,3.7629566E-1,-2.9247537E-1,1.1661811E0,-6.945514E-1,5.2629304E-1,1.02871306E-1,1.3844461E0,-1.579414E0,-2.958078E-1,-4.3209103E-1,-3.032108E-1,2.329649E0,-1.725917E-1,1.0809072E0,-2.9247537E-1,-5.520544E-1,1.2282284E0,-4.0652487E-1,-5.483535E-1,5.756647E-1,-4.8778442E-1,-5.36652E-2,2.3569956E-2,-1.1666167E-1,-1.4652193E-3,-4.1784957E-2,-1.6791268E-1,-5.7542987E-2,-7.9355305E-3,-2.1935654E-1,2.9278633E-1,1.2835162E0,2.9392475E-1,1.4455652E-1,-9.196097E-3,1.2573142E-1,-4.892738E-1,-5.2650946E-1,-2.9247537E-1,-3.327635E-1,-4.887322E-1,-1.3849551E-2,2.0003147E-2,-1.7334417E-1,-4.8904952E-1,1.1437887E-2,-2.1935654E-1,8.897199E-2,-1.09236725E-2],"split_indices":[3,7,0,4,4,7,6,2,7,1,7,0,0,0,0,2,0,0,0,0,0,2,0,3,2,4,4,0,0,1,2,0,2,6,4,1,0,6,0,0,0,0,0,0,0,0,0,0,7,4,0,0,0,7,2,0,0,6,1,0,0,0,7,0,0,4,0,0,2,0,0,0,0,0,0,0,0,0,0,0,0,0,0,0,0,0,0,0,0,0,0,0,0,0,0],"split_type":[0,0,0,0,0,0,0,0,0,0,0,0,0,0,0,0,0,0,0,0,0,0,0,0,0,0,0,0,0,0,0,0,0,0,0,0,0,0,0,0,0,0,0,0,0,0,0,0,0,0,0,0,0,0,0,0,0,0,0,0,0,0,0,0,0,0,0,0,0,0,0,0,0,0,0,0,0,0,0,0,0,0,0,0,0,0,0,0,0,0,0,0,0,0,0],"sum_hessian":[4.96E2,6.4E1,4.32E2,1.2E1,5.2E1,1.39E2,2.93E2,7E0,5E0,3.5E1,1.7E1,2E1,1.19E2,2.49E2,4.4E1,6E0,1E0,2E0,3E0,2E1,1.5E1,1.6E1,1E0,3.9E1,8E1,2.7E1,1.7E1,1E0,5E0,2E0,1.3E1,5E0,1.1E1,2.5E1,1.4E1,4.4E1,3.6E1,1.5E1,1.2E1,2E0,1.5E1,1E0,1E0,6E0,7E0,4E0,1E0,2E0,9E0,2.3E1,2E0,1E0,1.3E1,1.4E1,3E1,2E0,1.3E1,1E1,2E0,5E0,2E0,2E0,7E0,2.1E1,2E0,4E0,1E1,2E0,2.8E1,1E0,1E0,1E0,9E0,1E0,1E0,1E0,1E0,6E0,1E0,1E0,1E0,2E0,2E0,8E0,2E0,2.6E1,2E0,1E0,1E0,6E0,2E0,1E0,1E0,1E0,1E0],"tree_param":{"num_deleted":"0","num_feature":"8","num_nodes":"95","size_leaf_vector":"1"}},{"base_weights":[3.0678593E-2,4.042233E0,-5.7158864E-1,6.4488444E0,3.3756638E0,1.5908827E-1,-9.175859E-1,2.9724607E0,1.0009215E1,3.8351917E0,2.2690709E0,2.6153622E0,-2.7208543E-1,-7.736783E-1,-2.9115823E-1,3.5746722E0,-1.8645304E-1,2.5437725E0,1.3105993E1,2.6173916E0,4.4097137E0,2.4756644E0,-1.8645304E-1,8.439808E-1,1.0709409E0,7.723802E-1,-7.845118E-1,-2.5800943E-1,-5.072622E-1,2.0354697E-1,1.1832863E0,2.2979762E-1,9.149E-1,4.6365438E0,9.087808E-1,3.8589356E0,-3.8917452E-1,1.9695133E0,4.677268E0,1.0048405E0,1.8324572E0,-3.841244E-1,6.8445927E-1,-6.2682366E-1,3.146175E0,-5.2623403E-1,-9.341194E-1,-3.6915842E-1,-6.8107265E-1,3.1129017E-1,1.2171363E0,-4.2321283E-1,5.545448E-1,3.7270293E0,-4.9545524E-1,3.5785801E0,1.7633933E0,-2.3398031E-1,2.4329288E0,-8.5449E-1,4.2103443E-1,2.2891629E0,1.4792001E0,-6.0963976E-1,4.608519E-2,-9.948566E-1,-5.468883E-1,-7.55109E-2,-4.0852642E-1,-7.345607E-1,-3.797518E-2,1.3249995E0,3.5216382E-1,3.9803803E0,-1.8645304E-1,1.3870072E-1,2.9891484E0,-9.670364E-1,2.5568077E-1,3.3591533E0,6.593137E-1,-6.299614E-1,-9.143454E-3,-1.324836E-1,2.784125E-1,-4.0269807E-1,-3.043191E-1,-5.705826E-2,-7.8229356E-1,-2.8888859E-2,-5.0910474E-3,-4.3399787E-1,-1.5430328E-2,-2.3437959E-1,-6.114438E-2,3.0211395E-1,1.2477403E0,-1.8645304E-1,2.4886838E-1,9.534692E-1,2.4983601E-1,-3.0091783E-1,-1.2136148E-1,1.2287304E-1,-7.816691E-3,5.154287E-1,1.4923595E0,-1.8192542E-1,1.0337436E0,-9.7947285E-2,-2.005631E-1,1.00029886E-1,1.7002666E-2,-1.1772127E-2,-1.6944201E-1,-1.2041622E-1,1.915139E-1,-9.285129E-3,-2.7791163E-1,-5.84558E-2,-4.9206266E-1,4.3926042E-1,7.761144E-2,7.645905E-2,9.722203E-3,-3.096609E-1,-1.927949E-1,-1.08779855E-1,-6.7452015E-3],"categories":[],"categories_nodes":[],"categories_segments":[],"categories_sizes":[],"default_left":[0,0,0,0,0,0,0,0,0,0,0,0,0,0,0,0,0,0,0,0,0,0,0,0,0,0,0,0,0,0,0,0,0,0,0,0,0,0,0,0,0,0,0,0,0,0,0,0,0,0,0,0,0,0,0,0,0,0,0,0,0,0,0,0,0,0,0,0,0,0,0,0,0,0,0,0,0,0,0,0,0,0,0,0,0,0,0,0,0,0,0,0,0,0,0,0,0,0,0,0,0,0,0,0,0,0,0,0,0,0,0,0,0,0,0,0,0,0,0,0,0,0,0,0,0,0,0,0,0],"id":1,"left_children":[1,3,5,7,9,11,13,15,17,19,21,23,25,27,-1,29,-1,31,33,35,37,39,-1,-1,41,43,45,-1,47,-1,-1,-1,-1,-1,-1,49,51,53,55,-1,57,-1,-1,59,61,63,65,67,69,-1,-1,-1,-1,71,-1,73,-1,-1,75,77,-1,79,-1,81,83,85,87,89,91,93,-1,-1,-1,95,-1,97,99,101,103,105,107,109,-1,-1,111,113,-1,115,117,-1,-1,119,-1,-1,-1,-1,-1,-1,-1,-1,-1,-1,-1,-1,-1,-1,-1,-1,121,-1,-1,-1,-1,-1,-1,-1,123,-1,-1,-1,125,-1,-1,-1,-1,127,-1,-1,-1],"loss_changes":[1.2030764E3,8.25022E1,1.0961365E2,1.3115186E2,1.8248657E1,1.489829E2,1.4890137E0,1.9536346E1,1.0537427E2,1.3645569E1,1.2287811E1,3.405838E0,6.483135E1,1.4962273E0,0E0,4.817154E0,0E0,3.6208725E-1,4.78692E1,5.376078E1,5.804474E0,3.41687E0,0E0,0E0,1.4307415E1,1.3482901E2,2.6383018E0,0E0,3.0066586E-1,0E0,0E0,0E0,0E0,0E0,0E0,1.3815918E0,1.4036896E1,3.1611336E1,5.3492737E0,0E0,2.072153E1,0E0,0E0,1.3217067E1,1.1652878E1,1.5556068E0,6.318855E-1,1.4255643E-1,1.7394304E-1,0E0,0E0,0E0,0E0,9.75914E-2,0E0,2.4412628E1,0E0,0E0,1.2346352E1,3.2459526E0,0E0,1.8712337E1,0E0,3.103466E-1,6.8947715E-1,7.749176E-2,9.931407E-1,2.016198E-3,9.592104E-2,3.9072514E-2,0E0,0E0,0E0,2.1894684E0,0E0,2.0911796E0,6.1505127E-1,4.000473E-2,1.407461E-1,1.0009781E1,3.4704478E0,9.785652E-2,0E0,0E0,2.9902786E-2,1.5459558E-1,0E0,4.1923377E-1,6.208432E-1,0E0,0E0,7.075143E-2,0E0,0E0,0E0,0E0,0E0,0E0,0E0,0E0,0E0,0E0,0E0,0E0,0E0,0E0,0E0,0E0,1.2893114E0,0E0,0E0,0E0,0E0,0E0,0E0,0E0,2.1978565E-2,0E0,0E0,0E0,4.8202276E-2,0E0,0E0,0E0,0E0,8.306378E-2,0E0,0E0,0E0],"parents":[2147483647,0,0,1,1,2,2,3,3,4,4,5,5,6,6,7,7,8,8,9,9,10,10,11,11,12,12,13,13,15,15,17,17,18,18,19,19,20,20,21,21,24,24,25,25,26,26,28,28,35,35,36,36,37,37,38,38,40,40,43,43,44,44,45,45,46,46,47,47,48,48,53,53,55,55,58,58,59,59,61,61,63,63,64,64,65,65,66,66,67,67,68,68,69,69,73,73,75,75,76,76,77,77,78,78,79,79,80,80,81,81,84,84,85,85,87,87,88,88,91,91,108,108,116,116,120,120,125,125],"right_children":[2,4,6,8,10,12,14,16,18,20,22,24,26,28,-1,30,-1,32,34,36,38,40,-1,-1,42,44,46,-1,48,-1,-1,-1,-1,-1,-1,50,52,54,56,-1,58,-1,-1,60,62,64,66,68,70,-1,-1,-1,-1,72,-1,74,-1,-1,76,78,-1,80,-1,82,84,86,88,90,92,94,-1,-1,-1,96,-1,98,100,102,104,106,108,110,-1,-1,112,114,-1,116,118,-1,-1,120,-1,-1,-1,-1,-1,-1,-1,-1,-1,-1,-1,-1,-1,-1,-1,-1,122,-1,-1,-1,-1,-1,-1,-1,124,-1,-1,-1,126,-1,-1,-1,-1,128,-1,-1,-1],"split_conditions":[-1.4459695E0,1.1467087E0,-4.5840463E-1,-1.4608E0,-1.4608E0,-1.5860147E0,-3.6136714E-1,-1.7758368E0,1.0988531E0,1.1925842E0,1.3249298E0,8.042058E-1,-5.422155E-1,2.3231373E0,-2.9115823E-1,-1.7811353E0,-1.8645304E-1,-5.522349E-1,-5.520981E-1,1.1780624E0,-1.7823128E0,-1.7823128E0,-1.8645304E-1,8.439808E-1,8.053832E-1,-1.2262771E0,-6.160141E-3,-2.5800943E-1,2.3426726E0,2.0354697E-1,1.1832863E0,2.2979762E-1,9.149E-1,4.6365438E0,9.087808E-1,1.1612304E0,-5.519641E-1,-5.520995E-1,-5.5214465E-1,1.0048405E0,-1.781724E0,-3.841244E-1,6.8445927E-1,-4.940343E-1,-4.3961257E-1,-1.6099213E-1,1.5063483E-1,-1.788702E-1,8.7014186E-1,3.1129017E-1,1.2171363E0,-4.2321283E-1,5.545448E-1,-5.5282164E-1,-4.9545524E-1,-1.461103E0,1.7633933E0,-2.3398031E-1,1.1661811E0,-6.945514E-1,4.2103443E-1,-5.4821813E-1,1.4792001E0,2.264531E0,-4.9469107E-1,-1.579744E0,-4.887322E-1,-3.6989856E-1,-3.64934E-1,-3.6601716E-1,-3.797518E-2,1.3249995E0,3.5216382E-1,1.2176672E0,-1.8645304E-1,-5.520544E-1,1.2282284E0,-5.519641E-1,-5.483535E-1,-5.4826325E-1,-5.2825016E-1,-5.367996E-1,-9.143454E-3,-1.324836E-1,-4.8904952E-1,-4.892738E-1,-3.043191E-1,-4.9473622E-1,-4.2077705E-1,-2.8888859E-2,-5.0910474E-3,-3.6890706E-1,-1.5430328E-2,-2.3437959E-1,-6.114438E-2,3.0211395E-1,1.2477403E0,-1.8645304E-1,2.4886838E-1,9.534692E-1,2.4983601E-1,-3.0091783E-1,-1.2136148E-1,1.2287304E-1,-7.816691E-3,5.154287E-1,1.4923595E0,-1.8192542E-1,-5.2640355E-1,-9.7947285E-2,-2.005631E-1,1.00029886E-1,1.7002666E-2,-1.1772127E-2,-1.6944201E-1,-1.2041622E-1,-4.211464E-1,-9.285129E-3,-2.7791163E-1,-5.84558E-2,-1.7148373E-1,4.3926042E-1,7.761144E-2,7.645905E-2,9.722203E-3,-1.725917E-1,-1.927949E-1,-1.08779855E-1,-6.7452015E-3],"split_indices":[3,7,0,4,4,7,0,2,7,7,7,2,0,6,0,2,0,0,0,7,2,2,0,0,2,3,2,0,6,0,0,0,0,0,0,7,0,0,0,0,2,0,0,6,1,2,6,1,2,0,0,0,0,0,0,4,0,0,7,4,0,0,0,6,0,7,0,0,0,0,0,0,0,7,0,0,7,0,0,0,1,0,0,0,0,0,0,0,1,0,0,0,0,0,0,0,0,0,0,0,0,0,0,0,0,0,0,0,1,0,0,0,0,0,0,0,1,0,0,0,1,0,0,0,0,1,0,0,0],"split_type":[0,0,0,0,0,0,0,0,0,0,0,0,0,0,0,0,0,0,0,0,0,0,0,0,0,0,0,0,0,0,0,0,0,0,0,0,0,0,0,0,0,0,0,0,0,0,0,0,0,0,0,0,0,0,0,0,0,0,0,0,0,0,0,0,0,0,0,0,0,0,0,0,0,0,0,0,0,0,0,0,0,0,0,0,0,0,0,0,0,0,0,0,0,0,0,0,0,0,0,0,0,0,0,0,0,0,0,0,0,0,0,0,0,0,0,0,0,0,0,0,0,0,0,0,0,0,0,0,0],"sum_hessian":[4.96E2,6.4E1,4.32E2,1.2E1,5.2E1,1.39E2,2.93E2,7E0,5E0,3.5E1,1.7E1,2E1,1.19E2,8.3E1,2.1E2,6E0,1E0,2E0,3E0,1.3E1,2.2E1,1.6E1,1E0,1.7E1,3E0,3.9E1,8E1,6.1E1,2.2E1,1E0,5E0,1E0,1E0,2E0,1E0,9E0,4E0,3E0,1.9E1,5E0,1.1E1,1E0,2E0,2.5E1,1.4E1,3.1E1,4.9E1,1.4E1,8E0,1E0,8E0,3E0,1E0,2E0,1E0,1.2E1,7E0,2E0,9E0,2.3E1,2E0,1.1E1,3E0,2.7E1,4E0,4.1E1,8E0,2E0,1.2E1,7E0,1E0,1E0,1E0,1.1E1,1E0,2E0,7E0,2.1E1,2E0,6E0,5E0,2.6E1,1E0,1E0,3E0,2E0,3.9E1,3E0,5E0,1E0,1E0,1.1E1,1E0,6E0,1E0,1E0,1E1,1E0,1E0,6E0,1E0,1.9E1,2E0,1E0,1E0,4E0,2E0,1E0,4E0,4E0,2.2E1,2E0,1E0,1E0,1E0,1E0,2E0,1E0,4E0,3E0,8E0,2E0,2E0,1E0,1E0,5E0,3E0,4E0,1E0],"tree_param":{"num_deleted":"0","num_feature":"8","num_nodes":"129","size_leaf_vector":"1"}},{"base_weights":[5.841651E-2,3.0712368E0,-3.9398935E-1,5.121145E0,2.5104814E0,1.3957602E-1,-6.46728E-1,2.23077E0,8.121454E0,1.4678649E0,2.2696795E0,1.8852447E0,-1.6707915E-1,-5.39192E-1,-6.8109334E-1,2.7003896E0,-1.5848508E-1,2.1622064E0,1.0560526E1,1.8937178E0,3.0206757E0,7.249151E-1,1.3725146E0,6.390598E-1,-5.6310976E-1,-5.8902633E-1,-2.5237745E-1,-2.070452E-1,-1.2683408E-1,1.7301491E-1,8.8746476E-1,1.9532798E-1,7.7766496E-1,3.709235E0,7.724636E-1,2.2729285E0,5.0353837E-1,9.939413E-1,4.1643646E-1,1.5839193E0,1.398592E-1,-4.3439916E-1,2.457118E0,-3.7846085E-1,-6.7002285E-1,-2.2507003E-1,-5.288837E-1,-1.0732964E-1,-2.851588E-1,2.564426E0,1.0320895E0,-3.743501E-1,1.1821923E0,5.3756326E-1,1.2962146E-1,-3.2650575E-1,3.8944238E-1,-6.109439E-1,3.3682752E-1,1.7976419E0,3.821267E0,-4.2010632E-1,1.6414757E-1,-2.0681076E-1,-2.7519807E-1,-1.6740707E-1,-5.4270193E-2,-3.9109576E-2,-5.7334187E-3,-3.334838E-2,-3.1476304E-1,3.9359903E-1,8.285486E-1,1.3801988E0,-1.5848508E-1,2.0882463E0,-1.9409984E-2,-2.08836E-1,2.1732862E-1,2.6382341E0,5.17344E-1,1.5439695E0,4.9919376E-1,-2.2594658E-1,-4.6937466E-1,5.9414152E-2,1.4452261E-2,6.499019E-2,-1.5340604E-1,-1.8823154E-2,-4.3273866E-3,-1.06391214E-1,-3.9028026E-2,-1.5848508E-1,3.3560467E-1,8.2150793E-1,6.260481E-1,-1.5848508E-1,9.4095534E-1,2.1236062E-1,-1.4933774E-1,1.04442075E-1,-6.64419E-3,3.917258E-1,1.1938876E0,-1.5463658E-1,8.269949E-1,-9.478789E-2,6.0621716E-2,-2.196151E-2,-1.5108575E-1,5.21951E-1,-3.7065664E-1,3.514083E-1,2.0696382E-1,-1.4038819E-1,-2.6407314E-2,1.7334832E-2,7.579889E-2],"categories":[],"categories_nodes":[],"categories_segments":[],"categories_sizes":[],"default_left":[0,0,0,0,0,0,0,0,0,0,0,0,0,0,0,0,0,0,0,0,0,0,0,0,0,0,0,0,0,0,0,0,0,0,0,0,0,0,0,0,0,0,0,0,0,0,0,0,0,0,0,0,0,0,0,0,0,0,0,0,0,0,0,0,0,0,0,0,0,0,0,0,0,0,0,0,0,0,0,0,0,0,0,0,0,0,0,0,0,0,0,0,0,0,0,0,0,0,0,0,0,0,0,0,0,0,0,0,0,0,0,0,0,0,0,0,0,0,0],"id":2,"left_children":[1,3,5,7,9,11,13,15,17,-1,19,21,23,25,27,29,-1,31,33,35,37,-1,39,41,43,45,47,-1,-1,-1,-1,-1,-1,-1,-1,49,51,-1,-1,53,55,57,59,61,63,-1,65,67,69,71,73,-1,75,-1,-1,-1,-1,77,-1,79,81,83,85,-1,87,-1,89,-1,-1,-1,91,93,-1,95,-1,97,99,-1,101,103,105,-1,-1,107,109,-1,-1,-1,-1,-1,-1,-1,-1,-1,-1,111,-1,-1,-1,-1,-1,-1,-1,-1,-1,-1,113,-1,-1,-1,-1,-1,115,-1,117,-1,-1,-1,-1],"loss_changes":[6.7862976E2,6.186084E1,5.848143E1,9.461911E1,1.930008E1,7.525956E1,7.192383E-1,1.1792217E1,6.437616E1,0E0,8.397003E0,2.4024277E0,3.8670544E1,9.376278E-1,2.2059631E-1,2.1267166E0,0E0,2.6160717E-1,2.5775238E1,1.7833649E1,2.562851E0,0E0,3.166132E0,7.9131805E1,1.3454742E0,2.2372055E-1,3.1207263E-2,0E0,0E0,0E0,0E0,0E0,0E0,0E0,0E0,7.4809265E0,1.2172359E1,0E0,0E0,1.8606777E0,5.6806817E0,7.8335495E0,6.625084E0,7.9206944E-1,1.9220734E-1,0E0,6.6122246E-1,5.637184E-3,1.6521215E-2,8.340546E0,4.5314016E0,0E0,7.6615486E0,0E0,0E0,0E0,0E0,1.8444633E0,0E0,1.1549629E1,2.8724213E0,1.8092442E-1,2.2535846E-3,0E0,5.753716E-1,0E0,4.454935E-4,0E0,0E0,0E0,1.277256E-2,2.596306E0,0E0,6.543741E-1,0E0,1.2628304E1,1.744041E0,0E0,1.01689056E-1,7.3152466E0,2.345122E0,0E0,0E0,3.7206504E-1,2.7516508E-1,0E0,0E0,0E0,0E0,0E0,0E0,0E0,0E0,0E0,0E0,6.1188765E0,0E0,0E0,0E0,0E0,0E0,0E0,0E0,0E0,0E0,0E0,8.2515883E-1,0E0,0E0,0E0,0E0,0E0,4.131177E-2,0E0,5.8527887E-3,0E0,0E0,0E0,0E0],"parents":[2147483647,0,0,1,1,2,2,3,3,4,4,5,5,6,6,7,7,8,8,10,10,11,11,12,12,13,13,14,14,15,15,17,17,18,18,19,19,20,20,22,22,23,23,24,24,25,25,26,26,35,35,36,36,39,39,40,40,41,41,42,42,43,43,44,44,46,46,47,47,48,48,49,49,50,50,52,52,57,57,59,59,60,60,61,61,62,62,64,64,66,66,70,70,71,71,73,73,75,75,76,76,78,78,79,79,80,80,83,83,84,84,95,95,106,106,112,112,114,114],"right_children":[2,4,6,8,10,12,14,16,18,-1,20,22,24,26,28,30,-1,32,34,36,38,-1,40,42,44,46,48,-1,-1,-1,-1,-1,-1,-1,-1,50,52,-1,-1,54,56,58,60,62,64,-1,66,68,70,72,74,-1,76,-1,-1,-1,-1,78,-1,80,82,84,86,-1,88,-1,90,-1,-1,-1,92,94,-1,96,-1,98,100,-1,102,104,106,-1,-1,108,110,-1,-1,-1,-1,-1,-1,-1,-1,-1,-1,112,-1,-1,-1,-1,-1,-1,-1,-1,-1,-1,114,-1,-1,-1,-1,-1,116,-1,118,-1,-1,-1,-1],"split_conditions":[-1.4459695E0,1.1467087E0,-4.5840463E-1,-1.4608E0,-6.951844E-1,-1.5860147E0,-3.6764053E-1,-1.7758368E0,1.0988531E0,1.4678649E0,-5.519641E-1,-4.6210548E-1,-5.422155E-1,9.518231E-1,4.388812E0,-1.7811353E0,-1.5848508E-1,-5.522349E-1,-5.520981E-1,-5.520995E-1,-5.5187386E-1,7.249151E-1,8.012622E-1,-1.2262771E0,-6.160141E-3,-8.3187544E-1,2.3337188E0,-2.070452E-1,-1.2683408E-1,1.7301491E-1,8.8746476E-1,1.9532798E-1,7.7766496E-1,3.709235E0,7.724636E-1,-1.4608E0,-1.781724E0,9.939413E-1,4.1643646E-1,1.9082257E-1,8.053832E-1,-4.940343E-1,-4.3961257E-1,-6.679776E-2,1.5389073E-1,-2.2507003E-1,1.237293E0,-3.6836407E-1,-1.8034749E-1,-5.523703E-1,1.2282284E0,-3.743501E-1,-6.9481504E-1,5.3756326E-1,1.2962146E-1,-3.2650575E-1,3.8944238E-1,-6.945514E-1,3.3682752E-1,-5.4821813E-1,-5.479022E-1,-4.215157E-1,-4.892738E-1,-2.0681076E-1,1.547047E-1,-1.6740707E-1,-4.2811936E-1,-3.9109576E-2,-5.7334187E-3,-3.334838E-2,-1.711144E-1,-6.940764E-1,8.285486E-1,-1.7811353E0,-1.5848508E-1,1.1661811E0,-1.7814296E0,-2.08836E-1,-5.483535E-1,-5.4826325E-1,-5.2825016E-1,1.5439695E0,4.9919376E-1,-5.2650946E-1,-2.958078E-1,5.9414152E-2,1.4452261E-2,6.499019E-2,-1.5340604E-1,-1.8823154E-2,-4.3273866E-3,-1.06391214E-1,-3.9028026E-2,-1.5848508E-1,3.3560467E-1,-5.5214465E-1,6.260481E-1,-1.5848508E-1,9.4095534E-1,2.1236062E-1,-1.4933774E-1,1.04442075E-1,-6.64419E-3,3.917258E-1,1.1938876E0,-1.5463658E-1,-5.2640355E-1,-9.478789E-2,6.0621716E-2,-2.196151E-2,-1.5108575E-1,5.21951E-1,-6.9481504E-1,3.514083E-1,-5.480827E-1,-1.4038819E-1,-2.6407314E-2,1.7334832E-2,7.579889E-2],"split_indices":[3,7,0,4,1,7,0,2,7,0,0,0,0,4,0,2,0,0,0,0,0,0,2,3,2,7,6,0,0,0,0,0,0,0,0,4,2,0,0,1,2,6,1,2,6,0,6,0,1,0,7,0,1,0,0,0,0,4,0,0,0,1,0,0,6,0,0,0,0,0,1,1,0,2,0,7,2,0,0,0,1,0,0,0,2,0,0,0,0,0,0,0,0,0,0,0,0,0,0,0,0,0,0,0,0,0,1,0,0,0,0,0,1,0,0,0,0,0,0],"split_type":[0,0,0,0,0,0,0,0,0,0,0,0,0,0,0,0,0,0,0,0,0,0,0,0,0,0,0,0,0,0,0,0,0,0,0,0,0,0,0,0,0,0,0,0,0,0,0,0,0,0,0,0,0,0,0,0,0,0,0,0,0,0,0,0,0,0,0,0,0,0,0,0,0,0,0,0,0,0,0,0,0,0,0,0,0,0,0,0,0,0,0,0,0,0,0,0,0,0,0,0,0,0,0,0,0,0,0,0,0,0,0,0,0,0,0,0,0,0,0],"sum_hessian":[4.96E2,6.4E1,4.32E2,1.2E1,5.2E1,1.39E2,2.93E2,7E0,5E0,3E0,4.9E1,2E1,1.19E2,7.5E1,2.18E2,6E0,1E0,2E0,3E0,3.5E1,1.4E1,8E0,1.2E1,3.9E1,8E1,6.3E1,1.2E1,2.09E2,9E0,1E0,5E0,1E0,1E0,2E0,1E0,2.7E1,8E0,1.1E1,3E0,1E1,2E0,2.5E1,1.4E1,3.1E1,4.9E1,1.4E1,4.9E1,3E0,9E0,2.1E1,6E0,2E0,6E0,8E0,2E0,1E0,1E0,2.3E1,2E0,1.1E1,3E0,2.9E1,2E0,4.6E1,3E0,4.6E1,3E0,2E0,1E0,2E0,7E0,2E0,1.9E1,5E0,1E0,3E0,3E0,2.1E1,2E0,6E0,5E0,1E0,2E0,7E0,2.2E1,1E0,1E0,1E0,2E0,2E0,1E0,5E0,2E0,1E0,1E0,4E0,1E0,1E0,2E0,1E0,2E0,1E0,1E0,4E0,2E0,1E0,4E0,6E0,1E0,2E0,2E1,2E0,2E0,2E0,2E0,1E0,1E0,1E0,1E0],"tree_param":{"num_deleted":"0","num_feature":"8","num_nodes":"119","size_leaf_vector":"1"}},{"base_weights":[7.2546035E-2,2.327319E0,-2.660978E-1,4.073777E0,1.8550307E0,1.3463846E-1,-4.5601952E-1,1.6742885E0,6.594133E0,1.1375953E0,1.6629738E0,1.3889588E0,-8.598957E-2,-4.8813537E-1,-4.0253022E-1,2.04177E0,-1.3471232E-1,1.8378756E0,8.512793E0,1.3894783E0,2.208498E0,1.6361641E0,8.775556E-1,5.509537E-1,-3.9946786E-1,-5.016706E-1,-3.391993E-1,-2.9323396E-1,-4.4245243E-1,1.4706266E-1,6.6559863E-1,1.6602878E-1,6.610153E-1,2.967388E0,6.5659404E-1,1.6563494E0,4.048261E-1,6.885783E-1,1.4907265E-1,5.60817E-1,5.70806E-1,1.077337E0,1.1888031E-1,-2.9539517E-1,1.9812281E0,-2.690897E-1,-4.749205E-1,-1.2393248E-1,-1.558424E-1,-1.2390697E-2,-1.06287934E-1,-1.7316346E-1,-3.508559E-1,-1.17665306E-1,-4.8907068E-1,1.8012651E0,6.294842E-1,-9.982669E-1,9.483194E-1,2.032563E-1,3.1605795E-2,1.4007522E-1,3.6843646E-1,-2.7752987E-1,3.3102602E-1,-4.3228728E-1,2.6946202E-1,1.4146426E0,3.1856778E0,-3.0098155E-1,1.3952546E-1,-5.060732E-1,-2.7677244E-1,-7.418521E-2,-2.08911E-1,-1.2716883E-1,-4.0916568E-1,-5.428864E-1,-3.3967882E-1,3.3455917E-1,1.9193949E0,5.3214085E-1,-1.0004613E-1,-3.6498442E-1,-8.423567E-2,1.6573901E0,2.168715E-3,-4.967765E-1,1.8472934E-1,2.07328E0,4.1045836E-1,1.3123741E0,3.9935505E-1,-2.4662262E-1,-1.3330731E-1,5.050203E-2,1.2284429E-2,-2.0441954E-1,-5.160454E-1,-6.4911254E-2,-1.5761134E-1,-5.8049443E-3,-3.128766E-2,-2.2116166E-1,-1.6635865E-2,-2.360253E-1,6.256703E-2,-4.3320593E-1,-3.6782743E-3,-1.4041594E-1,-2.5684938E-1,-6.6109896E-3,-1.1989069E-1,-1.3471232E-1,2.8526396E-1,2.2673292E0,1.3653396E0,9.713087E-2,-3.4924123E-1,-1.3471232E-1,7.527643E-1,1.8050653E-1,-1.194702E-1,-1.5563795E-1,-5.5321965E-2,8.8775754E-2,-5.647552E-3,2.977116E-1,9.5511E-1,-1.3144109E-1,6.6780484E-1,-2.9952008E-1,-1.0338767E-1,2.1015305E-2,-1.13004096E-1,-5.218244E-1,-4.3599408E-2,5.2247275E-2,-2.2798507E-1,-2.6678707E-2,-2.504177E-1,-8.2129E-2,-1.2760976E-2,-2.3041133E-2,-1.3555375E-1,-2.0915948E-2,1.7941002E-2,1.0446709E0,1.475445E0,-1.9030094E-2,1.6750919E0,-2.2446228E-2,-1.3471232E-1,2.8112665E-1,1.7591922E-1,-4.442918E-2,-9.6416846E-2,1.181747E-1,-2.5996003E-1,-1.5827379E-1,-4.5470975E-2,-1.1738435E-1,3.9285477E-2,-8.927116E-2,-3.1222416E-2,1.7593173E0,-1.1932995E-1,5.4769206E-1,-5.5625564E-1,7.56085E-1,7.9044884E-1,1.473459E-2,6.442906E-2,-4.477698E-3,5.0255015E-2,-2.1876097E-2,-8.6546965E-2,4.749919E-1,2.1082604E0,2.3866415E-2,1.480348E0,4.3490475E-1,-2.211584E-1,1.75057E-1,6.88951E-1,-7.879646E-2,1.3251454E-1,5.258423E-1,1.4031434E-1],"categories":[],"categories_nodes":[],"categories_segments":[],"categories_sizes":[],"default_left":[0,0,0,0,0,0,0,0,0,0,0,0,0,0,0,0,0,0,0,0,0,0,0,0,0,0,0,0,0,0,0,0,0,0,0,0,0,0,0,0,0,0,0,0,0,0,0,0,0,0,0,0,0,0,0,0,0,0,0,0,0,0,0,0,0,0,0,0,0,0,0,0,0,0,0,0,0,0,0,0,0,0,0,0,0,0,0,0,0,0,0,0,0,0,0,0,0,0,0,0,0,0,0,0,0,0,0,0,0,0,0,0,0,0,0,0,0,0,0,0,0,0,0,0,0,0,0,0,0,0,0,0,0,0,0,0,0,0,0,0,0,0,0,0,0,0,0,0,0,0,0,0,0,0,0,0,0,0,0,0,0,0,0,0,0,0,0,0,0,0,0,0,0,0,0,0,0,0,0,0,0,0,0,0,0,0,0,0,0],"id":3,"left_children":[1,3,5,7,9,11,13,15,17,-1,19,21,23,25,27,29,-1,31,33,35,37,39,41,43,45,47,49,51,53,-1,-1,-1,-1,-1,-1,55,57,-1,-1,59,-1,61,63,65,67,69,71,-1,-1,-1,-1,73,75,-1,77,79,81,83,85,-1,-1,-1,-1,-1,-1,87,-1,89,91,93,95,97,99,101,103,105,107,109,111,113,115,-1,117,-1,-1,119,121,123,125,127,129,-1,-1,131,-1,-1,-1,133,135,137,-1,-1,-1,139,-1,141,-1,143,-1,-1,-1,145,-1,-1,-1,147,149,-1,151,-1,-1,-1,-1,-1,-1,-1,-1,-1,-1,-1,153,155,157,-1,-1,159,-1,-1,161,-1,163,-1,-1,-1,-1,-1,-1,-1,165,167,169,-1,-1,-1,171,-1,-1,173,175,-1,-1,-1,-1,-1,-1,177,-1,-1,-1,179,-1,-1,-1,-1,-1,-1,-1,181,183,185,187,-1,-1,-1,-1,-1,-1,-1,-1],"loss_changes":[3.801111E2,4.6057068E1,3.301638E1,6.757788E1,1.3410309E1,3.886279E1,3.0856323E-1,7.159115E0,3.9108368E1,0E0,4.391266E0,1.2190285E0,2.4180233E1,1.9067383E-1,3.764038E-1,8.336029E-1,0E0,1.8901157E-1,1.3222778E1,8.789375E0,1.086998E0,2.6587944E0,1.2360492E0,4.9005688E1,6.6903114E-1,4.084015E-2,6.630206E-2,1.7448044E-1,2.5520325E-3,0E0,0E0,0E0,0E0,0E0,0E0,3.0327835E0,7.809819E0,0E0,0E0,1.4123929E-1,0E0,7.086086E-2,4.1042924E0,4.636545E0,5.729763E0,4.590025E-1,1.6857433E-1,0E0,0E0,0E0,0E0,3.0498862E-2,2.3491597E-1,0E0,1.2913895E-1,3.5161285E0,4.351537E0,1.2837386E-1,4.6926203E0,0E0,0E0,0E0,0E0,0E0,0E0,1.046751E0,0E0,7.085724E0,2.995884E0,1.24224424E-1,1.6282052E-3,2.0853043E-2,4.3991327E-1,6.236607E-3,4.6555996E-3,2.685001E-1,1.5689707E-1,2.322483E-1,2.5696385E-1,1.8758311E0,1.1453705E0,0E0,5.3552485E-1,0E0,0E0,8.303976E0,1.1998099E0,5.563259E-2,7.347032E-2,5.2424183E0,1.6028879E0,0E0,0E0,1.508758E-1,0E0,0E0,0E0,1.6822836E-1,9.857178E-3,2.7362052E-1,0E0,0E0,0E0,8.679479E-3,0E0,2.4864465E-2,0E0,7.158947E-2,0E0,0E0,0E0,1.674347E-2,0E0,0E0,0E0,6.4069443E0,4.748804E0,0E0,4.856378E-2,0E0,0E0,0E0,0E0,0E0,0E0,0E0,0E0,0E0,0E0,0E0,4.974327E-1,8.69894E-3,3.0824506E-1,0E0,0E0,3.1347275E-3,0E0,0E0,2.8569067E-1,0E0,1.0433286E-2,0E0,0E0,0E0,0E0,0E0,0E0,0E0,5.485573E0,1.3540845E1,5.9458923E0,0E0,0E0,0E0,4.228659E-3,0E0,0E0,2.8770052E-2,5.6442916E-3,0E0,0E0,0E0,0E0,0E0,0E0,2.5838451E0,0E0,0E0,0E0,3.1465824E0,0E0,0E0,0E0,0E0,0E0,0E0,0E0,4.613219E0,3.820591E-1,5.949088E-1,7.891655E-3,0E0,0E0,0E0,0E0,0E0,0E0,0E0,0E0],"parents":[2147483647,0,0,1,1,2,2,3,3,4,4,5,5,6,6,7,7,8,8,10,10,11,11,12,12,13,13,14,14,15,15,17,17,18,18,19,19,20,20,21,21,22,22,23,23,24,24,25,25,26,26,27,27,28,28,35,35,36,36,39,39,41,41,42,42,43,43,44,44,45,45,46,46,51,51,52,52,54,54,55,55,56,56,57,57,58,58,65,65,67,67,68,68,69,69,70,70,71,71,72,72,73,73,74,74,75,75,76,76,77,77,78,78,79,79,80,80,82,82,85,85,86,86,87,87,88,88,89,89,90,90,93,93,97,97,98,98,99,99,103,103,105,105,107,107,111,111,115,115,116,116,118,118,130,130,131,131,132,132,135,135,138,138,140,140,148,148,149,149,150,150,154,154,157,157,158,158,165,165,169,169,177,177,178,178,179,179,180,180],"right_children":[2,4,6,8,10,12,14,16,18,-1,20,22,24,26,28,30,-1,32,34,36,38,40,42,44,46,48,50,52,54,-1,-1,-1,-1,-1,-1,56,58,-1,-1,60,-1,62,64,66,68,70,72,-1,-1,-1,-1,74,76,-1,78,80,82,84,86,-1,-1,-1,-1,-1,-1,88,-1,90,92,94,96,98,100,102,104,106,108,110,112,114,116,-1,118,-1,-1,120,122,124,126,128,130,-1,-1,132,-1,-1,-1,134,136,138,-1,-1,-1,140,-1,142,-1,144,-1,-1,-1,146,-1,-1,-1,148,150,-1,152,-1,-1,-1,-1,-1,-1,-1,-1,-1,-1,-1,154,156,158,-1,-1,160,-1,-1,162,-1,164,-1,-1,-1,-1,-1,-1,-1,166,168,170,-1,-1,-1,172,-1,-1,174,176,-1,-1,-1,-1,-1,-1,178,-1,-1,-1,180,-1,-1,-1,-1,-1,-1,-1,182,184,186,188,-1,-1,-1,-1,-1,-1,-1,-1],"split_conditions":[-1.4459695E0,1.1467087E0,-4.5840463E-1,-1.4608E0,-6.951844E-1,-1.5860147E0,8.876157E-1,-1.7758368E0,1.0988531E0,1.1375953E0,-5.519641E-1,-4.6178955E-1,-5.422155E-1,2.4952662E0,-3.6764053E-1,-1.7811353E0,-1.3471232E-1,-5.522349E-1,-5.520981E-1,-5.520995E-1,-5.5182874E-1,7.688829E-1,8.012622E-1,-1.2262771E0,-6.160141E-3,-4.270362E-1,2.4953566E0,-8.4375685E-1,-4.940343E-1,1.4706266E-1,6.6559863E-1,1.6602878E-1,6.610153E-1,2.967388E0,6.5659404E-1,-1.4604971E0,-1.781724E0,6.885783E-1,1.4907265E-1,-4.619687E-1,5.70806E-1,1.7937355E-1,8.053832E-1,-4.940343E-1,-4.3961257E-1,-6.679776E-2,1.5063483E-1,-1.2393248E-1,-1.558424E-1,-1.2390697E-2,-1.06287934E-1,2.3337188E0,8.909472E-1,-1.17665306E-1,-1.6335861E-1,-5.523703E-1,-6.9481504E-1,-1.7823128E0,-6.9481504E-1,2.032563E-1,3.1605795E-2,1.4007522E-1,3.6843646E-1,-2.7752987E-1,3.3102602E-1,-6.945514E-1,2.6946202E-1,-5.4821813E-1,-5.479022E-1,1.8513008E0,-4.892738E-1,-1.579744E0,-4.8778442E-1,-8.5035765E-1,-3.6768708E-1,8.8973576E-1,8.7014186E-1,-1.7406899E-1,9.836239E-1,-6.940764E-1,-1.7814296E0,5.3214085E-1,-5.5218977E-1,-3.6498442E-1,-8.423567E-2,1.1661811E0,-1.7814296E0,-5.519641E-1,-5.483535E-1,-5.4826325E-1,-5.2825016E-1,1.3123741E0,3.9935505E-1,-4.8963624E-1,-1.3330731E-1,5.050203E-2,1.2284429E-2,-4.892738E-1,-4.6246654E-1,2.1803813E-2,-1.5761134E-1,-5.8049443E-3,-3.128766E-2,-1.8034749E-1,-1.6635865E-2,-4.316397E-1,6.256703E-2,7.509271E-1,-3.6782743E-3,-1.4041594E-1,-2.5684938E-1,-3.64934E-1,-1.1989069E-1,-1.3471232E-1,2.8526396E-1,1.2179972E0,-1.7811353E0,9.713087E-2,1.2209675E0,-1.3471232E-1,7.527643E-1,1.8050653E-1,-1.194702E-1,-1.5563795E-1,-5.5321965E-2,8.8775754E-2,-5.647552E-3,2.977116E-1,9.5511E-1,-1.3144109E-1,-5.2640355E-1,-1.4120904E0,-4.746509E-1,2.1015305E-2,-1.13004096E-1,-4.200384E-1,-4.3599408E-2,5.2247275E-2,-4.1893044E-1,-2.6678707E-2,9.754466E-1,-8.2129E-2,-1.2760976E-2,-2.3041133E-2,-1.3555375E-1,-2.0915948E-2,1.7941002E-2,1.0446709E0,-1.4608E0,-1.4629201E0,-1.4617087E0,-2.2446228E-2,-1.3471232E-1,2.8112665E-1,-5.480827E-1,-4.442918E-2,-9.6416846E-2,-8.1652606E-1,-2.958078E-1,-1.5827379E-1,-4.5470975E-2,-1.1738435E-1,3.9285477E-2,-8.927116E-2,-3.1222416E-2,-1.4614058E0,-1.1932995E-1,5.4769206E-1,-5.5625564E-1,-5.5218977E-1,7.9044884E-1,1.473459E-2,6.442906E-2,-4.477698E-3,5.0255015E-2,-2.1876097E-2,-8.6546965E-2,-5.5218977E-1,-1.7826071E0,-1.4620116E0,-5.5214465E-1,4.3490475E-1,-2.211584E-1,1.75057E-1,6.88951E-1,-7.879646E-2,1.3251454E-1,5.258423E-1,1.4031434E-1],"split_indices":[3,7,0,4,1,7,4,2,7,0,0,0,0,0,0,2,0,0,0,0,0,2,2,3,2,0,0,7,6,0,0,0,0,0,0,4,2,0,0,0,0,1,2,6,1,2,6,0,0,0,0,6,4,0,1,0,1,2,1,0,0,0,0,0,0,4,0,0,0,1,0,7,0,7,0,4,2,1,4,1,2,0,0,0,0,7,2,0,0,0,1,0,0,0,0,0,0,0,0,2,0,0,0,1,0,0,0,2,0,0,0,0,0,0,0,7,2,0,7,0,0,0,0,0,0,0,0,0,0,0,1,3,0,0,0,1,0,0,1,0,4,0,0,0,0,0,0,0,4,4,4,0,0,0,0,0,0,2,2,0,0,0,0,0,0,4,0,0,0,0,0,0,0,0,0,0,0,0,2,4,0,0,0,0,0,0,0,0,0],"split_type":[0,0,0,0,0,0,0,0,0,0,0,0,0,0,0,0,0,0,0,0,0,0,0,0,0,0,0,0,0,0,0,0,0,0,0,0,0,0,0,0,0,0,0,0,0,0,0,0,0,0,0,0,0,0,0,0,0,0,0,0,0,0,0,0,0,0,0,0,0,0,0,0,0,0,0,0,0,0,0,0,0,0,0,0,0,0,0,0,0,0,0,0,0,0,0,0,0,0,0,0,0,0,0,0,0,0,0,0,0,0,0,0,0,0,0,0,0,0,0,0,0,0,0,0,0,0,0,0,0,0,0,0,0,0,0,0,0,0,0,0,0,0,0,0,0,0,0,0,0,0,0,0,0,0,0,0,0,0,0,0,0,0,0,0,0,0,0,0,0,0,0,0,0,0,0,0,0,0,0,0,0,0,0,0,0,0,0,0,0],"sum_hessian":[4.96E2,6.4E1,4.32E2,1.2E1,5.2E1,1.39E2,2.93E2,7E0,5E0,3E0,4.9E1,2E1,1.19E2,1.78E2,1.15E2,6E0,1E0,2E0,3E0,3.5E1,1.4E1,1.2E1,8E0,3.9E1,8E1,1.61E2,1.7E1,3.3E1,8.2E1,1E0,5E0,1E0,1E0,2E0,1E0,2.7E1,8E0,1.3E1,1E0,3E0,9E0,6E0,2E0,2.5E1,1.4E1,3.1E1,4.9E1,3.1E1,1.3E2,1E0,1.6E1,1.2E1,2.1E1,4.4E1,3.8E1,2.3E1,4E0,2E0,6E0,2E0,1E0,2E0,4E0,1E0,1E0,2.3E1,2E0,1.1E1,3E0,2.9E1,2E0,4.1E1,8E0,4E0,8E0,5E0,1.6E1,2.6E1,1.2E1,2E0,2.1E1,1E0,3E0,1E0,1E0,3E0,3E0,2.1E1,2E0,6E0,5E0,1E0,2E0,2.3E1,6E0,1E0,1E0,2E0,3.9E1,5E0,3E0,2E0,2E0,7E0,1E0,4E0,1E0,1.5E1,1E0,2.3E1,3E0,2E0,1E1,1E0,1E0,1.1E1,1E1,1E0,2E0,1E0,2E0,1E0,2E0,1.9E1,2E0,1E0,1E0,4E0,2E0,1E0,4E0,1.6E1,7E0,1E0,1E0,3.8E1,1E0,2E0,3E0,2E0,5E0,3E0,1E0,1E0,1.4E1,1E0,1E0,3E0,8E0,2E0,8E0,1E0,1E0,2E0,2E0,3E0,1.3E1,3E0,4E0,3.7E1,1E0,2E0,1E0,3E0,2E0,7E0,1E0,1E0,1E0,5E0,3E0,1E0,1E0,1E0,2E0,1E0,3E0,2E0,5E0,3E0,2E0,1E0,1E0,1E0,4E0,2E0,1E0,1E0,1E0],"tree_param":{"num_deleted":"0","num_feature":"8","num_nodes":"189","size_leaf_vector":"1"}},{"base_weights":[7.882199E-2,1.8054557E0,-1.805545E-1,3.2461805E0,1.4180052E0,1.2214619E-1,-3.2408354E-1,1.2567453E0,5.357731E0,9.635524E-1,1.2846814E0,4.7512075E-1,-3.0443487E-1,-2.755199E-1,-3.42197E-1,1.5453333E0,-1.1450548E-1,1.5621943E0,6.86495E0,8.416043E-1,1.5433891E0,-2.137603E-1,1.1877555E0,-1.6228041E-1,-3.446397E-1,-2.821316E-1,-7.5683993E-4,-3.5334224E-1,-2.7171057E-1,1.2500325E-1,4.991989E-1,1.4112447E-1,5.61863E-1,2.3739102E0,5.5810493E-1,1.2999376E0,-5.208852E-1,2.9652762E0,1.222914E0,1.670373E-1,-2.995973E-1,-1.962296E-1,1.3119894E0,1.2473686E-1,-2.6834756E-1,-1.09464996E-1,-2.1412548E-1,-8.89605E-2,-1.473333E-1,1.0506249E-2,-1.0846827E-2,-1.09010555E-1,-2.4403276E-1,-1.3386232E-1,-3.6623758E-1,1.6118258E0,6.686776E-1,-9.1704243E-1,2.1898514E-1,2.9284063E-1,1.1897975E0,4.0495685E-1,1.3904063E0,2.155696E-1,-1.3656627E-1,-3.277772E-1,9.1461144E-2,-7.529157E-2,-4.800421E-3,1.115518E0,1.1318483E0,5.7944607E-2,1.474607E-2,-1.0234253E-1,-3.123112E-1,3.1770036E-2,-3.4236825E-1,-1.9634709E-1,3.2481264E-2,-1.0532096E-2,-7.627722E-2,-1.5068574E-1,1.5249852E-2,-2.6022696E-1,-5.525561E-1,1.1926718E-1,5.1077145E-1,-1.1450548E-1,9.0735215E-1,-4.7281727E-1,-1.0748227E-1,8.995972E-1,-3.1023675E-1,-1.1450548E-1,1.492967E0,-1.6800988E-2,-4.885408E-2,-3.584694E-1,-1.7133701E-1,5.4764703E-2,-1.3607186E-2,1.293032E0,7.7201056E-1,1.0441769E-2,-3.806037E-3,-5.1814225E-2,1.6315816E-2,-1.8594682E-2,-1.0075636E-1,-6.1735217E-2,5.3864826E-2,1.529215E-2,-1.2936942E-1,-6.684936E-2,-7.7929884E-2,5.3181984E-2,-3.8565416E-2,-1.8757047E-1,-7.024437E-2,-2.9977802E-2,-8.8458374E-2,-1.9022366E-1,-2.1741325E-2,3.252976E-1,3.373003E-3,3.7361223E-1,2.5395465E-1,1.6057838E0,-1.1450548E-1,-1.13490716E-1,-1.5977067E-1,-2.1613568E-1,1.4618254E-2,7.099217E-1,1.5755292E0,2.8474927E-1,9.569323E-1,-2.2544637E-3,-3.2813985E-2,-9.701491E-2,-2.765112E-1,-4.059857E-3,-2.8565075E-2,1.6422273E-3,1.1263737E-1,8.434467E-1,1.8722537E0,3.7996363E-2,-8.923917E-2,-1.9064153E-2,-8.2962945E-2,1.1962787E-1,8.6148745E-1,7.64088E-1,1.2013775E0,-2.359004E-1,2.2473118E-1,3.3472636E-1,8.0210954E-2,-3.3324298E-2,-4.0026787E-3,-1.572556E-2,-1.0012077E-1,1.341505E0,-2.6779947E-1,4.0374318E-1,2.0833602E0,1.6555746E-1,-1.1172492E-1,7.545939E-2,9.212249E-1,1.5297976E-1,3.8660195E-1,4.617838E-1,8.2561255E-2,-1.0143047E-1,-1.9079305E-2,3.6966908E-1,-1.8798463E-1,7.8884715E-1,3.2969442E-1,3.24701E-1,3.993342E-1,1.6717598E-1,1.2524415E-2],"categories":[],"categories_nodes":[],"categories_segments":[],"categories_sizes":[],"default_left":[0,0,0,0,0,0,0,0,0,0,0,0,0,0,0,0,0,0,0,0,0,0,0,0,0,0,0,0,0,0,0,0,0,0,0,0,0,0,0,0,0,0,0,0,0,0,0,0,0,0,0,0,0,0,0,0,0,0,0,0,0,0,0,0,0,0,0,0,0,0,0,0,0,0,0,0,0,0,0,0,0,0,0,0,0,0,0,0,0,0,0,0,0,0,0,0,0,0,0,0,0,0,0,0,0,0,0,0,0,0,0,0,0,0,0,0,0,0,0,0,0,0,0,0,0,0,0,0,0,0,0,0,0,0,0,0,0,0,0,0,0,0,0,0,0,0,0,0,0,0,0,0,0,0,0,0,0,0,0,0,0,0,0,0,0,0,0,0,0,0,0,0,0,0,0,0,0,0,0,0,0,0,0,0,0],"id":4,"left_children":[1,3,5,7,9,11,13,15,17,-1,19,21,23,25,27,29,-1,31,33,35,37,39,41,43,45,47,49,51,53,-1,-1,-1,-1,-1,-1,55,57,59,61,63,65,67,69,71,73,-1,75,-1,77,-1,-1,-1,79,81,83,85,87,89,-1,-1,-1,91,93,-1,95,97,99,-1,-1,-1,101,-1,103,105,107,109,111,113,115,-1,-1,117,-1,119,121,-1,-1,-1,123,-1,-1,125,-1,-1,127,-1,-1,129,131,-1,-1,133,135,-1,-1,-1,-1,-1,-1,-1,-1,-1,-1,-1,137,-1,-1,139,141,-1,-1,-1,-1,-1,-1,-1,143,145,-1,-1,147,149,-1,151,153,155,157,-1,-1,159,161,-1,-1,-1,-1,163,165,-1,-1,-1,-1,167,169,-1,171,-1,-1,-1,-1,-1,-1,-1,-1,173,175,177,179,-1,-1,-1,181,-1,-1,-1,-1,-1,-1,-1,-1,-1,-1,-1,183,-1,-1],"loss_changes":[2.2290652E2,3.1680527E1,1.8851852E1,4.7877E1,8.549332E0,2.1224762E1,1.6433525E-1,4.3724785E0,2.3599838E1,0E0,4.547081E0,3.805478E1,3.098507E-1,1.5420151E-1,6.896591E-2,2.441597E-1,0E0,1.3656044E-1,6.2599487E0,1.3791078E1,1.0499779E1,1.3575048E0,6.791092E0,5.205625E-1,5.1330566E-2,1.174593E-1,5.0657243E-3,1.0640907E-1,3.809774E-1,0E0,0E0,0E0,0E0,0E0,0E0,2.0723286E0,3.642561E0,6.0814743E0,3.1359863E0,1.4376987E0,3.9363885E-1,3.544852E-2,1.0963566E1,3.4775183E-2,5.5615544E-2,0E0,2.9468596E-1,0E0,9.4511524E-2,0E0,0E0,0E0,2.952516E-2,5.4267883E-2,2.31493E-1,4.2502785E-1,2.1011863E0,1.2765226E0,0E0,0E0,0E0,5.201254E0,4.5682793E0,0E0,3.583528E-3,8.742738E-2,4.5667425E-2,0E0,0E0,0E0,9.7377014E-1,0E0,2.09247E-3,5.3510163E-2,3.2225132E-2,1.773708E-1,2.3170328E-1,7.724166E-3,9.273745E-2,0E0,0E0,2.836299E-2,0E0,4.8262417E-2,1.8887484E-1,0E0,0E0,0E0,9.3933105E-1,0E0,0E0,7.99973E-1,0E0,0E0,5.054241E0,0E0,0E0,3.807807E-2,7.954194E-2,0E0,0E0,2.5054932E0,8.9888144E-1,0E0,0E0,0E0,0E0,0E0,0E0,0E0,0E0,0E0,0E0,0E0,5.821692E-3,0E0,0E0,4.5661002E-2,7.2088297E-3,0E0,0E0,0E0,0E0,0E0,0E0,0E0,8.851829E-2,2.4836502E0,0E0,0E0,1.954304E-1,3.773138E-2,0E0,7.02157E-1,2.028614E0,3.07586E0,6.873417E-1,0E0,0E0,5.579602E-3,3.3800572E-2,0E0,0E0,0E0,0E0,4.233512E0,3.4990234E0,0E0,0E0,0E0,0E0,8.435503E-1,2.3343086E-2,0E0,6.7186356E-2,0E0,0E0,0E0,0E0,0E0,0E0,0E0,0E0,6.3081837E-1,2.1564946E-2,3.3330507E0,3.5614243E0,0E0,0E0,0E0,7.228279E-2,0E0,0E0,0E0,0E0,0E0,0E0,0E0,0E0,0E0,0E0,0E0,1.4614472E-1,0E0,0E0],"parents":[2147483647,0,0,1,1,2,2,3,3,4,4,5,5,6,6,7,7,8,8,10,10,11,11,12,12,13,13,14,14,15,15,17,17,18,18,19,19,20,20,21,21,22,22,23,23,24,24,25,25,26,26,27,27,28,28,35,35,36,36,37,37,38,38,39,39,40,40,41,41,42,42,43,43,44,44,46,46,48,48,52,52,53,53,54,54,55,55,56,56,57,57,61,61,62,62,64,64,65,65,66,66,70,70,72,72,73,73,74,74,75,75,76,76,77,77,78,78,81,81,83,83,84,84,88,88,91,91,94,94,97,97,98,98,101,101,102,102,114,114,117,117,118,118,126,126,127,127,130,130,131,131,133,133,134,134,135,135,136,136,139,139,140,140,145,145,146,146,151,151,152,152,154,154,163,163,164,164,165,165,166,166,170,170,182,182],"right_children":[2,4,6,8,10,12,14,16,18,-1,20,22,24,26,28,30,-1,32,34,36,38,40,42,44,46,48,50,52,54,-1,-1,-1,-1,-1,-1,56,58,60,62,64,66,68,70,72,74,-1,76,-1,78,-1,-1,-1,80,82,84,86,88,90,-1,-1,-1,92,94,-1,96,98,100,-1,-1,-1,102,-1,104,106,108,110,112,114,116,-1,-1,118,-1,120,122,-1,-1,-1,124,-1,-1,126,-1,-1,128,-1,-1,130,132,-1,-1,134,136,-1,-1,-1,-1,-1,-1,-1,-1,-1,-1,-1,138,-1,-1,140,142,-1,-1,-1,-1,-1,-1,-1,144,146,-1,-1,148,150,-1,152,154,156,158,-1,-1,160,162,-1,-1,-1,-1,164,166,-1,-1,-1,-1,168,170,-1,172,-1,-1,-1,-1,-1,-1,-1,-1,174,176,178,180,-1,-1,-1,182,-1,-1,-1,-1,-1,-1,-1,-1,-1,-1,-1,184,-1,-1],"split_conditions":[-1.4459695E0,1.1467087E0,-4.5840463E-1,-1.4608E0,-5.5282164E-1,4.5179287E-1,-5.5004025E-1,-1.7758368E0,1.0988531E0,9.635524E-1,1.1925842E0,-7.0818037E-1,-6.160141E-3,1.237293E0,2.3231373E0,-1.7811353E0,-1.1450548E-1,-5.522349E-1,-5.520981E-1,1.1780624E0,1.2150269E0,5.712577E-1,-7.6265866E-1,-4.8710743E-1,1.5063483E-1,-5.507789E-1,-4.3222782E-1,2.4952662E0,2.3426726E0,1.2500325E-1,4.991989E-1,1.4112447E-1,5.61863E-1,2.3739102E0,5.5810493E-1,-1.4608E0,-5.519641E-1,1.2090862E0,-1.4617087E0,-5.480827E-1,-9.750045E-1,-4.3296474E-1,-7.38227E-1,-4.8904952E-1,1.0190592E0,-1.09464996E-1,-4.887322E-1,-8.89605E-2,8.6867005E-1,1.0506249E-2,-1.0846827E-2,-1.09010555E-1,2.4953566E0,-3.64934E-1,8.5277474E-1,1.1612304E0,-5.520544E-1,-5.520995E-1,2.1898514E-1,2.9284063E-1,1.1897975E0,-5.5218977E-1,-5.523703E-1,2.155696E-1,-9.73793E-1,-1.18701E0,-5.479022E-1,-7.529157E-2,-4.800421E-3,1.115518E0,-4.6210548E-1,5.7944607E-2,-4.887322E-1,-2.8903762E-1,1.8490849E0,-4.9473622E-1,-4.2077705E-1,-4.2811936E-1,-4.3204588E-1,-1.0532096E-2,-7.627722E-2,-8.506877E-1,1.5249852E-2,2.3784876E0,8.9633965E-1,1.1926718E-1,5.1077145E-1,-1.1450548E-1,1.1665112E0,-4.7281727E-1,-1.0748227E-1,-5.522349E-1,-3.1023675E-1,-1.1450548E-1,1.3879673E0,-1.6800988E-2,-4.885408E-2,-4.9469107E-1,-6.696519E-2,5.4764703E-2,-1.3607186E-2,-3.8823605E-1,1.8343611E-1,1.0441769E-2,-3.806037E-3,-5.1814225E-2,1.6315816E-2,-1.8594682E-2,-1.0075636E-1,-6.1735217E-2,5.3864826E-2,1.529215E-2,-1.2936942E-1,-6.684936E-2,-4.2784858E-1,5.3181984E-2,-3.8565416E-2,-1.7148373E-1,9.518231E-1,-2.9977802E-2,-8.8458374E-2,-1.9022366E-1,-2.1741325E-2,3.252976E-1,3.373003E-3,3.7361223E-1,-6.9481504E-1,1.2209675E0,-1.1450548E-1,-1.13490716E-1,-4.9468967E-1,-1.6864543E-1,1.4618254E-2,-5.2825016E-1,-3.8205454E-1,-1.655983E0,1.9082257E-1,-2.2544637E-3,-3.2813985E-2,-1.725917E-1,-3.6890706E-1,-4.059857E-3,-2.8565075E-2,1.6422273E-3,1.1263737E-1,-5.5214465E-1,-1.4614058E0,3.7996363E-2,-8.923917E-2,-1.9064153E-2,-8.2962945E-2,-5.4826325E-1,-5.483535E-1,7.64088E-1,-5.2640355E-1,-2.359004E-1,2.2473118E-1,3.3472636E-1,8.0210954E-2,-3.3324298E-2,-4.0026787E-3,-1.572556E-2,-1.0012077E-1,-1.4604971E0,-6.9481504E-1,-5.5218977E-1,1.2338392E0,1.6555746E-1,-1.1172492E-1,7.545939E-2,1.3348168E-1,1.5297976E-1,3.8660195E-1,4.617838E-1,8.2561255E-2,-1.0143047E-1,-1.9079305E-2,3.6966908E-1,-1.8798463E-1,7.8884715E-1,3.2969442E-1,3.24701E-1,-5.267729E-1,1.6717598E-1,1.2524415E-2],"split_indices":[3,7,0,4,0,4,1,2,7,0,7,4,2,6,6,2,0,0,0,7,7,5,2,0,6,1,0,0,6,0,0,0,0,0,0,4,0,7,4,0,4,1,2,0,4,0,0,0,2,0,0,0,0,0,2,7,0,0,0,0,0,0,0,0,4,4,0,0,0,0,0,0,0,2,1,0,1,0,0,0,0,7,0,6,2,0,0,0,7,0,0,0,0,0,7,0,0,0,1,0,0,2,1,0,0,0,0,0,0,0,0,0,0,0,0,0,0,1,4,0,0,0,0,0,0,0,1,7,0,0,0,2,0,1,2,7,1,0,0,1,0,0,0,0,0,0,4,0,0,0,0,0,0,0,1,0,0,0,0,0,0,0,0,4,1,0,7,0,0,0,4,0,0,0,0,0,0,0,0,0,0,0,1,0,0],"split_type":[0,0,0,0,0,0,0,0,0,0,0,0,0,0,0,0,0,0,0,0,0,0,0,0,0,0,0,0,0,0,0,0,0,0,0,0,0,0,0,0,0,0,0,0,0,0,0,0,0,0,0,0,0,0,0,0,0,0,0,0,0,0,0,0,0,0,0,0,0,0,0,0,0,0,0,0,0,0,0,0,0,0,0,0,0,0,0,0,0,0,0,0,0,0,0,0,0,0,0,0,0,0,0,0,0,0,0,0,0,0,0,0,0,0,0,0,0,0,0,0,0,0,0,0,0,0,0,0,0,0,0,0,0,0,0,0,0,0,0,0,0,0,0,0,0,0,0,0,0,0,0,0,0,0,0,0,0,0,0,0,0,0,0,0,0,0,0,0,0,0,0,0,0,0,0,0,0,0,0,0,0,0,0,0,0],"sum_hessian":[4.96E2,6.4E1,4.32E2,1.2E1,5.2E1,1.39E2,2.93E2,7E0,5E0,2E0,5E1,7.6E1,6.3E1,8.4E1,2.09E2,6E0,1E0,2E0,3E0,2E1,3E1,3.9E1,3.7E1,1.5E1,4.8E1,8.2E1,2E0,1.77E2,3.2E1,1E0,5E0,1E0,1E0,2E0,1E0,1.5E1,5E0,4E0,2.6E1,7E0,3.2E1,3E0,3.4E1,4E0,1.1E1,4E1,8E0,7.3E1,9E0,1E0,1E0,1.6E2,1.7E1,1.4E1,1.8E1,9E0,6E0,4E0,1E0,2E0,2E0,5E0,2.1E1,2E0,5E0,3E1,2E0,2E0,1E0,1E0,3.3E1,2E0,2E0,3E0,8E0,3E0,5E0,7E0,2E0,1E0,1.6E1,1.3E1,1E0,1.3E1,5E0,1E0,8E0,1E0,5E0,1E0,3E0,4E0,1E0,1E0,2E1,2E0,3E0,2.4E1,6E0,1E0,1E0,2.1E1,1.2E1,1E0,1E0,2E0,1E0,1E0,7E0,1E0,2E0,1E0,4E0,5E0,2E0,1E0,1E0,8E0,5E0,3E0,1E1,4E0,1E0,4E0,1E0,2E0,2E0,1.9E1,1E0,2.1E1,3E0,5E0,1E0,8E0,1.3E1,4E0,8E0,1E0,1E0,5E0,3E0,2E0,3E0,1E0,1E0,6E0,1.3E1,1E0,2E0,2E0,3E0,2E0,6E0,2E0,1.1E1,1E0,3E0,6E0,2E0,4E0,1E0,1E0,2E0,4E0,2E0,2E0,1.1E1,1E0,1E0,1E0,5E0,2E0,9E0,3E0,1E0,1E0,1E0,1E0,1E0,6E0,5E0,3E0,2E0,1E0,1E0],"tree_param":{"num_deleted":"0","num_feature":"8","num_nodes":"185","size_leaf_vector":"1"}},{"base_weights":[7.704042E-2,1.3983803E0,-1.2149107E-1,2.5911493E0,1.0794299E0,3.9766252E-1,-1.7388867E-1,9.434338E-1,4.356245E0,7.0908254E-1,9.551069E-1,-1.3427451E-1,1.2931758E0,2.4528907E-1,-2.2194628E-1,1.170905E0,-9.7329654E-2,1.1995579E-1,1.5202659E0,6.1211777E-1,1.1633624E0,-2.1732059E-1,5.748523E-1,8.775776E-1,2.2166767E0,7.659753E-1,-8.612329E-2,-1.9768518E-1,-2.4378817E-1,4.066998E-1,1.4180055E-1,9.6271914E-1,-4.2483872E-1,2.3722212E0,8.861449E-1,-7.658312E-2,1.3346696E-1,2.1441805E-1,4.4265497E-2,1.2893711E0,2.5088882E-1,9.481903E-1,2.5454387E-1,9.055439E-1,4.7926784E-1,5.628903E-2,-2.1034023E-1,-8.970245E-2,-2.4674682E-1,1.191282E0,4.986693E-1,-7.579896E-1,1.8613738E-1,2.3427252E-1,9.5183814E-1,-1.2645477E-1,1.0237211E0,6.414049E-2,-4.080355E-3,1.747737E-1,6.1127037E-1,-9.496619E-2,4.2768818E-1,3.145315E-1,3.1541836E-1,1.9709077E-1,1.9967742E-1,-6.7559585E-2,1.688853E-1,-2.9732192E-1,-1.8960649E-1,-2.9872099E-2,-7.5326446E-3,-7.512295E-2,-1.7520747E-1,5.2568465E-1,1.4014403E0,-9.7329654E-2,6.899249E-1,-4.0189472E-1,-8.329876E-2,4.173964E-1,-2.6370126E-1,-9.7329654E-2,1.0997478E0,1.757136E-1,1.2710166E-1,1.1592375E-1,1.4833296E-2,-2.0051534E-1,5.805557E-1,8.875501E-3,5.6151357E-2,1.2998325E-2,-3.1056252E-1,-1.1957442E-1,-1.99276E-1,-1.21314235E-1,-8.8934734E-2,-1.728137E-1,3.25483E-1,9.895084E-2,1.5250683E0,2.4722615E-1,2.867067E-3,1.8643248E-1,1.3958932E-3,1.183015E0,-9.7329654E-2,1.0645759E-2,4.654999E-2,6.711397E-2,2.4766245E-1,-3.9003477E-1,-1.9755404E-1,-3.383062E-2,-1.3353696E-1,-1.9268215E-1,-3.097607E-1,-2.0683508E-3,-7.204393E-2,1.013771E-1,5.084738E-1,6.493752E-1,1.403451E0,-4.0782368E-1,-1.8480135E-2,-2.4664122E-1,-1.3175763E-2,-1.4708953E-2,-3.72628E-3,-1.4034897E-1,-1.71706E-2,-2.004786E-1,-7.944802E-2,-1.0951932E-1,-1.3281879E-2,-2.3291968E-2,2.9814947E-2,9.796484E-1,-2.2762959E-1,3.431817E-1,1.551564E0,-3.2188338E-1,-1.6910663E-1,-7.823051E-2,-1.5805472E-2,1.788721E-2,-3.4736276E-2,-2.401473E-2,-4.69392E-2,-1.8249649E-1,-2.2558667E-1,-2.5957746E-2,-5.3332802E-2,1.1061254E-1,3.578824E-1,-8.621589E-2,-1.6217424E-2,3.1421873E-1,-1.5978695E-1,5.860008E-1,2.4727085E-1,-1.0959379E-1,-2.0947453E-2,-6.1270867E-2,-1.2515062E-1,-7.248553E-2,-1.15491495E-1,8.930308E-3,-1.2061981E-2,9.495467E-3,-4.2996593E-2,-5.549025E-2,4.5204684E-2],"categories":[],"categories_nodes":[],"categories_segments":[],"categories_sizes":[],"default_left":[0,0,0,0,0,0,0,0,0,0,0,0,0,0,0,0,0,0,0,0,0,0,0,0,0,0,0,0,0,0,0,0,0,0,0,0,0,0,0,0,0,0,0,0,0,0,0,0,0,0,0,0,0,0,0,0,0,0,0,0,0,0,0,0,0,0,0,0,0,0,0,0,0,0,0,0,0,0,0,0,0,0,0,0,0,0,0,0,0,0,0,0,0,0,0,0,0,0,0,0,0,0,0,0,0,0,0,0,0,0,0,0,0,0,0,0,0,0,0,0,0,0,0,0,0,0,0,0,0,0,0,0,0,0,0,0,0,0,0,0,0,0,0,0,0,0,0,0,0,0,0,0,0,0,0,0,0,0,0,0,0,0,0,0,0,0,0,0,0,0,0,0,0,0,0],"id":5,"left_children":[1,3,5,7,9,11,13,15,17,-1,19,21,23,25,27,29,-1,-1,-1,31,33,35,37,39,41,43,-1,45,47,-1,-1,49,51,53,55,-1,57,-1,-1,59,61,-1,-1,63,65,67,69,71,73,75,77,79,-1,-1,-1,81,83,-1,-1,-1,-1,-1,85,87,-1,89,-1,-1,91,93,95,-1,-1,-1,97,99,101,-1,103,-1,-1,105,-1,-1,107,-1,109,-1,-1,-1,111,-1,-1,-1,113,115,117,119,-1,-1,-1,-1,121,-1,-1,-1,-1,123,-1,-1,-1,-1,-1,125,127,129,131,133,135,137,-1,-1,-1,139,141,143,-1,145,147,-1,-1,149,-1,151,153,-1,-1,-1,-1,155,157,159,161,163,-1,-1,-1,-1,-1,-1,-1,165,167,169,-1,-1,-1,-1,-1,-1,-1,-1,-1,-1,-1,-1,171,-1,173,-1,-1,-1,-1,-1,-1],"loss_changes":[1.3054669E2,2.193126E1,1.1847789E1,3.369906E1,6.2041016E0,1.922791E1,7.9914465E0,2.6871023E0,1.4859001E1,0E0,2.8593483E0,1.6560724E0,3.8117752E0,1.1584929E1,1.3939285E-1,2.622671E-1,0E0,0E0,0E0,8.043726E0,7.951378E0,3.536228E-1,7.384628E-2,2.7733078E0,2.4843464E0,4.0632534E-1,0E0,5.678716E-1,6.0837746E-2,0E0,0E0,1.1029787E0,2.5597496E0,3.8921452E0,3.751503E0,0E0,3.835196E-2,0E0,0E0,2.5146933E0,7.3732746E-1,0E0,0E0,7.8989697E-1,3.4200406E-1,3.2328287E-1,2.4119616E-1,6.879084E-4,2.7713776E-3,6.6209126E-1,1.325793E0,1.0249634E0,0E0,0E0,0E0,2.0039926E0,2.7141895E0,0E0,0E0,0E0,0E0,0E0,1.6305417E-1,5.711299E-2,0E0,2.0474312E0,0E0,0E0,1.2293145E-2,1.4876819E-1,6.8267345E-2,0E0,0E0,0E0,4.244578E-2,3.0895855E0,4.2434025E-1,0E0,5.3980255E-1,0E0,0E0,2.4976337E-1,0E0,0E0,2.9927368E0,0E0,2.2073612E-3,0E0,0E0,0E0,1.6500068E-1,0E0,0E0,0E0,1.8339705E-1,1.8229216E-2,2.6279926E-2,1.4120582E-1,0E0,0E0,0E0,0E0,6.370268E-1,0E0,0E0,0E0,0E0,1.5589333E0,0E0,0E0,0E0,0E0,0E0,6.8357706E-2,1.234588E-1,6.92646E-4,2.8333068E-4,8.471441E-2,5.7249814E-2,5.371718E-2,0E0,0E0,0E0,2.5402064E0,1.6660881E0,1.9484758E-2,0E0,1.6402006E-2,3.67842E-2,0E0,0E0,1.0794699E-3,0E0,6.6900253E-3,4.2721663E-2,0E0,0E0,0E0,0E0,3.4200716E-1,1.5580639E-2,2.4081295E0,1.8966293E0,1.05852604E-1,0E0,0E0,0E0,0E0,0E0,0E0,0E0,5.7967663E-2,4.2696E-2,6.7550233E-3,0E0,0E0,0E0,0E0,0E0,0E0,0E0,0E0,0E0,0E0,0E0,0E0,6.4371884E-2,0E0,1.5732017E-1,0E0,0E0,0E0,0E0,0E0,0E0],"parents":[2147483647,0,0,1,1,2,2,3,3,4,4,5,5,6,6,7,7,8,8,10,10,11,11,12,12,13,13,14,14,15,15,19,19,20,20,21,21,22,22,23,23,24,24,25,25,27,27,28,28,31,31,32,32,33,33,34,34,36,36,39,39,40,40,43,43,44,44,45,45,46,46,47,47,48,48,49,49,50,50,51,51,55,55,56,56,62,62,63,63,65,65,68,68,69,69,70,70,74,74,75,75,76,76,78,78,81,81,84,84,86,86,90,90,94,94,95,95,96,96,97,97,102,102,107,107,113,113,114,114,115,115,116,116,117,117,118,118,119,119,123,123,124,124,125,125,127,127,128,128,131,131,133,133,134,134,139,139,140,140,141,141,142,142,143,143,151,151,152,152,153,153,166,166,168,168],"right_children":[2,4,6,8,10,12,14,16,18,-1,20,22,24,26,28,30,-1,-1,-1,32,34,36,38,40,42,44,-1,46,48,-1,-1,50,52,54,56,-1,58,-1,-1,60,62,-1,-1,64,66,68,70,72,74,76,78,80,-1,-1,-1,82,84,-1,-1,-1,-1,-1,86,88,-1,90,-1,-1,92,94,96,-1,-1,-1,98,100,102,-1,104,-1,-1,106,-1,-1,108,-1,110,-1,-1,-1,112,-1,-1,-1,114,116,118,120,-1,-1,-1,-1,122,-1,-1,-1,-1,124,-1,-1,-1,-1,-1,126,128,130,132,134,136,138,-1,-1,-1,140,142,144,-1,146,148,-1,-1,150,-1,152,154,-1,-1,-1,-1,156,158,160,162,164,-1,-1,-1,-1,-1,-1,-1,166,168,170,-1,-1,-1,-1,-1,-1,-1,-1,-1,-1,-1,-1,172,-1,174,-1,-1,-1,-1,-1,-1],"split_conditions":[-1.4459695E0,1.1467087E0,-5.422155E-1,-1.4608E0,-6.951844E-1,-1.2262771E0,-1.5860147E0,-1.7758368E0,-5.522349E-1,7.0908254E-1,1.1925842E0,-4.940343E-1,-4.3961257E-1,-4.5840463E-1,-1.9093958E-1,-5.520981E-1,-9.7329654E-2,1.1995579E-1,1.5202659E0,1.1780624E0,1.2150269E0,-6.945514E-1,-5.483535E-1,-5.4821813E-1,-5.479022E-1,-4.6178955E-1,-8.612329E-2,-4.887322E-1,-5.367996E-1,4.066998E-1,1.4180055E-1,-1.4608E0,-5.519641E-1,1.2090862E0,-1.4620116E0,-7.658312E-2,-5.483535E-1,2.1441805E-1,4.4265497E-2,-5.4826325E-1,-5.2825016E-1,9.481903E-1,2.5454387E-1,7.688829E-1,1.8343611E-1,-4.9473622E-1,-8.95573E-1,-6.667465E-1,1.4005089E0,-5.5218977E-1,-5.520544E-1,-5.520995E-1,1.8613738E-1,2.3427252E-1,9.5183814E-1,-5.5218977E-1,-5.523703E-1,6.414049E-2,-4.080355E-3,1.747737E-1,6.1127037E-1,-9.496619E-2,-5.2640355E-1,-4.619687E-1,3.1541836E-1,-1.655983E0,1.9967742E-1,-6.7559585E-2,-1.5810641E0,5.605214E-1,7.9184276E-1,-2.9872099E-2,-7.5326446E-3,-7.512295E-2,1.5331845E0,-1.4626173E0,-1.7834902E0,-9.7329654E-2,1.1665112E0,-4.0189472E-1,-8.329876E-2,-5.523703E-1,-2.6370126E-1,-9.7329654E-2,1.3879673E0,1.757136E-1,-5.480827E-1,1.1592375E-1,1.4833296E-2,-2.0051534E-1,1.7937355E-1,8.875501E-3,5.6151357E-2,1.2998325E-2,-1.6335861E-1,-3.707561E-1,2.3426726E0,-1.6599621E-1,-8.8934734E-2,-1.728137E-1,3.25483E-1,9.895084E-2,1.1612304E0,2.4722615E-1,2.867067E-3,1.8643248E-1,1.3958932E-3,1.2209675E0,-9.7329654E-2,1.0645759E-2,4.654999E-2,6.711397E-2,2.4766245E-1,9.101744E-1,-2.8874326E-1,-4.3924323E-1,-2.0579134E-1,1.237293E0,-3.670101E-1,-1.6717364E-1,-7.204393E-2,1.013771E-1,5.084738E-1,-5.5214465E-1,-1.4614058E0,-3.670101E-1,-1.8480135E-2,1.0205735E0,1.0190592E0,-1.4708953E-2,-3.72628E-3,-3.6836407E-1,-1.71706E-2,-4.940343E-1,-1.6815981E-1,-1.0951932E-1,-1.3281879E-2,-2.3291968E-2,2.9814947E-2,1.2176672E0,-6.9481504E-1,-5.5218977E-1,1.2338392E0,-4.7492167E-1,-1.6910663E-1,-7.823051E-2,-1.5805472E-2,1.788721E-2,-3.4736276E-2,-2.401473E-2,-4.69392E-2,8.9488447E-1,-5.507789E-1,-4.3222782E-1,-5.3332802E-2,1.1061254E-1,3.578824E-1,-8.621589E-2,-1.6217424E-2,3.1421873E-1,-1.5978695E-1,5.860008E-1,2.4727085E-1,-1.0959379E-1,-2.0947453E-2,-6.1270867E-2,8.957931E-1,-7.248553E-2,-4.3209103E-1,8.930308E-3,-1.2061981E-2,9.495467E-3,-4.2996593E-2,-5.549025E-2,4.5204684E-2],"split_indices":[3,7,0,4,1,3,7,2,0,0,7,6,1,0,7,0,0,0,0,7,7,4,0,0,0,0,0,0,0,0,0,4,0,7,4,0,0,0,0,0,1,0,0,2,1,0,7,1,7,0,0,0,0,0,0,0,0,0,0,0,0,0,1,0,0,7,0,0,7,4,2,0,0,0,7,4,2,0,7,0,0,0,0,0,7,0,0,0,0,0,1,0,0,0,1,0,6,2,0,0,0,0,7,0,0,0,0,7,0,0,0,0,0,2,2,1,7,6,0,2,0,0,0,0,4,0,0,4,4,0,0,0,0,6,1,0,0,0,0,7,1,0,7,0,0,0,0,0,0,0,0,4,1,0,0,0,0,0,0,0,0,0,0,0,0,0,4,0,0,0,0,0,0,0,0],"split_type":[0,0,0,0,0,0,0,0,0,0,0,0,0,0,0,0,0,0,0,0,0,0,0,0,0,0,0,0,0,0,0,0,0,0,0,0,0,0,0,0,0,0,0,0,0,0,0,0,0,0,0,0,0,0,0,0,0,0,0,0,0,0,0,0,0,0,0,0,0,0,0,0,0,0,0,0,0,0,0,0,0,0,0,0,0,0,0,0,0,0,0,0,0,0,0,0,0,0,0,0,0,0,0,0,0,0,0,0,0,0,0,0,0,0,0,0,0,0,0,0,0,0,0,0,0,0,0,0,0,0,0,0,0,0,0,0,0,0,0,0,0,0,0,0,0,0,0,0,0,0,0,0,0,0,0,0,0,0,0,0,0,0,0,0,0,0,0,0,0,0,0,0,0,0,0],"sum_hessian":[4.96E2,6.4E1,4.32E2,1.2E1,5.2E1,3.9E1,3.93E2,7E0,5E0,3E0,4.9E1,2.5E1,1.4E1,4E1,3.53E2,6E0,1E0,1E0,4E0,2E1,2.9E1,2.3E1,2E0,1.1E1,3E0,2E1,2E1,1.72E2,1.81E2,4E0,2E0,1.5E1,5E0,4E0,2.5E1,2.1E1,2E0,1E0,1E0,6E0,5E0,1E0,2E0,1.2E1,8E0,8E0,1.64E2,4E0,1.77E2,9E0,6E0,4E0,1E0,2E0,2E0,3E0,2.2E1,1E0,1E0,4E0,2E0,1E0,4E0,3E0,9E0,4E0,4E0,2E0,6E0,2.9E1,1.35E2,3E0,1E0,1.66E2,1.1E1,3E0,6E0,1E0,5E0,1E0,3E0,2E0,1E0,1E0,2.1E1,2E0,2E0,2E0,1E0,1E0,3E0,1E0,5E0,1E0,2.8E1,1.8E1,1.17E2,9E0,2E0,1E0,2E0,1E0,5E0,4E0,1E0,1E0,1E0,2E1,1E0,1E0,1E0,2E0,1E0,1.5E1,1.3E1,3E0,1.5E1,1.13E2,4E0,5E0,4E0,1E0,4E0,7E0,1.3E1,1.4E1,1E0,1E1,3E0,1E0,2E0,1.3E1,2E0,1.05E2,8E0,3E0,1E0,3E0,2E0,5E0,2E0,2E0,1.1E1,1.1E1,3E0,9E0,1E0,2E0,1E0,4E0,9E0,6.6E1,3.9E1,6E0,2E0,2E0,3E0,1E0,1E0,1E0,1E0,6E0,5E0,9E0,2E0,4.6E1,2E1,3.3E1,6E0,1E0,5E0,2E0,1.8E1,5E0,1E0],"tree_param":{"num_deleted":"0","num_feature":"8","num_nodes":"175","size_leaf_vector":"1"}},{"base_weights":[6.9378935E-2,1.0678662E0,-8.066968E-2,2.5527158E0,9.0158343E-1,3.3758578E-1,-1.2292742E-1,8.087851E-1,1.6908555E0,6.2902546E-1,8.242199E-1,-8.467829E-2,1.0470045E0,1.8814117E-1,-1.5860789E-1,1.148865E0,-8.2730204E-2,9.457414E-1,4.7550657E-1,-1.5281287E-1,4.8862442E-1,6.913032E-1,1.8523571E0,5.7237864E-1,-6.151663E-2,-1.435842E-1,-1.7808284E-1,1.01962425E-1,3.9157107E-1,1.0151668E0,-2.9517636E-1,-2.2414607E-1,5.9861994E-1,-1.7525963E-1,5.4519404E-2,1.8225533E-1,3.762567E-2,1.0148518E0,1.9861269E-1,8.0596167E-1,2.0363513E-1,6.6820204E-1,3.7036952E-1,1.2015824E-1,-1.4943062E-1,-6.799076E-2,-1.8219785E-1,1.6446153E0,8.557165E-1,-1.7366253E-1,4.0833164E-2,1.8793507E-1,7.682099E-1,-5.7110082E-2,-5.5908166E-2,1.32828E-1,4.8901626E-1,-8.072126E-2,3.4596357E-1,1.2608314E-2,7.168809E-1,2.4123816E-1,2.1051307E-1,7.544178E-3,4.1287255E-2,-1.5054606E-1,1.1048574E-2,3.9891884E-2,-4.7662713E-2,-1.8928164E-1,-1.22095704E-1,1.1344045E-1,6.226742E-1,4.7205445E-1,1.3102182E0,-1.4569938E-1,1.9384533E-1,8.828214E-1,1.683054E-1,-7.882078E-3,-2.9997965E-2,1.405709E-1,1.0803636E-1,9.2738986E-2,2.3025544E-1,4.3802267E-1,-1.7043802E-1,-6.824911E-2,-1.531773E-1,-1.1842803E-2,2.3851955E-2,-2.020286E-1,-1.4847296E-1,2.3161592E-3,-1.3018611E-1,6.1676276E-1,-3.416105E-1,1.4913797E0,8.844527E-2,1.02623E0,7.617829E-2,1.5846764E-1,-8.2730204E-2,-7.864237E-5,-3.468293E-3,9.048879E-3,3.9567485E-2,1.860941E-1,7.231307E-2,-1.0359497E-1,2.6875788E-2,-1.5478754E-1,4.005631E-4,-1.9424734E-1,-1.1199329E-1,-7.5292006E-2,-1.9593503E-1,-9.6797995E-2,-6.434939E-2,9.075778E-1,2.6427138E-1,1.6462618E0,2.1939892E-1,5.3585175E-2,-1.37848025E-2,3.4828076E-1,3.6832604E-1,-9.700317E-3,-1.2563233E-1,-5.706542E-2,-1.4533131E-1,7.590759E-3,-7.410506E-3,-2.0257266E-1,-1.3339397E-1,-8.5564904E-2,1.0279289E-2,-1.302775E-1,-3.668521E-1,-3.7566677E-2,1.4749513E-2,4.960389E-1,4.2026293E-1,-1.4689161E-1,4.0244347E-1,2.059571E0,1.0274606E0,1.5553981E-1,1.1865378E-3,-1.5540701E-2,-4.7275465E-2,-1.7179611E-1,-1.3787673E-1,-2.0402148E-1,-1.3434649E-2,-2.8515914E-2,-4.45492E-2,-6.397857E-2,-5.4928094E-2,-3.721653E-2,-1.488903E-1,-1.297155E-1,-1.5708108E-2,1.9749871E-1,6.0209114E-2,2.682021E-1,7.6605678E-3,1.3538669E-1,7.046458E-1,4.458777E-1,4.381253E-1,-9.40678E-3,-5.2667294E-2,-2.8427651E-2,-1.450561E-1,-6.1833765E-2,-8.30406E-2,-2.401752E-2,1.1185357E-2,-1.6690553E-3,-7.4093714E-2,-2.676201E-3,-1.3102478E-2,-1.5967113E-1,-1.7919155E-2,-8.2730204E-2,1.0982431E-1,-6.455655E-2,9.067173E-2,2.2720677E-1,-7.328351E-2,-3.312317E-2,9.289669E-3,-4.4348557E-2,-1.5850129E-2,1.6890228E-2,-5.4258503E-2,-2.9080054E-2,-1.4158429E-2,-1.9985262E-2,-5.1884327E-2],"categories":[],"categories_nodes":[],"categories_segments":[],"categories_sizes":[],"default_left":[0,0,0,0,0,0,0,0,0,0,0,0,0,0,0,0,0,0,0,0,0,0,0,0,0,0,0,0,0,0,0,0,0,0,0,0,0,0,0,0,0,0,0,0,0,0,0,0,0,0,0,0,0,0,0,0,0,0,0,0,0,0,0,0,0,0,0,0,0,0,0,0,0,0,0,0,0,0,0,0,0,0,0,0,0,0,0,0,0,0,0,0,0,0,0,0,0,0,0,0,0,0,0,0,0,0,0,0,0,0,0,0,0,0,0,0,0,0,0,0,0,0,0,0,0,0,0,0,0,0,0,0,0,0,0,0,0,0,0,0,0,0,0,0,0,0,0,0,0,0,0,0,0,0,0,0,0,0,0,0,0,0,0,0,0,0,0,0,0,0,0,0,0,0,0,0,0,0,0,0,0,0,0,0,0,0,0,0,0,0,0,0,0,0,0,0,0,0,0,0,0],"id":6,"left_children":[1,3,5,7,9,11,13,15,-1,-1,17,19,21,23,25,27,-1,29,31,33,35,37,39,41,-1,43,45,-1,-1,47,49,-1,51,53,-1,-1,-1,55,57,-1,-1,59,61,63,65,67,69,71,73,-1,-1,75,77,-1,79,-1,-1,-1,81,-1,83,85,-1,-1,-1,87,-1,89,-1,91,93,-1,-1,95,97,-1,-1,99,101,103,-1,-1,105,-1,-1,107,-1,109,111,-1,-1,113,115,-1,117,119,-1,121,123,125,-1,-1,-1,-1,-1,-1,-1,-1,-1,127,-1,129,131,133,-1,135,137,139,-1,141,143,145,-1,-1,-1,147,-1,-1,149,-1,151,-1,-1,153,155,157,-1,159,161,-1,-1,163,-1,-1,165,167,169,-1,-1,-1,-1,171,173,175,-1,177,-1,179,-1,181,183,-1,-1,-1,185,-1,187,-1,-1,189,-1,-1,-1,191,193,-1,195,-1,-1,-1,197,-1,-1,199,-1,-1,-1,-1,-1,-1,-1,-1,-1,-1,-1,-1,-1,-1,-1,-1,-1],"loss_changes":[7.4547485E1,1.374733E1,7.6945705E0,2.7705677E1,3.8195648E0,1.2071138E1,4.4028754E0,2.1609917E0,0E0,0E0,2.00811E0,1.0902731E0,3.0164337E0,6.3116856E0,7.800579E-2,6.239605E-2,0E0,3.918003E0,3.0061994E0,2.1207666E-1,5.3353906E-2,1.711349E0,2.0923147E0,1.59019E-1,0E0,3.3405447E-1,5.556631E-2,0E0,0E0,2.6072998E0,4.4585758E-1,0E0,9.6999454E-1,3.082776E-2,0E0,0E0,0E0,1.7419424E0,5.065702E-1,0E0,0E0,3.6613083E-1,2.1579897E-1,4.836403E-3,4.7304153E-2,7.497221E-2,3.8197994E-2,3.0358124E0,5.310257E0,0E0,0E0,2.1657374E0,6.077318E-1,0E0,7.6807756E-3,0E0,0E0,0E0,9.523404E-2,0E0,1.0505199E-2,1.5230162E0,0E0,0E0,0E0,3.285408E-2,0E0,1.5715118E-2,0E0,3.6067486E-2,1.9909859E-2,0E0,0E0,5.3641043E0,3.1881714E0,0E0,0E0,5.5111027E-1,6.251593E-1,8.10683E-5,0E0,0E0,1.5948303E-3,0E0,0E0,1.01830006E-1,0E0,5.3911194E-2,4.7790527E-2,0E0,0E0,5.2767754E-2,1.0334045E-1,0E0,2.7092278E-2,1.707839E0,0E0,3.2637596E-1,4.456322E-2,5.2875614E-1,0E0,0E0,0E0,0E0,0E0,0E0,0E0,0E0,0E0,6.930515E-3,0E0,3.6347866E-2,2.500301E-3,1.9587278E-2,0E0,1.9813731E-2,1.7664737E-1,6.424102E-2,0E0,1.335226E0,1.2387452E0,4.4143295E-1,0E0,0E0,0E0,1.7374685E-1,0E0,0E0,3.632024E-3,0E0,6.8922043E-3,0E0,0E0,8.923769E-3,1.7941594E-2,1.7759964E-2,0E0,2.2172809E-2,8.040786E-2,0E0,0E0,4.5547867E-1,0E0,0E0,1.7396991E0,1.2659683E0,8.596344E-1,0E0,0E0,0E0,0E0,1.0343313E-2,9.488392E-2,2.6168823E-3,0E0,1.3159493E-2,0E0,7.2691776E-3,0E0,3.413735E-4,2.958566E-3,0E0,0E0,0E0,4.0925044E-1,0E0,4.5891765E-1,0E0,0E0,1.0448799E0,0E0,0E0,0E0,4.724198E-2,2.2359848E-2,0E0,5.107421E-2,0E0,0E0,0E0,2.1832734E-3,0E0,0E0,2.06846E-3,0E0,0E0,0E0,0E0,0E0,0E0,0E0,0E0,0E0,0E0,0E0,0E0,0E0,0E0,0E0,0E0,0E0],"parents":[2147483647,0,0,1,1,2,2,3,3,4,4,5,5,6,6,7,7,10,10,11,11,12,12,13,13,14,14,15,15,17,17,18,18,19,19,20,20,21,21,22,22,23,23,25,25,26,26,29,29,30,30,32,32,33,33,37,37,38,38,41,41,42,42,43,43,44,44,45,45,46,46,47,47,48,48,51,51,52,52,54,54,58,58,60,60,61,61,65,65,67,67,69,69,70,70,73,73,74,74,77,77,78,78,79,79,82,82,85,85,87,87,88,88,91,91,92,92,94,94,95,95,97,97,98,98,99,99,109,109,111,111,112,112,113,113,115,115,116,116,117,117,119,119,120,120,121,121,125,125,128,128,130,130,133,133,134,134,135,135,137,137,138,138,141,141,144,144,145,145,146,146,151,151,152,152,153,153,155,155,157,157,159,159,160,160,164,164,166,166,169,169,173,173,174,174,176,176,180,180,183,183],"right_children":[2,4,6,8,10,12,14,16,-1,-1,18,20,22,24,26,28,-1,30,32,34,36,38,40,42,-1,44,46,-1,-1,48,50,-1,52,54,-1,-1,-1,56,58,-1,-1,60,62,64,66,68,70,72,74,-1,-1,76,78,-1,80,-1,-1,-1,82,-1,84,86,-1,-1,-1,88,-1,90,-1,92,94,-1,-1,96,98,-1,-1,100,102,104,-1,-1,106,-1,-1,108,-1,110,112,-1,-1,114,116,-1,118,120,-1,122,124,126,-1,-1,-1,-1,-1,-1,-1,-1,-1,128,-1,130,132,134,-1,136,138,140,-1,142,144,146,-1,-1,-1,148,-1,-1,150,-1,152,-1,-1,154,156,158,-1,160,162,-1,-1,164,-1,-1,166,168,170,-1,-1,-1,-1,172,174,176,-1,178,-1,180,-1,182,184,-1,-1,-1,186,-1,188,-1,-1,190,-1,-1,-1,192,194,-1,196,-1,-1,-1,198,-1,-1,200,-1,-1,-1,-1,-1,-1,-1,-1,-1,-1,-1,-1,-1,-1,-1,-1,-1],"split_conditions":[-1.4459695E0,1.1113946E0,-5.422155E-1,1.0988531E0,-5.5282164E-1,-1.2262771E0,-1.5860147E0,-1.7749537E0,1.6908555E0,6.2902546E-1,1.2252581E0,-4.940343E-1,-4.3961257E-1,-4.5840463E-1,-4.2040774E-1,-5.522349E-1,-8.2730204E-2,-1.7802522E0,1.2269083E0,-7.6265866E-1,-5.483535E-1,-5.4821813E-1,-5.479022E-1,-4.6178955E-1,-6.151663E-2,-1.579414E0,-4.9468967E-1,1.01962425E-1,3.9157107E-1,1.1467087E0,-5.5218977E-1,-2.2414607E-1,-1.781724E0,-5.519641E-1,5.4519404E-2,1.8225533E-1,3.762567E-2,-5.4826325E-1,-5.2825016E-1,8.0596167E-1,2.0363513E-1,7.509271E-1,8.053832E-1,-2.9708732E-2,-4.211464E-1,-1.6599621E-1,2.4952662E0,1.1282266E0,1.1925842E0,-1.7366253E-1,4.0833164E-2,-5.5214465E-1,1.4014989E0,-5.7110082E-2,1.1717918E0,1.32828E-1,4.8901626E-1,-8.072126E-2,-5.2640355E-1,1.2608314E-2,7.688829E-1,8.012622E-1,2.1051307E-1,7.544178E-3,4.1287255E-2,-6.679776E-2,1.1048574E-2,-1.6893978E-1,-4.7662713E-2,2.3231373E0,2.4953566E0,1.1344045E-1,6.226742E-1,1.1869736E0,-1.4604971E0,-1.4569938E-1,1.9384533E-1,-5.520995E-1,-5.523703E-1,-5.477668E-1,-2.9997965E-2,1.405709E-1,-5.480827E-1,9.2738986E-2,2.3025544E-1,-1.655983E0,-1.7043802E-1,-5.2650946E-1,1.237293E0,-1.1842803E-2,2.3851955E-2,6.675097E-1,2.3426726E0,2.3161592E-3,2.018235E0,1.1691514E0,-3.416105E-1,-1.7814296E0,-5.5218977E-1,-5.5218977E-1,7.617829E-2,1.5846764E-1,-8.2730204E-2,-7.864237E-5,-3.468293E-3,9.048879E-3,3.9567485E-2,1.860941E-1,7.231307E-2,-9.73793E-1,2.6875788E-2,-4.6246654E-1,-4.3222782E-1,2.7273124E-1,-1.1199329E-1,-3.64934E-1,8.566014E-1,2.0178657E0,-6.434939E-2,1.1665112E0,-5.5218977E-1,-1.4614058E0,2.1939892E-1,5.3585175E-2,-1.37848025E-2,-5.522349E-1,3.6832604E-1,-9.700317E-3,-1.4120904E0,-5.706542E-2,-6.652057E-1,7.590759E-3,-7.410506E-3,1.0205735E0,-4.746509E-1,-1.663132E-1,1.0279289E-2,9.6060616E-1,8.9633965E-1,-3.7566677E-2,1.4749513E-2,1.1615605E0,4.2026293E-1,-1.4689161E-1,-1.4626173E0,1.2090862E0,-5.520995E-1,1.5553981E-1,1.1865378E-3,-1.5540701E-2,-4.7275465E-2,-5.5299485E-1,-5.522562E-1,2.3569956E-2,-1.3434649E-2,-4.7469744E-1,-4.45492E-2,9.518231E-1,-5.4928094E-2,-4.8710743E-1,4.4048524E-1,-1.297155E-1,-1.5708108E-2,1.9749871E-1,-5.520544E-1,2.682021E-1,-5.519641E-1,1.3538669E-1,7.046458E-1,-5.5214465E-1,4.381253E-1,-9.40678E-3,-5.2667294E-2,9.092914E-1,9.0215325E-1,-6.1833765E-2,-4.887322E-1,-2.401752E-2,1.1185357E-2,-1.6690553E-3,-8.807213E-1,-2.676201E-3,-1.3102478E-2,7.868387E-1,-1.7919155E-2,-8.2730204E-2,1.0982431E-1,-6.455655E-2,9.067173E-2,2.2720677E-1,-7.328351E-2,-3.312317E-2,9.289669E-3,-4.4348557E-2,-1.5850129E-2,1.6890228E-2,-5.4258503E-2,-2.9080054E-2,-1.4158429E-2,-1.9985262E-2,-5.1884327E-2],"split_indices":[3,7,0,7,0,3,7,2,0,0,7,6,1,0,1,0,0,2,7,2,0,0,0,0,0,7,0,0,0,7,0,0,2,0,0,0,0,0,1,0,0,2,2,2,1,2,0,7,7,0,0,0,7,0,7,0,0,0,1,0,2,2,0,0,0,2,0,2,0,6,0,0,0,7,4,0,0,0,0,0,0,0,0,0,0,7,0,0,6,0,0,6,6,0,1,7,0,2,0,0,0,0,0,0,0,0,0,0,0,4,0,0,0,6,0,0,2,1,0,7,0,4,0,0,0,0,0,0,3,0,7,0,0,4,0,1,0,4,2,0,0,7,0,0,4,7,0,0,0,0,0,1,1,2,0,0,0,4,0,0,1,0,0,0,0,0,0,0,0,0,0,0,0,2,4,0,0,0,0,0,7,0,0,2,0,0,0,0,0,0,0,0,0,0,0,0,0,0,0,0,0],"split_type":[0,0,0,0,0,0,0,0,0,0,0,0,0,0,0,0,0,0,0,0,0,0,0,0,0,0,0,0,0,0,0,0,0,0,0,0,0,0,0,0,0,0,0,0,0,0,0,0,0,0,0,0,0,0,0,0,0,0,0,0,0,0,0,0,0,0,0,0,0,0,0,0,0,0,0,0,0,0,0,0,0,0,0,0,0,0,0,0,0,0,0,0,0,0,0,0,0,0,0,0,0,0,0,0,0,0,0,0,0,0,0,0,0,0,0,0,0,0,0,0,0,0,0,0,0,0,0,0,0,0,0,0,0,0,0,0,0,0,0,0,0,0,0,0,0,0,0,0,0,0,0,0,0,0,0,0,0,0,0,0,0,0,0,0,0,0,0,0,0,0,0,0,0,0,0,0,0,0,0,0,0,0,0,0,0,0,0,0,0,0,0,0,0,0,0,0,0,0,0,0,0],"sum_hessian":[4.96E2,6.4E1,4.32E2,5E0,5.9E1,3.9E1,3.93E2,4E0,1E0,2E0,5.7E1,2.5E1,1.4E1,4E1,3.53E2,3E0,1E0,4.1E1,1.6E1,2.3E1,2E0,1.1E1,3E0,2E1,2E1,2.04E2,1.49E2,1E0,2E0,3.9E1,2E0,1E0,1.5E1,2.2E1,1E0,1E0,1E0,6E0,5E0,1E0,2E0,1.2E1,8E0,4E0,2E2,6E0,1.43E2,6E0,3.3E1,1E0,1E0,5E0,1E1,1.9E1,3E0,4E0,2E0,1E0,4E0,1E0,1.1E1,7E0,1E0,1E0,3E0,1.99E2,1E0,3E0,3E0,1.26E2,1.7E1,2E0,4E0,1.9E1,1.4E1,2E0,3E0,8E0,2E0,2E0,1E0,2E0,2E0,2E0,9E0,6E0,1E0,7E0,1.92E2,1E0,2E0,9.3E1,3.3E1,1E0,1.6E1,1.8E1,1E0,1.2E1,2E0,6E0,2E0,1E0,1E0,1E0,1E0,1E0,1E0,2E0,4E0,6E0,1E0,1.9E2,2E0,9.1E1,2E0,1.4E1,1.9E1,1.3E1,3E0,9E0,9E0,9E0,3E0,1E0,1E0,2E0,4E0,2E0,4E0,3.6E1,1.54E2,1E0,1E0,7.8E1,1.3E1,1.3E1,1E0,1.5E1,4E0,1.1E1,2E0,6E0,3E0,1E0,8E0,4E0,5E0,1E0,1E0,2E0,2E0,2.9E1,1.25E2,7.7E1,1E0,2E0,1.1E1,1.2E1,1E0,3E0,1.2E1,3E0,1E0,4E0,2E0,3E0,5E0,1E0,3E0,3E0,2E0,1E0,2.8E1,8E0,1.17E2,7.5E1,2E0,1E0,1E0,2E0,1E1,1E0,2E0,1E1,2E0,1E0,1E0,3E0,2E0,2E0,1E0,3E0,5E0,1.13E2,4E0,1E0,1E0,4E0,6E0,2E0,8E0],"tree_param":{"num_deleted":"0","num_feature":"8","num_nodes":"201","size_leaf_vector":"1"}},{"base_weights":[6.373888E-2,8.394584E-1,-5.285583E-2,2.1371775E0,6.956955E-1,2.8440133E-1,-8.6960986E-2,6.483102E-1,1.4372272E0,5.032204E-1,6.329229E-1,-5.2207675E-2,8.4889686E-1,1.4566386E-1,-1.1365776E-1,2.7827668E-1,-7.032067E-2,5.631886E-1,1.143422E0,-1.0847466E-1,4.1533074E-1,5.447714E-1,1.5490491E0,4.308595E-1,-4.394045E-2,-1.01429686E-1,-1.2961173E-1,6.333266E-1,1.180662E-2,5.327995E-1,3.831343E-1,-1.2662326E-1,4.6341494E-2,1.5491703E-1,3.1981803E-2,7.9923105E-1,1.5710647E-1,6.850674E-1,1.6290808E-1,4.935569E-1,2.924233E-1,9.387703E-2,-1.0578344E-1,-1.2236108E-1,-1.9130662E-1,7.4161357E-1,3.251063E-1,-1.6866818E-1,9.259873E-2,1.3011494E-1,3.470818E-2,-3.9445657E-2,-2.9480518E-3,1.0094929E-1,1.3040432E0,-6.861305E-2,2.8001183E-1,1.0717071E-2,1.5861982E-1,1.7986281E-1,1.7893611E-1,6.412554E-3,3.199761E-2,-1.066254E-1,9.39129E-3,-1.351051E-1,-9.3304284E-2,-1.26906E-1,-1.1554207E-1,4.7963423E-1,1.2457855E0,-5.057992E-1,5.976986E-1,-5.7668712E-2,-1.1163712E-2,8.704963E-2,4.997698E-1,1.1245666E-1,9.183089E-2,3.4353113E-1,-1.4487232E-1,-5.347945E-2,-1.08275875E-1,-5.2686892E-2,-1.4018352E-1,-5.884271E-2,-1.1212585E-1,-9.644503E-2,-7.999138E-2,6.4367384E-1,-1.0701128E-2,6.205412E-1,8.331365E-1,1.0085822E-3,-2.0299207E-1,7.705323E-1,2.3619172E-1,7.6915384E-3,3.3632364E-2,1.4887524E-1,5.4957937E-2,-8.2875974E-2,2.2844428E-2,-1.09415E-1,3.404816E-4,3.0926615E-2,-1.23128675E-1,-1.3093595E-1,-1.8706958E-1,-6.2821485E-2,1.319468E-3,-2.1970168E-2,-1.2206572E-1,-9.381544E-2,8.737395E-3,7.394245E-1,-1.4761312E-1,-5.9521973E-1,1.7294784E-1,4.8621655E-1,3.435697E-1,3.3176854E-2,2.5862738E-1,-6.0875293E-2,3.9669847E-1,-7.760257E-3,-1.00505844E-1,-4.040848E-2,-1.0267453E-1,6.4521437E-3,-6.2989267E-3,-1.0066384E-2,6.360523E-2,-8.24989E-3,-4.3751545E-2,-1.5232652E-1,-1.1097745E-1,-6.0992446E-2,-7.05845E-2,-1.5449793E-3,-6.610409E-2,1.607287E-2,-2.0414893E-2,-3.7257694E-2,-1.06541775E-2,-2.4666797E-2,-1.358034E-1,2.884292E-1,8.154643E-1,-2.903689E-1,-4.4508636E-2,6.665145E-1,-6.229098E-2,1.3470942E-1,3.595498E-2,-4.1441858E-2,-3.782037E-2,-8.337635E-2,-1.100538E-1,4.3754787E-3,2.4246875E-2,-1.1419452E-2,-1.5463552E-1,-2.7122006E-3,-1.1318926E-1,1.43567035E-2,-4.6119727E-2,-3.048706E-3,-2.0746816E-2,-2.2747638E-3,9.5075555E-3,1.6200542E-4,-1.2382002E-2,-5.0961833E-2,-1.3532931E-2,-1.2485787E-1,6.620342E-1,3.2726115E-1,5.4125303E-1,4.624007E-2,7.5607634E-1,-3.6402226E-3,-1.5008614E-2,-9.0495646E-2,5.1205304E-2,-1.0064626E-1,-4.1753575E-2,-1.2587251E-2,-4.7053665E-2,-4.1851837E-2,-9.801231E-2,-4.5788885E-4,5.307913E-4,5.8879282E-2,2.3903611E-1,-7.032067E-2,2.0025308E-1,5.7169534E-2,2.6431754E-1,-4.7968337E-3,-2.7547674E-2,-2.2033889E-2,4.5076277E-2,-3.3597935E-2,-1.9408943E-2,-2.0483682E-2,-3.8134873E-2],"categories":[],"categories_nodes":[],"categories_segments":[],"categories_sizes":[],"default_left":[0,0,0,0,0,0,0,0,0,0,0,0,0,0,0,0,0,0,0,0,0,0,0,0,0,0,0,0,0,0,0,0,0,0,0,0,0,0,0,0,0,0,0,0,0,0,0,0,0,0,0,0,0,0,0,0,0,0,0,0,0,0,0,0,0,0,0,0,0,0,0,0,0,0,0,0,0,0,0,0,0,0,0,0,0,0,0,0,0,0,0,0,0,0,0,0,0,0,0,0,0,0,0,0,0,0,0,0,0,0,0,0,0,0,0,0,0,0,0,0,0,0,0,0,0,0,0,0,0,0,0,0,0,0,0,0,0,0,0,0,0,0,0,0,0,0,0,0,0,0,0,0,0,0,0,0,0,0,0,0,0,0,0,0,0,0,0,0,0,0,0,0,0,0,0,0,0,0,0,0,0,0,0,0,0,0,0,0,0,0,0,0,0,0,0,0,0,0,0,0,0,0,0,0,0,0,0],"id":7,"left_children":[1,3,5,7,9,11,13,15,-1,-1,17,19,21,23,25,-1,-1,27,29,31,33,35,37,39,-1,41,43,45,47,-1,49,51,-1,-1,-1,53,55,-1,-1,57,59,61,63,65,67,69,71,73,-1,-1,-1,-1,-1,-1,75,-1,77,-1,-1,79,-1,-1,-1,81,-1,83,85,87,-1,89,91,93,95,-1,-1,-1,-1,-1,97,99,-1,101,103,105,107,109,111,-1,113,115,117,-1,119,-1,-1,121,123,-1,-1,-1,-1,125,-1,127,129,131,133,135,137,139,-1,141,143,145,-1,147,-1,149,-1,151,-1,-1,-1,-1,153,-1,155,-1,157,-1,-1,-1,159,-1,-1,161,163,-1,165,-1,167,169,-1,-1,-1,171,173,175,177,-1,-1,179,-1,-1,-1,181,-1,183,185,-1,-1,-1,187,-1,189,-1,-1,-1,-1,-1,-1,191,-1,-1,-1,-1,193,-1,195,-1,197,-1,-1,199,201,203,-1,-1,-1,-1,205,-1,-1,-1,-1,-1,-1,-1,-1,-1,-1,-1,-1,-1,-1,-1,-1],"loss_changes":[4.4995434E1,1.0639824E1,5.005187E0,2.0599075E1,2.635788E0,7.6448903E0,2.4634268E0,1.4500427E0,0E0,0E0,1.4207973E0,7.290342E-1,2.3501348E0,3.4790132E0,5.5914402E-2,0E0,0E0,2.042183E0,2.205195E0,1.340903E-1,3.854829E-2,1.058177E0,1.7156954E0,3.79436E-2,0E0,1.8424559E-1,4.369092E-2,1.3275795E0,4.2708647E-1,0E0,3.9325356E-3,1.1769474E-2,0E0,0E0,0E0,1.1963463E0,3.485552E-1,0E0,0E0,1.9047236E-1,2.0071644E-1,2.3536198E-3,2.6537657E-2,3.8125277E-2,1.2588543E-1,3.8932877E0,3.473294E0,8.332744E-3,0E0,0E0,0E0,0E0,0E0,0E0,6.172476E-1,0E0,5.481559E-2,0E0,0E0,1.0336902E0,0E0,0E0,0E0,1.1752605E-2,0E0,3.153956E-2,2.259016E-2,8.382644E-2,0E0,1.937315E0,2.0109634E0,3.5021722E-1,5.0529313E-1,0E0,0E0,0E0,0E0,0E0,1.1522733E-3,8.049768E-2,0E0,3.679564E-2,2.3916483E-2,4.5037143E-2,1.3227582E-2,4.805494E-3,2.2410005E-2,0E0,1.9325033E-2,2.3212519E0,2.7457204E0,0E0,4.176197E-1,0E0,0E0,3.276267E-1,4.3289718E-1,0E0,0E0,0E0,0E0,4.435528E-3,0E0,1.8716574E-2,1.8064663E-3,1.0562878E-2,4.6763644E-3,1.5541434E-2,8.348197E-3,2.8778836E-3,0E0,8.105765E-3,1.9094348E-4,2.5684282E-2,0E0,3.4778595E-1,0E0,5.225344E-1,0E0,8.889946E-1,0E0,0E0,0E0,0E0,4.1368008E-3,0E0,2.324488E-3,0E0,1.2897134E-2,0E0,0E0,0E0,1.3532517E-3,0E0,0E0,3.0840635E-3,8.671701E-3,0E0,3.690113E-2,0E0,2.0289198E-3,1.348725E-3,0E0,0E0,0E0,2.0682886E-3,1.0876328E-2,1.3285353E0,4.6683598E-1,0E0,0E0,1.1291194E-1,0E0,0E0,0E0,1.4793267E-4,0E0,4.966581E-2,1.5857339E-2,0E0,0E0,0E0,1.6368032E-3,0E0,3.1018853E-3,0E0,0E0,0E0,0E0,0E0,0E0,1.0841298E-5,0E0,0E0,0E0,0E0,3.1910658E-2,0E0,1.0378544E0,0E0,1.1481619E-1,0E0,0E0,2.9907227E-3,4.8075445E-2,2.783531E-2,0E0,0E0,0E0,0E0,1.7281353E-2,0E0,0E0,0E0,0E0,0E0,0E0,0E0,0E0,0E0,0E0,0E0,0E0,0E0,0E0,0E0,0E0],"parents":[2147483647,0,0,1,1,2,2,3,3,4,4,5,5,6,6,7,7,10,10,11,11,12,12,13,13,14,14,17,17,18,18,19,19,20,20,21,21,22,22,23,23,25,25,26,26,27,27,28,28,30,30,31,31,35,35,36,36,39,39,40,40,41,41,42,42,43,43,44,44,45,45,46,46,47,47,54,54,56,56,59,59,63,63,65,65,66,66,67,67,69,69,70,70,71,71,72,72,78,78,79,79,81,81,82,82,83,83,84,84,85,85,86,86,88,88,89,89,90,90,92,92,95,95,96,96,101,101,103,103,104,104,105,105,106,106,107,107,108,108,109,109,111,111,112,112,113,113,115,115,117,117,119,119,124,124,126,126,128,128,132,132,135,135,136,136,138,138,140,140,141,141,145,145,146,146,147,147,148,148,151,151,155,155,157,157,158,158,162,162,164,164,171,171,176,176,178,178,180,180,183,183,184,184,185,185,190,190],"right_children":[2,4,6,8,10,12,14,16,-1,-1,18,20,22,24,26,-1,-1,28,30,32,34,36,38,40,-1,42,44,46,48,-1,50,52,-1,-1,-1,54,56,-1,-1,58,60,62,64,66,68,70,72,74,-1,-1,-1,-1,-1,-1,76,-1,78,-1,-1,80,-1,-1,-1,82,-1,84,86,88,-1,90,92,94,96,-1,-1,-1,-1,-1,98,100,-1,102,104,106,108,110,112,-1,114,116,118,-1,120,-1,-1,122,124,-1,-1,-1,-1,126,-1,128,130,132,134,136,138,140,-1,142,144,146,-1,148,-1,150,-1,152,-1,-1,-1,-1,154,-1,156,-1,158,-1,-1,-1,160,-1,-1,162,164,-1,166,-1,168,170,-1,-1,-1,172,174,176,178,-1,-1,180,-1,-1,-1,182,-1,184,186,-1,-1,-1,188,-1,190,-1,-1,-1,-1,-1,-1,192,-1,-1,-1,-1,194,-1,196,-1,198,-1,-1,200,202,204,-1,-1,-1,-1,206,-1,-1,-1,-1,-1,-1,-1,-1,-1,-1,-1,-1,-1,-1,-1,-1],"split_conditions":[-1.4459695E0,1.1113946E0,-5.422155E-1,1.0988531E0,-5.5282164E-1,-1.2262771E0,-1.5860147E0,-1.7749537E0,1.4372272E0,5.032204E-1,-1.4601943E0,-4.940343E-1,-4.3961257E-1,-4.5840463E-1,-4.2040774E-1,2.7827668E-1,-7.032067E-2,-1.4604971E0,-5.520981E-1,-7.6265866E-1,-5.483535E-1,-5.4821813E-1,-5.479022E-1,-4.6178955E-1,-4.394045E-2,-1.579414E0,8.566014E-1,1.2252581E0,-1.7814296E0,5.327995E-1,-5.5187386E-1,-5.477668E-1,4.6341494E-2,1.5491703E-1,3.1981803E-2,-5.4826325E-1,-5.2825016E-1,6.850674E-1,1.6290808E-1,7.509271E-1,8.053832E-1,-2.9708732E-2,-4.211464E-1,2.7273124E-1,2.3516264E0,1.2090862E0,1.2288885E0,-5.520981E-1,9.259873E-2,1.3011494E-1,3.470818E-2,-3.9445657E-2,-2.9480518E-3,1.0094929E-1,-5.3009677E-1,-6.861305E-2,-5.2640355E-1,1.0717071E-2,1.5861982E-1,8.012622E-1,1.7893611E-1,6.412554E-3,3.199761E-2,-6.679776E-2,9.39129E-3,-4.9468967E-1,2.824148E-1,2.3231373E0,-1.1554207E-1,1.1780624E0,1.2150269E0,-5.5218977E-1,-1.461103E0,-5.7668712E-2,-1.1163712E-2,8.704963E-2,4.997698E-1,1.1245666E-1,-5.480827E-1,-1.655983E0,-1.4487232E-1,-5.2650946E-1,1.237293E0,-1.6599621E-1,3.7908955E-3,-2.0612139E-1,-4.746509E-1,-9.644503E-2,-3.64934E-1,-1.7802522E0,-5.519641E-1,6.205412E-1,1.2209675E0,1.0085822E-3,-2.0299207E-1,-1.7826071E0,-5.523703E-1,7.6915384E-3,3.3632364E-2,1.4887524E-1,5.4957937E-2,-9.73793E-1,2.2844428E-2,-4.6246654E-1,-4.3222782E-1,-1.6893978E-1,-6.733452E-2,-2.940417E-1,2.3569956E-2,-3.707561E-1,1.319468E-3,1.8513008E0,4.418148E0,-1.7148373E-1,8.737395E-3,-5.5218977E-1,-1.4761312E-1,-5.520995E-1,1.7294784E-1,-5.5214465E-1,3.435697E-1,3.3176854E-2,2.5862738E-1,-6.0875293E-2,-5.520981E-1,-7.760257E-3,-1.4120904E0,-4.040848E-2,8.7014186E-1,6.4521437E-3,-6.2989267E-3,-1.0066384E-2,-4.947348E-1,-8.24989E-3,-4.3751545E-2,-4.7442663E-1,-1.070955E0,-6.0992446E-2,-4.887322E-1,-1.5449793E-3,-8.978833E-1,-4.8710743E-1,-2.0414893E-2,-3.7257694E-2,-1.06541775E-2,8.898638E-1,9.013437E-1,-1.4626173E0,-5.520981E-1,-2.903689E-1,-4.4508636E-2,-1.4617087E0,-6.229098E-2,1.3470942E-1,3.595498E-2,-5.367996E-1,-3.782037E-2,8.6896443E-1,-4.940343E-1,4.3754787E-3,2.4246875E-2,-1.1419452E-2,-1.2100278E0,-2.7122006E-3,-1.0058031E0,1.43567035E-2,-4.6119727E-2,-3.048706E-3,-2.0746816E-2,-2.2747638E-3,9.5075555E-3,-3.682738E-1,-1.2382002E-2,-5.0961833E-2,-1.3532931E-2,-1.2485787E-1,-6.9481504E-1,3.2726115E-1,-5.520544E-1,4.624007E-2,-6.9481504E-1,-3.6402226E-3,-1.5008614E-2,-4.5840463E-1,-4.3272287E-1,8.9488447E-1,-4.1753575E-2,-1.2587251E-2,-4.7053665E-2,-4.1851837E-2,2.018235E0,-4.5788885E-4,5.307913E-4,5.8879282E-2,2.3903611E-1,-7.032067E-2,2.0025308E-1,5.7169534E-2,2.6431754E-1,-4.7968337E-3,-2.7547674E-2,-2.2033889E-2,4.5076277E-2,-3.3597935E-2,-1.9408943E-2,-2.0483682E-2,-3.8134873E-2],"split_indices":[3,7,0,7,0,3,7,2,0,0,4,6,1,0,1,0,0,4,0,2,0,0,0,0,0,7,2,7,2,0,0,0,0,0,0,0,1,0,0,2,2,2,1,6,6,7,7,0,0,0,0,0,0,0,1,0,1,0,0,2,0,0,0,2,0,0,1,6,0,7,7,0,4,0,0,0,0,0,0,7,0,0,6,2,3,7,0,0,0,2,0,0,7,0,0,2,0,0,0,0,0,4,0,0,0,2,1,2,2,0,0,1,0,1,0,0,0,0,0,0,0,0,0,0,0,0,3,0,2,0,0,0,0,0,0,0,3,0,0,0,7,0,0,0,0,2,2,4,0,0,0,4,0,0,0,0,0,2,6,0,0,0,4,0,3,0,0,0,0,0,0,0,0,0,0,0,1,0,0,0,1,0,0,0,0,4,0,0,0,0,1,0,0,0,0,0,0,0,0,0,0,0,0,0,0,0,0],"split_type":[0,0,0,0,0,0,0,0,0,0,0,0,0,0,0,0,0,0,0,0,0,0,0,0,0,0,0,0,0,0,0,0,0,0,0,0,0,0,0,0,0,0,0,0,0,0,0,0,0,0,0,0,0,0,0,0,0,0,0,0,0,0,0,0,0,0,0,0,0,0,0,0,0,0,0,0,0,0,0,0,0,0,0,0,0,0,0,0,0,0,0,0,0,0,0,0,0,0,0,0,0,0,0,0,0,0,0,0,0,0,0,0,0,0,0,0,0,0,0,0,0,0,0,0,0,0,0,0,0,0,0,0,0,0,0,0,0,0,0,0,0,0,0,0,0,0,0,0,0,0,0,0,0,0,0,0,0,0,0,0,0,0,0,0,0,0,0,0,0,0,0,0,0,0,0,0,0,0,0,0,0,0,0,0,0,0,0,0,0,0,0,0,0,0,0,0,0,0,0,0,0,0,0,0,0,0,0],"sum_hessian":[4.96E2,6.4E1,4.32E2,5E0,5.9E1,3.9E1,3.93E2,4E0,1E0,2E0,5.7E1,2.5E1,1.4E1,4E1,3.53E2,3E0,1E0,5.2E1,5E0,2.3E1,2E0,1.1E1,3E0,2E1,2E1,2.04E2,1.49E2,4.6E1,6E0,2E0,3E0,2.2E1,1E0,1E0,1E0,6E0,5E0,1E0,2E0,1.2E1,8E0,4E0,2E2,1.36E2,1.3E1,3.3E1,1.3E1,4E0,2E0,2E0,1E0,2.1E1,1E0,4E0,2E0,1E0,4E0,1E0,1.1E1,7E0,1E0,1E0,3E0,1.99E2,1E0,9.2E1,4.4E1,1.1E1,2E0,2.3E1,1E1,3E0,1E1,3E0,1E0,1E0,1E0,2E0,2E0,6E0,1E0,7E0,1.92E2,6E0,8.6E1,1.7E1,2.7E1,1E0,1E1,1.7E1,6E0,2E0,8E0,1E0,2E0,6E0,4E0,1E0,1E0,2E0,4E0,6E0,1E0,1.9E2,2E0,3E0,3E0,7.5E1,1.1E1,1.6E1,1E0,3E0,2.4E1,9E0,1E0,1.6E1,1E0,3E0,3E0,5E0,3E0,1E0,5E0,1E0,3E0,2E0,4E0,3.6E1,1.54E2,1E0,1E0,1E0,2E0,1E0,2E0,3.3E1,4.2E1,9E0,2E0,1E0,1.5E1,2E0,1E0,2.3E1,1E0,4E0,5E0,3E0,1.3E1,1E0,2E0,4E0,1E0,2E0,1E0,2E0,2E0,4.6E1,1.08E2,1E0,1E0,1E0,3.2E1,1E0,4.1E1,1E0,1E0,1E0,1.4E1,1E0,1E0,2E0,2E0,3E0,2E0,1E0,2E0,5E0,8E0,1E0,3E0,1E0,1E0,4.4E1,2E0,8.5E1,2.3E1,1E0,3.1E1,1.2E1,2.9E1,1E0,1E0,1E0,1E0,1E0,7E0,1E0,2E0,1E0,4.3E1,1E0,1E0,6.3E1,2.2E1,1.6E1,1.3E1],"tree_param":{"num_deleted":"0","num_feature":"8","num_nodes":"207","size_leaf_vector":"1"}},{"base_weights":[5.6752417E-2,6.5930796E-1,-3.383156E-2,1.7702214E0,5.372281E-1,2.4437489E-1,-6.199E-2,4.9540824E-1,1.2216431E0,4.0257627E-1,4.8634353E-1,-2.9205112E-2,7.0228857E-1,1.108255E-1,-8.183024E-2,2.5760147E-1,-3.29911E-2,4.284515E-1,9.1666585E-1,-7.576777E-2,3.5303116E-1,4.4575125E-1,1.2963283E0,3.2099372E-1,-3.1386036E-2,-7.167347E-2,-9.516563E-2,4.4926573E-2,-5.977257E-2,4.8141086E-1,1.1659763E-2,5.284358E-1,3.95418E-1,-9.0479486E-2,3.939028E-2,1.3167948E-1,2.7184548E-2,6.5771437E-1,1.2416905E-1,5.8230734E-1,4.3442154E-1,2.754801E-1,1.5067464E-1,7.339599E-2,-7.492558E-2,-8.846705E-2,-1.5391846E-1,5.659017E-1,2.4183232E-1,-1.3183421E-1,7.407895E-2,1.3353078E-1,2.950194E-2,-2.9591698E-2,-2.706211E-2,2.5573817E-1,1.1084366E0,-5.8321096E-2,2.2676432E-1,4.107292E-2,1.5441678E-1,3.363925E-1,-1.23141475E-1,5.450678E-3,2.4798159E-2,-7.556629E-2,7.982594E-3,-9.780415E-2,-6.720443E-2,-1.02543496E-1,-9.2433654E-2,3.4910682E-1,9.874632E-1,-4.045553E-1,4.548976E-1,-6.2008835E-2,-6.1670363E-2,7.4314475E-3,-1.9581418E-2,1.9209553E-2,8.6297035E-2,7.399221E-2,4.2480427E-1,8.99653E-2,7.8056216E-2,4.4270867E-1,2.2849049E-1,-7.742389E-2,-4.7494225E-2,-1.1407454E-1,-8.086596E-2,-4.2524397E-2,-8.0670014E-2,-8.197828E-2,-6.2181827E-2,4.7738495E-1,-3.0623624E-2,4.9643287E-1,6.5530735E-1,8.5730554E-4,-1.6239366E-1,5.8105904E-1,1.8729205E-1,-3.0667663E-3,-2.2759024E-2,5.8499966E-3,-2.505845E-3,6.5377955E-3,2.8587503E-2,4.8087898E-1,2.6327493E-2,4.1216207E-1,1.0809338E-1,-4.7555037E-2,-8.0537386E-2,7.531288E-2,-8.4472075E-2,1.2203193E-2,-1.1851612E-1,-7.353399E-2,-5.0633427E-2,-4.5465652E-2,1.1215479E-3,-2.734006E-2,-9.107478E-2,-7.3351204E-2,7.4267867E-3,5.546708E-1,-1.2547117E-1,-5.0037324E-1,1.3403457E-1,3.9125764E-1,2.6626652E-1,2.8200317E-2,1.9397058E-1,-5.1744E-2,3.2035506E-1,1.5513942E-1,3.9504647E-2,1.4218993E-1,3.4012344E-2,-4.2933155E-2,1.6442402E-1,2.4945096E-3,-8.873144E-2,-1.00629136E-1,-7.298153E-2,4.3803457E-2,-2.051745E-2,-9.578134E-2,-1.8617183E-2,-3.0746259E-2,-1.527184E-1,2.47604E-2,-8.582524E-2,-2.72777E-2,-5.546945E-2,7.0122704E-3,-1.9208945E-2,-1.0006493E-1,-4.89252E-2,-1.9728577E-2,-1.0581152E-1,3.4512352E-2,6.0561866E-1,-2.4681358E-1,-3.560691E-2,5.4010564E-1,-5.2947335E-2,1.2639871E-1,4.387622E-2,9.028883E-2,6.995239E-2,-5.3481266E-2,4.5279525E-2,-8.915096E-3,-9.8543875E-2,1.9417763E-2,-1.0610725E-1,-2.11227E-2,-7.8812264E-2,-3.0642647E-2,-5.7801027E-3,6.168294E-3,-1.45460265E-2,-4.77717E-2,-1.2148757E-2,-8.556426E-3,4.1121047E-2,-1.1040572E-1,-7.2312854E-2,-1.3132364E-3,-2.9923813E-2,-1.76734E-2,-3.6738843E-3,-2.5827081E-3,8.081425E-3,-1.4711052E-2,-1.0700143E-1,-4.4321493E-4,-5.8119286E-2,1.3768673E-4,-9.905595E-3,-3.9495423E-2,-1.0826349E-2,2.4516481E-1,6.7530173E-1,3.9304093E-2,6.096252E-1,3.737333E-2,1.5171648E-2,-6.2081995E-3,-1.8288407E-2,-7.3893876E-3,-1.0470404E-1,-1.0919765E-1,-2.9532904E-2,2.4583163E-3,-8.068982E-2,-7.4521676E-2,-1.01589955E-1,-1.7892257E-3,5.4383352E-2,-7.0124078E-3,-3.4713127E-2,-7.707215E-2,9.856023E-3,-3.9187493E-3,-1.0216752E-2,-3.3099595E-2,-9.05605E-3,-1.9708363E-2,-4.172742E-3,-3.8920643E-4,4.5116546E-4,-1.06129184E-1,1.6881873E-1,2.3974778E-1,1.0262083E-1,4.859412E-2,2.1145402E-1,-3.565076E-2,-1.24617135E-2,-3.7466068E-2,-2.5585173E-2,-2.1014486E-2,7.724677E-3,-1.4605543E-2,3.1239199E-2,-2.8706534E-2,-5.3540915E-3,-2.600983E-2,-1.8479716E-2,-3.345666E-2,-1.39187295E-2,3.71916E-3,1.9273901E-2,-2.3053698E-3,-2.378275E-2],"categories":[],"categories_nodes":[],"categories_segments":[],"categories_sizes":[],"default_left":[0,0,0,0,0,0,0,0,0,0,0,0,0,0,0,0,0,0,0,0,0,0,0,0,0,0,0,0,0,0,0,0,0,0,0,0,0,0,0,0,0,0,0,0,0,0,0,0,0,0,0,0,0,0,0,0,0,0,0,0,0,0,0,0,0,0,0,0,0,0,0,0,0,0,0,0,0,0,0,0,0,0,0,0,0,0,0,0,0,0,0,0,0,0,0,0,0,0,0,0,0,0,0,0,0,0,0,0,0,0,0,0,0,0,0,0,0,0,0,0,0,0,0,0,0,0,0,0,0,0,0,0,0,0,0,0,0,0,0,0,0,0,0,0,0,0,0,0,0,0,0,0,0,0,0,0,0,0,0,0,0,0,0,0,0,0,0,0,0,0,0,0,0,0,0,0,0,0,0,0,0,0,0,0,0,0,0,0,0,0,0,0,0,0,0,0,0,0,0,0,0,0,0,0,0,0,0,0,0,0,0,0,0,0,0,0,0,0,0,0,0,0,0,0,0,0,0,0,0,0,0,0,0,0,0,0,0,0,0,0,0,0,0,0,0,0,0,0,0,0,0,0,0,0,0,0,0,0,0],"id":8,"left_children":[1,3,5,7,9,11,13,15,-1,-1,17,19,21,23,25,-1,27,29,31,33,35,37,39,41,-1,43,45,-1,-1,47,49,-1,51,53,-1,-1,-1,55,57,-1,59,61,-1,63,65,67,69,71,73,75,-1,-1,-1,-1,77,79,81,-1,83,-1,-1,85,-1,-1,-1,87,-1,89,91,93,-1,95,97,99,101,103,-1,105,-1,-1,-1,-1,-1,-1,107,109,111,113,115,117,119,121,123,-1,125,127,129,-1,131,-1,-1,133,135,-1,-1,-1,-1,-1,-1,137,-1,139,141,143,145,147,149,-1,151,153,-1,155,-1,157,159,161,-1,163,-1,165,-1,167,-1,-1,-1,-1,169,-1,-1,-1,-1,-1,171,173,175,177,179,-1,-1,181,183,-1,185,187,189,191,193,195,-1,197,199,201,203,-1,205,-1,-1,207,-1,-1,-1,209,-1,211,-1,-1,213,-1,215,217,219,-1,-1,-1,-1,-1,-1,-1,221,223,225,-1,227,-1,-1,-1,-1,-1,229,-1,231,233,-1,-1,-1,235,237,-1,239,-1,-1,-1,-1,-1,241,243,245,247,249,251,253,-1,255,-1,-1,257,-1,-1,-1,-1,-1,-1,-1,-1,-1,-1,-1,-1,-1,-1,-1,-1,-1,-1,-1,-1,-1,-1,-1,-1,-1,-1,-1,-1,-1,-1,-1,-1,-1],"loss_changes":[2.7149496E1,7.864294E0,3.4072099E0,1.558975E1,1.8041534E0,5.0315514E0,1.3599772E0,9.880688E-1,0E0,0E0,1.0521631E0,4.8949465E-1,1.7080603E0,1.890055E0,4.112649E-2,0E0,1.20982684E-1,1.164257E0,1.94555E0,8.499214E-2,2.7851105E-2,7.36295E-1,1.3794479E0,3.488159E-2,0E0,1.02214456E-1,4.541731E-2,0E0,0E0,8.145294E-1,2.6887262E-1,0E0,3.0029774E-2,9.232074E-3,0E0,0E0,0E0,9.847877E-1,2.4018812E-1,0E0,1.200974E-3,9.319556E-1,0E0,1.0564122E-3,1.508677E-2,2.0625949E-2,7.93089E-2,2.7626095E0,2.11215E0,1.2995377E-2,0E0,0E0,0E0,0E0,5.7569575E-3,1.2175798E-2,4.4596052E-1,0E0,3.0959845E-2,0E0,0E0,1.0533643E-1,0E0,0E0,0E0,6.7521334E-3,0E0,1.6405284E-2,1.1524454E-2,6.569341E-2,0E0,1.183686E0,1.3537846E0,2.2441304E-1,2.6254892E-1,2.0943917E-3,0E0,7.3435885E-4,0E0,0E0,0E0,0E0,0E0,0E0,8.325279E-4,6.618738E-2,1.9869685E-1,1.3467431E-2,7.447899E-2,3.5751283E-2,1.9172907E-2,2.6192516E-3,1.3046801E-2,0E0,1.24973245E-2,1.4779248E0,1.793385E0,0E0,2.0466185E-1,0E0,0E0,1.6257024E-1,2.9461658E-1,0E0,0E0,0E0,0E0,0E0,0E0,2.0517707E-2,0E0,2.01298E-2,1.3673459E-1,4.1438542E-2,1.8008232E-2,5.0624754E-2,7.1540624E-3,0E0,8.469701E-3,5.890864E-2,0E0,1.5800484E-3,0E0,8.011266E-3,3.8197339E-3,1.5318565E-2,0E0,3.110981E-1,0E0,3.9447796E-1,0E0,6.023733E-1,0E0,0E0,0E0,0E0,8.697599E-3,0E0,0E0,0E0,0E0,0E0,1.4624819E-2,9.1160916E-2,3.4414083E-3,4.5818746E-2,3.6132216E-2,0E0,0E0,2.8989613E-3,4.50764E-3,0E0,2.3325682E-3,6.403181E-3,5.9661567E-3,3.5378337E-4,7.662438E-4,1.4769787E-3,0E0,1.1242032E-3,2.5315704E-3,1.3246663E-3,6.0589015E-3,0E0,2.1120262E-1,0E0,0E0,6.2330365E-2,0E0,0E0,0E0,5.090423E-4,0E0,7.004794E-4,0E0,0E0,1.5188232E-3,0E0,6.714165E-3,1.9863505E-2,3.3750534E-3,0E0,0E0,0E0,0E0,0E0,0E0,0E0,3.446634E-3,3.2970458E-3,1.7547622E-2,0E0,4.2845495E-5,0E0,0E0,0E0,0E0,0E0,5.069524E-4,0E0,7.60762E-4,7.832725E-6,0E0,0E0,0E0,9.598666E-1,2.219119E-1,0E0,5.6330204E-2,0E0,0E0,0E0,0E0,0E0,2.2047684E-3,4.356712E-3,8.522959E-3,6.226824E-2,2.0624734E-3,1.008153E-2,3.048867E-3,0E0,8.599609E-4,0E0,0E0,3.825128E-3,0E0,0E0,0E0,0E0,0E0,0E0,0E0,0E0,0E0,0E0,0E0,0E0,0E0,0E0,0E0,0E0,0E0,0E0,0E0,0E0,0E0,0E0,0E0,0E0,0E0,0E0,0E0,0E0,0E0,0E0,0E0,0E0,0E0],"parents":[2147483647,0,0,1,1,2,2,3,3,4,4,5,5,6,6,7,7,10,10,11,11,12,12,13,13,14,14,16,16,17,17,18,18,19,19,20,20,21,21,22,22,23,23,25,25,26,26,29,29,30,30,32,32,33,33,37,37,38,38,40,40,41,41,43,43,44,44,45,45,46,46,47,47,48,48,49,49,54,54,55,55,56,56,58,58,61,61,65,65,67,67,68,68,69,69,71,71,72,72,73,73,74,74,75,75,77,77,84,84,85,85,86,86,87,87,88,88,89,89,90,90,91,91,92,92,94,94,95,95,96,96,98,98,101,101,102,102,109,109,111,111,112,112,113,113,114,114,115,115,116,116,118,118,119,119,121,121,123,123,124,124,125,125,127,127,129,129,131,131,136,136,142,142,143,143,144,144,145,145,146,146,149,149,150,150,152,152,153,153,154,154,155,155,156,156,157,157,159,159,160,160,161,161,162,162,164,164,167,167,171,171,173,173,176,176,178,178,179,179,180,180,188,188,189,189,190,190,192,192,198,198,200,200,201,201,205,205,206,206,208,208,214,214,215,215,216,216,217,217,218,218,219,219,220,220,222,222,225,225],"right_children":[2,4,6,8,10,12,14,16,-1,-1,18,20,22,24,26,-1,28,30,32,34,36,38,40,42,-1,44,46,-1,-1,48,50,-1,52,54,-1,-1,-1,56,58,-1,60,62,-1,64,66,68,70,72,74,76,-1,-1,-1,-1,78,80,82,-1,84,-1,-1,86,-1,-1,-1,88,-1,90,92,94,-1,96,98,100,102,104,-1,106,-1,-1,-1,-1,-1,-1,108,110,112,114,116,118,120,122,124,-1,126,128,130,-1,132,-1,-1,134,136,-1,-1,-1,-1,-1,-1,138,-1,140,142,144,146,148,150,-1,152,154,-1,156,-1,158,160,162,-1,164,-1,166,-1,168,-1,-1,-1,-1,170,-1,-1,-1,-1,-1,172,174,176,178,180,-1,-1,182,184,-1,186,188,190,192,194,196,-1,198,200,202,204,-1,206,-1,-1,208,-1,-1,-1,210,-1,212,-1,-1,214,-1,216,218,220,-1,-1,-1,-1,-1,-1,-1,222,224,226,-1,228,-1,-1,-1,-1,-1,230,-1,232,234,-1,-1,-1,236,238,-1,240,-1,-1,-1,-1,-1,242,244,246,248,250,252,254,-1,256,-1,-1,258,-1,-1,-1,-1,-1,-1,-1,-1,-1,-1,-1,-1,-1,-1,-1,-1,-1,-1,-1,-1,-1,-1,-1,-1,-1,-1,-1,-1,-1,-1,-1,-1,-1],"split_conditions":[-1.4459695E0,1.1113946E0,-5.422155E-1,1.0988531E0,-5.5282164E-1,-1.2262771E0,-1.5860147E0,-1.7758368E0,1.2216431E0,4.0257627E-1,-1.4601943E0,-4.940343E-1,-4.3961257E-1,-4.5840463E-1,-4.2040774E-1,2.5760147E-1,-5.522349E-1,-1.4604971E0,1.1467087E0,-7.6265866E-1,-5.483535E-1,-5.4821813E-1,-5.479022E-1,8.053832E-1,-3.1386036E-2,-1.579414E0,8.566014E-1,4.4926573E-2,-5.977257E-2,1.2252581E0,-1.7814296E0,5.284358E-1,-5.5187386E-1,-5.519641E-1,3.939028E-2,1.3167948E-1,2.7184548E-2,-5.4826325E-1,-5.2825016E-1,5.8230734E-1,-5.477668E-1,8.042058E-1,1.5067464E-1,-2.9708732E-2,-4.211464E-1,2.7273124E-1,2.3516264E0,1.2090862E0,1.2288885E0,1.2209675E0,7.407895E-2,1.3353078E-1,2.950194E-2,-2.9591698E-2,1.1717918E0,-5.483084E-1,-5.3009677E-1,-5.8321096E-2,-5.2640355E-1,4.107292E-2,1.5441678E-1,-1.655983E0,-1.23141475E-1,5.450678E-3,2.4798159E-2,-5.053881E-2,7.982594E-3,1.0823512E0,2.824148E-1,2.3231373E0,-9.2433654E-2,1.1780624E0,1.2150269E0,-5.5218977E-1,-1.461103E0,-5.520995E-1,-6.1670363E-2,-5.477668E-1,-1.9581418E-2,1.9209553E-2,8.6297035E-2,7.399221E-2,4.2480427E-1,8.99653E-2,-5.480827E-1,1.926692E-1,1.7715761E-1,-5.522562E-1,-5.031315E-2,-4.887322E-1,1.5331845E0,-2.0612139E-1,-4.7442663E-1,-8.197828E-2,-3.64934E-1,-1.7802522E0,-5.519641E-1,4.9643287E-1,1.2209675E0,8.5730554E-4,-1.6239366E-1,-1.7826071E0,-5.523703E-1,-3.0667663E-3,-2.2759024E-2,5.8499966E-3,-2.505845E-3,6.5377955E-3,2.8587503E-2,7.9979044E-1,2.6327493E-2,-4.6210548E-1,-4.626908E-1,-5.220871E-2,-6.6355556E-1,9.1576725E-1,9.082105E-1,1.2203193E-2,-2.958078E-1,-1.6599621E-1,-5.0633427E-2,-3.6836407E-1,1.1215479E-3,1.0190592E0,8.4247226E-1,-1.7148373E-1,7.4267867E-3,-1.4635259E0,-1.2547117E-1,-5.520995E-1,1.3403457E-1,-5.5214465E-1,2.6626652E-1,2.8200317E-2,1.9397058E-1,-5.1744E-2,-5.520995E-1,1.5513942E-1,3.9504647E-2,1.4218993E-1,3.4012344E-2,-4.2933155E-2,7.894879E-1,-5.256977E-2,-5.5262554E-1,-6.679776E-2,-6.615753E-1,4.3803457E-2,-2.051745E-2,9.1576725E-1,-4.977156E-2,-3.0746259E-2,1.8564713E0,-1.6893978E-1,-4.801967E-1,-3.707561E-1,4.411288E0,1.8476076E0,-1.9208945E-2,-1.0878946E0,1.0081561E0,8.898638E-1,9.013437E-1,3.4512352E-2,-5.5218977E-1,-2.4681358E-1,-3.560691E-2,-1.4617087E0,-5.2947335E-2,1.2639871E-1,4.387622E-2,-4.6237627E-1,6.995239E-2,-9.73793E-1,4.5279525E-2,-8.915096E-3,-5.202818E-2,1.9417763E-2,9.207713E-1,-5.504096E-1,8.876157E-1,-3.0642647E-2,-5.7801027E-3,6.168294E-3,-1.45460265E-2,-4.77717E-2,-1.2148757E-2,-8.556426E-3,-6.733452E-2,-6.733452E-2,2.4957175E0,-1.3132364E-3,-1.8034749E-1,-1.76734E-2,-3.6738843E-3,-2.5827081E-3,8.081425E-3,-1.4711052E-2,4.418148E0,-4.4321493E-4,6.385058E-2,-3.682738E-1,-9.905595E-3,-3.9495423E-2,-1.0826349E-2,-1.4626173E0,-1.461103E0,3.9304093E-2,-6.9481504E-1,3.737333E-2,1.5171648E-2,-6.2081995E-3,-1.8288407E-2,-7.3893876E-3,-6.652057E-1,1.0337989E0,-5.1396325E-2,-5.507789E-1,1.2348511E0,8.5430056E-1,8.8368225E-1,-1.7892257E-3,-4.947348E-1,-7.0124078E-3,-3.4713127E-2,-1.070955E0,9.856023E-3,-3.9187493E-3,-1.0216752E-2,-3.3099595E-2,-9.05605E-3,-1.9708363E-2,-4.172742E-3,-3.8920643E-4,4.5116546E-4,-1.06129184E-1,1.6881873E-1,2.3974778E-1,1.0262083E-1,4.859412E-2,2.1145402E-1,-3.565076E-2,-1.24617135E-2,-3.7466068E-2,-2.5585173E-2,-2.1014486E-2,7.724677E-3,-1.4605543E-2,3.1239199E-2,-2.8706534E-2,-5.3540915E-3,-2.600983E-2,-1.8479716E-2,-3.345666E-2,-1.39187295E-2,3.71916E-3,1.9273901E-2,-2.3053698E-3,-2.378275E-2],"split_indices":[3,7,0,7,0,3,7,2,0,0,4,6,1,0,1,0,0,4,7,2,0,0,0,2,0,7,2,0,0,7,2,0,0,0,0,0,0,0,1,0,0,2,0,2,1,6,6,7,7,7,0,0,0,0,7,0,1,0,1,0,0,7,0,0,0,0,0,7,1,6,0,7,7,0,4,0,0,0,0,0,0,0,0,0,0,1,1,1,0,0,7,7,0,0,0,2,0,0,7,0,0,2,0,0,0,0,0,0,0,2,0,0,0,0,7,2,4,0,2,2,0,0,0,4,2,1,0,4,0,0,0,0,0,0,0,0,0,0,0,0,0,0,2,0,1,2,7,0,0,2,0,0,1,2,6,0,0,1,0,3,4,2,2,0,0,0,0,4,0,0,0,0,0,4,0,0,0,0,2,1,4,0,0,0,0,0,0,0,1,1,0,0,1,0,0,0,0,0,0,0,7,0,0,0,0,4,4,0,1,0,0,0,0,0,7,6,0,1,6,4,2,0,0,0,0,3,0,0,0,0,0,0,0,0,0,0,0,0,0,0,0,0,0,0,0,0,0,0,0,0,0,0,0,0,0,0,0,0,0],"split_type":[0,0,0,0,0,0,0,0,0,0,0,0,0,0,0,0,0,0,0,0,0,0,0,0,0,0,0,0,0,0,0,0,0,0,0,0,0,0,0,0,0,0,0,0,0,0,0,0,0,0,0,0,0,0,0,0,0,0,0,0,0,0,0,0,0,0,0,0,0,0,0,0,0,0,0,0,0,0,0,0,0,0,0,0,0,0,0,0,0,0,0,0,0,0,0,0,0,0,0,0,0,0,0,0,0,0,0,0,0,0,0,0,0,0,0,0,0,0,0,0,0,0,0,0,0,0,0,0,0,0,0,0,0,0,0,0,0,0,0,0,0,0,0,0,0,0,0,0,0,0,0,0,0,0,0,0,0,0,0,0,0,0,0,0,0,0,0,0,0,0,0,0,0,0,0,0,0,0,0,0,0,0,0,0,0,0,0,0,0,0,0,0,0,0,0,0,0,0,0,0,0,0,0,0,0,0,0,0,0,0,0,0,0,0,0,0,0,0,0,0,0,0,0,0,0,0,0,0,0,0,0,0,0,0,0,0,0,0,0,0,0,0,0,0,0,0,0,0,0,0,0,0,0,0,0,0,0,0,0],"sum_hessian":[4.96E2,6.4E1,4.32E2,5E0,5.9E1,3.9E1,3.93E2,4E0,1E0,2E0,5.7E1,2.5E1,1.4E1,4E1,3.53E2,2E0,2E0,5.2E1,5E0,2.3E1,2E0,1.1E1,3E0,2E1,2E1,2.04E2,1.49E2,1E0,1E0,4.6E1,6E0,1E0,4E0,2.2E1,1E0,1E0,1E0,6E0,5E0,1E0,2E0,1.8E1,2E0,4E0,2E2,1.36E2,1.3E1,3.3E1,1.3E1,4E0,2E0,3E0,1E0,1.9E1,3E0,4E0,2E0,1E0,4E0,1E0,1E0,1.7E1,1E0,1E0,3E0,1.99E2,1E0,9.2E1,4.4E1,1.1E1,2E0,2.3E1,1E1,3E0,1E1,3E0,1E0,2E0,1E0,1E0,3E0,1E0,1E0,2E0,2E0,7E0,1E1,1.85E2,1.4E1,4.4E1,4.8E1,1.7E1,2.7E1,1E0,1E1,1.7E1,6E0,2E0,8E0,1E0,2E0,6E0,4E0,1E0,2E0,1E0,1E0,1E0,1E0,6E0,1E0,3E0,7E0,1.9E1,1.66E2,3E0,1.1E1,1E0,4.3E1,4.6E1,2E0,1.6E1,1E0,5E0,2.2E1,9E0,1E0,1.6E1,1E0,3E0,3E0,5E0,3E0,1E0,5E0,1E0,3E0,5E0,1E0,2E0,1E0,1E0,6E0,9E0,1E1,4.2E1,1.24E2,2E0,1E0,9E0,2E0,3.2E1,1.1E1,5E0,4.1E1,7E0,9E0,3E0,2E0,1.7E1,5E0,4E0,5E0,2E0,1.4E1,1E0,2E0,4E0,1E0,1E0,2E0,4E0,2E0,7E0,2E0,2E0,8E0,1E0,4.1E1,1.3E1,1.11E2,8E0,1E0,1E0,1E0,1E1,1E0,1E0,4E0,1.2E1,2.9E1,1E0,6E0,8E0,1E0,2E0,1E0,3E0,1.4E1,1E0,4E0,2E0,2E0,3E0,2E0,3E0,1.1E1,1E0,3E0,1E0,3E0,2E0,5E0,1E0,7E0,3.9E1,2E0,1E1,3E0,9.7E1,1.4E1,1E0,3E0,1E0,1.1E1,2.8E1,1E0,2E0,4E0,1.3E1,1E0,3E0,1E0,1E0,1E0,1E0,2E0,7E0,4E0,1E0,2E0,5E0,2E0,2.1E1,1.8E1,1E0,1E0,7E0,3E0,2E0,1E0,4.7E1,5E1,1.1E1,3E0,1E0,2E0,1E0,2.7E1],"tree_param":{"num_deleted":"0","num_feature":"8","num_nodes":"259","size_leaf_vector":"1"}},{"base_weights":[5.0285883E-2,4.0712795E-1,-4.403356E-2,1.0938208E-1,5.439763E-1,8.911161E-2,-5.9329942E-2,-6.521027E-2,3.9643204E-1,1.7818434E0,4.434791E-1,2.4870846E-1,-2.2418596E-2,-5.1113535E-2,-7.0163496E-2,3.818758E-2,-8.043856E-2,5.716609E-1,9.672155E-2,4.966433E-1,1.0383966E0,3.9539975E-1,1.101879E0,2.1144637E-1,1.20539665E-1,5.742693E-2,-5.355925E-2,-6.5302566E-2,-1.3906224E-1,-5.0806683E-2,-6.7524925E-2,8.032016E-1,4.1795935E-2,1.8216309E-1,-4.957293E-2,2.0608121E-1,-1.1135824E-2,5.4062164E-1,2.2336929E-1,4.9496114E-1,3.692584E-1,2.6196015E-1,-1.0467025E-1,4.633069E-3,1.9218564E-2,-5.405322E-2,6.7852023E-3,-6.3342124E-2,-4.0506735E-2,-6.4442925E-2,-2.1622567E-1,-2.1099456E-2,-2.12996E-3,3.1534076E-1,8.626009E-2,6.553261E-2,5.557108E-3,3.2206097E-1,4.7376645E-1,2.0448583E-1,1.4992751E-1,3.491199E-2,1.312543E-1,3.375175E-1,1.8319479E-1,-5.131646E-2,-6.968816E-2,-2.3094987E-2,-6.6260405E-2,-3.3171117E-2,-3.3120293E-2,-9.0698786E-2,6.312767E-3,-3.997631E-2,5.48586E-1,-7.1139306E-2,2.419112E-1,1.7108813E-1,4.6117485E-1,3.32564E-1,8.561084E-2,-5.3213354E-2,7.4544474E-2,-1.9311393E-2,-8.0259636E-2,1.9440189E-2,-6.1781E-2,-1.1379525E-1,-6.2210616E-2,-1.3146061E-2,-3.4394981E-3,1.762234E-1,-1.3571627E-1,1.076994E0,4.4209728E-1,-3.2897347E-1,2.0092273E-1,5.068662E-1,1.1980178E-1,7.994929E-2,1.864926E-2,1.6208397E-1,3.357897E-2,1.1375194E-1,2.8910495E-2,-3.649321E-2,1.3259639E-1,-5.6894697E-2,-1.6301446E-2,-6.0651465E-3,3.9610162E-2,-1.093812E-2,9.99108E-3,-8.452015E-2,-2.5102967E-2,1.7718762E-2,-2.967894E-4,-8.796748E-2,1.037271E-2,-1.4110601E-2,-3.7845053E-2,-1.4444547E-2,-6.4556755E-2,8.663035E-3,6.471401E-2,1.3135071E-1,4.4917032E-1,8.00022E-1,2.2660197E-1,-1.312402E-1,-3.324654E-2,1.0492409E-1,-5.9156124E-2,2.0418604E-1,3.1871703E-2,2.752714E-1,3.8242713E-2,-1.3986182E-2,2.237835E-2,6.0673715E-3,1.4795427E-1,-8.104288E-2,-5.1890157E-2,3.7247438E-2,-4.1717432E-2,-7.4706454E-4,5.2430504E-3,-5.577179E-2,-2.9711427E-2,-1.7862312E-2,6.5659764E-3,-7.272962E-3,1.1750616E-2,-5.9605483E-3,-3.0007532E-2,-6.0877744E-3,1.1702379E-4,-6.198443E-2,-3.6325686E-2,1.5698306E-1,9.613213E-1,-7.759941E-2,5.7852846E-1,1.1390884E-1,-2.1364147E-2,-1.0461764E-1,1.3482258E-1,5.0530042E-2,6.8337326E-3,1.65051E-2,-8.900441E-2,-3.0822897E-2,-5.8601234E-2,3.622362E-2,-1.0406366E-2,-5.3360827E-2,1.2953984E-2,-3.22771E-3,-1.8016052E-2,-1.5208438E-3,5.7141427E-3,-3.3082368E-4,3.8348438E-4,-2.9079096E-2,-6.5606065E-2,6.991368E-2,7.287026E-4,3.8582882E-1,1.1886489E-1,1.4046508E-1,-1.8997149E-1,2.2606088E-1,6.4541E-2,3.986438E-2,-6.426814E-2,6.1294172E-2,-2.593714E-2,-2.8160721E-2,-7.098632E-3,-2.1148175E-2,-7.24469E-2,-4.9665635E-3,-5.929749E-2,-2.226645E-3,-5.721248E-2,-3.2031972E-2,9.5331523E-4,-3.0651972E-2,-6.869231E-2,1.1656309E-1,-2.0955072E-3,2.0545721E-2,-2.6067495E-3,4.9724937E-3,-1.6644208E-2,-9.380456E-3,2.3094399E-2,-2.9150946E-2,7.6751504E-3,-6.9099846E-3,-1.7945549E-2,-1.797903E-2,-4.9130875E-3,-1.116255E-3,-1.0280236E-2,-1.1743816E-2,6.869209E-3,-3.5086375E-2,-1.9189572E-2],"categories":[],"categories_nodes":[],"categories_segments":[],"categories_sizes":[],"default_left":[0,0,0,0,0,0,0,0,0,0,0,0,0,0,0,0,0,0,0,0,0,0,0,0,0,0,0,0,0,0,0,0,0,0,0,0,0,0,0,0,0,0,0,0,0,0,0,0,0,0,0,0,0,0,0,0,0,0,0,0,0,0,0,0,0,0,0,0,0,0,0,0,0,0,0,0,0,0,0,0,0,0,0,0,0,0,0,0,0,0,0,0,0,0,0,0,0,0,0,0,0,0,0,0,0,0,0,0,0,0,0,0,0,0,0,0,0,0,0,0,0,0,0,0,0,0,0,0,0,0,0,0,0,0,0,0,0,0,0,0,0,0,0,0,0,0,0,0,0,0,0,0,0,0,0,0,0,0,0,0,0,0,0,0,0,0,0,0,0,0,0,0,0,0,0,0,0,0,0,0,0,0,0,0,0,0,0,0,0,0,0,0,0,0,0,0,0,0,0,0,0,0,0,0,0,0,0,0,0,0,0,0,0,0,0,0,0,0,0,0,0,0,0,0,0,0,0,0,0],"id":9,"left_children":[1,3,5,7,9,11,13,15,17,19,21,23,-1,25,27,-1,29,31,33,35,-1,37,39,41,-1,43,45,47,49,-1,51,53,-1,55,-1,-1,-1,57,59,-1,61,63,-1,-1,-1,65,-1,67,-1,69,71,-1,-1,-1,-1,-1,-1,-1,73,-1,75,-1,-1,77,79,81,83,85,87,89,-1,-1,-1,91,93,95,97,99,101,103,105,107,109,111,113,115,117,119,121,-1,-1,123,-1,125,127,129,131,133,135,-1,137,-1,-1,-1,-1,-1,139,141,143,-1,-1,-1,145,147,149,-1,151,153,-1,-1,-1,155,157,-1,-1,-1,-1,159,161,-1,-1,-1,-1,-1,-1,163,165,-1,-1,-1,167,169,171,173,175,-1,-1,177,-1,-1,-1,-1,179,-1,-1,-1,181,183,-1,185,187,189,191,-1,-1,193,195,-1,-1,-1,197,199,201,-1,-1,203,-1,-1,-1,-1,-1,-1,-1,205,207,-1,-1,-1,-1,209,-1,-1,-1,211,-1,-1,213,-1,-1,215,217,-1,219,-1,221,223,-1,225,227,-1,-1,-1,-1,-1,-1,-1,-1,-1,-1,-1,-1,-1,-1,-1,-1,-1,-1,-1,-1],"loss_changes":[1.674553E1,4.178087E0,8.077228E-1,1.72982E0,8.042343E0,1.0906696E0,2.79243E-2,7.4731715E-2,6.274414E-1,9.073287E0,1.6852322E0,3.483486E-2,0E0,5.749488E-2,4.1155696E-2,0E0,1.2677357E-2,6.8893456E-1,1.6439718E-1,4.31786E-1,0E0,1.4781275E0,9.966507E-1,6.291979E-1,0E0,4.0344335E-4,8.785963E-3,1.0856211E-2,3.7886724E-2,0E0,2.8924197E-3,3.370216E-1,0E0,2.5636956E-2,0E0,0E0,0E0,7.0275116E-1,9.411024E-1,0E0,8.676946E-4,4.529202E-2,0E0,0E0,0E0,4.9816966E-3,0E0,1.49130225E-2,0E0,4.961023E-3,8.808035E-2,0E0,0E0,0E0,0E0,0E0,0E0,0E0,1.2519464E0,0E0,5.865765E-1,0E0,0E0,8.574009E-2,1.3186532E-1,4.5508415E-2,1.2829095E-2,1.9301714E-2,1.7946541E-2,6.533535E-4,0E0,0E0,0E0,5.2553725E-1,1.0994091E0,6.974203E-1,5.863466E-1,6.775059E-2,5.0034642E-2,7.4952245E-3,9.403343E-2,2.2444814E-2,1.9012716E-2,3.3793284E-3,3.0482113E-3,4.7096824E-3,1.8180994E-2,1.4898255E-3,1.2739539E-2,0E0,0E0,1.7045744E-2,0E0,4.1885805E-1,1.7469907E0,6.985968E-2,3.6520746E-1,3.453548E-1,1.7967221E-1,0E0,1.4432255E-2,0E0,0E0,0E0,0E0,0E0,9.088241E-3,1.4647365E-2,2.4690831E-2,0E0,0E0,0E0,3.2381687E-4,2.8237998E-3,6.1578387E-3,0E0,1.7273336E-3,2.118215E-3,0E0,0E0,0E0,5.9847056E-4,9.362131E-3,0E0,0E0,0E0,0E0,7.8258467E-1,1.8648545E0,0E0,0E0,0E0,0E0,0E0,0E0,2.0794776E-1,1.658766E-1,0E0,0E0,0E0,1.1544183E-2,3.1977907E-2,1.6856432E-2,4.0227115E-2,1.416604E-2,0E0,0E0,1.0884684E-3,0E0,0E0,0E0,0E0,5.87472E-4,0E0,0E0,0E0,5.6590175E-6,1.1558592E-2,0E0,3.4701236E-2,7.751503E-1,1.300599E0,3.4665775E-1,0E0,0E0,8.772302E-2,8.349915E-2,0E0,0E0,0E0,5.407691E-3,1.2159701E-2,1.916498E-3,0E0,0E0,1.5216954E-3,0E0,0E0,0E0,0E0,0E0,0E0,0E0,1.3400437E-3,8.790016E-3,0E0,0E0,0E0,0E0,2.9534763E-1,0E0,0E0,0E0,4.764088E-3,0E0,0E0,4.6874676E-3,0E0,0E0,3.1206144E-2,1.7027605E-2,0E0,4.5487285E-4,0E0,1.2828037E-4,6.319629E-4,0E0,5.444864E-3,1.3507754E-2,0E0,0E0,0E0,0E0,0E0,0E0,0E0,0E0,0E0,0E0,0E0,0E0,0E0,0E0,0E0,0E0,0E0,0E0,0E0,0E0],"parents":[2147483647,0,0,1,1,2,2,3,3,4,4,5,5,6,6,7,7,8,8,9,9,10,10,11,11,13,13,14,14,16,16,17,17,18,18,19,19,21,21,22,22,23,23,25,25,26,26,27,27,28,28,30,30,31,31,33,33,37,37,38,38,40,40,41,41,45,45,47,47,49,49,50,50,58,58,60,60,63,63,64,64,65,65,66,66,67,67,68,68,69,69,73,73,74,74,75,75,76,76,77,77,78,78,79,79,80,80,81,81,82,82,83,83,84,84,85,85,86,86,87,87,88,88,91,91,93,93,94,94,95,95,96,96,97,97,98,98,100,100,106,106,107,107,108,108,112,112,113,113,114,114,116,116,117,117,121,121,122,122,127,127,128,128,135,135,136,136,140,140,141,141,142,142,143,143,144,144,147,147,152,152,156,156,157,157,159,159,160,160,161,161,162,162,165,165,166,166,170,170,171,171,172,172,175,175,183,183,184,184,189,189,193,193,196,196,199,199,200,200,202,202,204,204,205,205,207,207,208,208],"right_children":[2,4,6,8,10,12,14,16,18,20,22,24,-1,26,28,-1,30,32,34,36,-1,38,40,42,-1,44,46,48,50,-1,52,54,-1,56,-1,-1,-1,58,60,-1,62,64,-1,-1,-1,66,-1,68,-1,70,72,-1,-1,-1,-1,-1,-1,-1,74,-1,76,-1,-1,78,80,82,84,86,88,90,-1,-1,-1,92,94,96,98,100,102,104,106,108,110,112,114,116,118,120,122,-1,-1,124,-1,126,128,130,132,134,136,-1,138,-1,-1,-1,-1,-1,140,142,144,-1,-1,-1,146,148,150,-1,152,154,-1,-1,-1,156,158,-1,-1,-1,-1,160,162,-1,-1,-1,-1,-1,-1,164,166,-1,-1,-1,168,170,172,174,176,-1,-1,178,-1,-1,-1,-1,180,-1,-1,-1,182,184,-1,186,188,190,192,-1,-1,194,196,-1,-1,-1,198,200,202,-1,-1,204,-1,-1,-1,-1,-1,-1,-1,206,208,-1,-1,-1,-1,210,-1,-1,-1,212,-1,-1,214,-1,-1,216,218,-1,220,-1,222,224,-1,226,228,-1,-1,-1,-1,-1,-1,-1,-1,-1,-1,-1,-1,-1,-1,-1,-1,-1,-1,-1,-1],"split_conditions":[-5.422155E-1,1.0668393E0,-1.5860147E0,-1.412351E0,1.1113946E0,-4.5840463E-1,-4.2040774E-1,-5.522349E-1,-5.4821813E-1,1.0988531E0,-4.3776593E-1,8.053832E-1,-2.2418596E-2,-1.579414E0,8.898638E-1,3.818758E-2,-6.940764E-1,-3.8205454E-1,-5.480827E-1,-1.7758368E0,1.0383966E0,-6.9481504E-1,-5.479022E-1,8.042058E-1,1.20539665E-1,-2.9708732E-2,-4.211464E-1,1.5331845E0,-3.670101E-1,-5.0806683E-2,-5.519641E-1,1.4408195E-1,4.1795935E-2,-5.2640355E-1,-4.957293E-2,2.0608121E-1,-1.1135824E-2,-5.5282164E-1,-1.7820183E0,4.9496114E-1,-5.477668E-1,-1.655983E0,-1.0467025E-1,4.633069E-3,1.9218564E-2,9.0336466E-1,6.7852023E-3,-4.887322E-1,-4.0506735E-2,-1.6668253E-1,-1.6335861E-1,-2.1099456E-2,-2.12996E-3,3.1534076E-1,8.626009E-2,6.553261E-2,5.557108E-3,3.2206097E-1,-1.4635259E0,2.0448583E-1,-1.4614058E0,3.491199E-2,1.312543E-1,-4.619687E-1,1.7715761E-1,9.0215325E-1,9.101744E-1,-1.6599621E-1,-1.836714E-1,-9.1933584E-1,-3.3120293E-2,-9.0698786E-2,6.312767E-3,-1.4514421E0,1.1467087E0,1.1840032E0,1.1691514E0,-4.6237627E-1,7.9979044E-1,-4.6210548E-1,-4.626908E-1,9.125293E-1,-5.0991546E-2,-5.166712E-2,9.207713E-1,-1.1876158E0,-4.8963624E-1,1.4900687E-1,-1.7148373E-1,-1.3146061E-2,-3.4394981E-3,-1.7834902E0,-1.3571627E-1,-1.4604971E0,-1.4614058E0,-5.5218977E-1,-5.5218977E-1,-5.51919E-1,-1.461103E0,7.994929E-2,1.9082257E-1,1.6208397E-1,3.357897E-2,1.1375194E-1,2.8910495E-2,-3.649321E-2,1.7937355E-1,-6.6355556E-1,-5.220871E-2,-6.0651465E-3,3.9610162E-2,-1.093812E-2,-5.0991546E-2,9.13118E-1,-5.1396325E-2,1.7718762E-2,-1.6893978E-1,-6.733452E-2,1.037271E-2,-1.4110601E-2,-3.7845053E-2,8.318754E-1,8.5277474E-1,8.663035E-3,6.471401E-2,1.3135071E-1,4.4917032E-1,-5.5218977E-1,1.2209675E0,-1.312402E-1,-3.324654E-2,1.0492409E-1,-5.9156124E-2,2.0418604E-1,3.1871703E-2,-1.7814296E0,-5.520995E-1,-1.3986182E-2,2.237835E-2,6.0673715E-3,1.8897596E-1,-6.679776E-2,-2.9688212E-1,-5.522562E-1,-5.5151755E-1,-7.4706454E-4,5.2430504E-3,-6.658658E-1,-2.9711427E-2,-1.7862312E-2,6.5659764E-3,-7.272962E-3,-6.733452E-2,-5.9605483E-3,-3.0007532E-2,-6.0877744E-3,-3.682738E-1,2.824148E-1,-3.6325686E-2,-1.781724E0,-5.520995E-1,-1.7814296E0,1.2295486E0,1.1390884E-1,-2.1364147E-2,1.2209675E0,-5.479022E-1,5.0530042E-2,6.8337326E-3,1.65051E-2,9.0124464E-1,1.2332231E0,-9.73793E-1,3.622362E-2,-1.0406366E-2,9.137067E-1,1.2953984E-2,-3.22771E-3,-1.8016052E-2,-1.5208438E-3,5.7141427E-3,-3.3082368E-4,3.8348438E-4,-2.0612139E-1,-4.7442663E-1,6.991368E-2,7.287026E-4,3.8582882E-1,1.1886489E-1,-1.7843732E0,-1.8997149E-1,2.2606088E-1,6.4541E-2,-5.5218977E-1,-6.426814E-2,6.1294172E-2,-4.3813527E-1,-2.8160721E-2,-7.098632E-3,1.2307812E0,8.957931E-1,-4.9665635E-3,-1.4120904E0,-2.226645E-3,-4.9184836E-2,-3.707561E-1,9.5331523E-4,-2.8874326E-1,-2.9746103E-1,1.1656309E-1,-2.0955072E-3,2.0545721E-2,-2.6067495E-3,4.9724937E-3,-1.6644208E-2,-9.380456E-3,2.3094399E-2,-2.9150946E-2,7.6751504E-3,-6.9099846E-3,-1.7945549E-2,-1.797903E-2,-4.9130875E-3,-1.116255E-3,-1.0280236E-2,-1.1743816E-2,6.869209E-3,-3.5086375E-2,-1.9189572E-2],"split_indices":[0,7,7,3,7,0,1,0,0,7,1,2,0,7,2,0,1,2,0,2,0,1,0,2,0,2,1,7,0,0,0,4,0,1,0,0,0,0,2,0,0,7,0,0,0,4,0,0,0,1,1,0,0,0,0,0,0,0,4,0,4,0,0,0,1,4,2,2,1,7,0,0,0,3,7,7,7,0,2,0,0,2,0,0,2,4,0,6,1,0,0,2,0,4,4,0,0,0,4,0,1,0,0,0,0,0,1,7,0,0,0,0,0,2,0,0,2,1,0,0,0,2,2,0,0,0,0,