{"learner":{"attributes":{"scikit_learn":"{\"_estimator_type\": \"regressor\"}"},"feature_names":["ground_truth","Compute throughput","Memory throughput","DRAM throughput","Achieved occupancy","Maximum occupancy","L1 hit rate","L2 hit rate"],"feature_types":["float","float","float","float","float","float","float","float"],"gradient_booster":{"model":{"gbtree_model_param":{"num_parallel_tree":"1","num_trees":"100"},"iteration_indptr":[0,1,2,3,4,5,6,7,8,9,10,11,12,13,14,15,16,17,18,19,20,21,22,23,24,25,26,27,28,29,30,31,32,33,34,35,36,37,38,39,40,41,42,43,44,45,46,47,48,49,50,51,52,53,54,55,56,57,58,59,60,61,62,63,64,65,66,67,68,69,70,71,72,73,74,75,76,77,78,79,80,81,82,83,84,85,86,87,88,89,90,91,92,93,94,95,96,97,98,99,100],"tree_info":[0,0,0,0,0,0,0,0,0,0,0,0,0,0,0,0,0,0,0,0,0,0,0,0,0,0,0,0,0,0,0,0,0,0,0,0,0,0,0,0,0,0,0,0,0,0,0,0,0,0,0,0,0,0,0,0,0,0,0,0,0,0,0,0,0,0,0,0,0,0,0,0,0,0,0,0,0,0,0,0,0,0,0,0,0,0,0,0,0,0,0,0,0,0,0,0,0,0,0,0],"trees":[{"base_weights":[-8.532116E-9,6.8581986E0,-2.1342942E-1,-1.1348208E-1,3.1066163E0,1.069951E0,-3.447963E-1,-2.347227E-1,7.3908165E-2,5.834468E-1,3.371421E0,8.919357E-1,-5.028729E-1,2.281183E-2,-1.24204904E-1,4.6203794E0,-5.2579954E-2,2.750595E0,-4.38857E-1,-3.9190224E-1,-5.583446E-1,1.03466004E-1,-9.3200676E-2,-1.14075996E-1,2.164728E0,-1.764185E-1,1.559123E0,2.9180806E0,-8.9867346E-2,-5.23683E-1,2.4343309E-1,-4.6200025E-1,1.13590226E-1,-5.676643E-1,-3.5603333E-1,3.2285123E0,3.8245448E-1,4.7558257E-1,1.1023535E0,-2.2013427E-1,-1.7007092E-1,1.2710653E-1,1.2635553E-2,-4.83598E-1,1.5597382E-1,-5.162172E-1,2.2895186E0,-6.0798043E-1,-5.112665E-1,8.27644E-2,-4.832295E-1,-8.9867346E-2,1.3513166E0,1.1186321E0,-1.3480102E-1,-1.15363516E-1,1.7654577E-2,-5.293051E-1,-2.2479863E-1,-1.6683054E-1,3.4244658E-4,9.761427E-1,-9.050294E-2,-5.8781284E-1,-9.503373E-1,-1.19735844E-1,-5.3312385E-1,-4.565414E-2,6.354186E-2,-1.7419982E-1,-1.5976417E-1,2.6854476E-2,6.5909475E-1,8.333695E-3,-3.891349E-4,-1.7703706E-1,-3.3054304E-1,-4.0406525E-1,1.402392E-1,-1.8122935E-1,-2.1070927E-1,-1.4543244E-1,-4.9172246E-1,-1.1048304E-1,5.3335905E-2,-1.6060176E-1,-4.6405856E-2,1.1477423E-2,-8.9867346E-2,-8.9867346E-2,1.0195186E-1,-1.3356131E-1,-1.5984294E-1,-1.5901445E-1,1.1908174E-2,-1.2435633E-1,1.1093248E-1,1.5197254E-2,-9.761625E-2,2.0890761E-2,-1.7795921E-3,1.1609728E-1,-2.0337231E-1,6.4383715E-2,-8.9430675E-2,-7.237691E-3,-4.4917405E-2,-9.984411E-2,-9.225437E-2,-6.0948342E-2,-1.6818454E-2],"categories":[],"categories_nodes":[],"categories_segments":[],"categories_sizes":[],"default_left":[0,0,0,0,0,0,0,0,0,0,0,0,0,0,0,0,0,0,0,0,0,0,0,0,0,0,0,0,0,0,0,0,0,0,0,0,0,0,0,0,0,0,0,0,0,0,0,0,0,0,0,0,0,0,0,0,0,0,0,0,0,0,0,0,0,0,0,0,0,0,0,0,0,0,0,0,0,0,0,0,0,0,0,0,0,0,0,0,0,0,0,0,0,0,0,0,0,0,0,0,0,0,0,0,0,0,0,0,0,0,0],"id":0,"left_children":[1,3,5,7,-1,9,11,13,-1,15,-1,17,19,21,-1,23,25,27,29,31,33,-1,-1,-1,-1,-1,35,37,-1,39,41,43,45,47,49,51,53,-1,-1,55,-1,-1,-1,57,-1,59,61,63,65,67,69,-1,-1,71,-1,-1,73,75,77,-1,-1,-1,-1,79,81,83,85,-1,-1,87,-1,89,-1,-1,-1,-1,91,93,95,-1,97,-1,-1,-1,99,-1,-1,-1,-1,-1,-1,101,-1,-1,103,105,-1,-1,-1,-1,-1,-1,107,-1,-1,-1,-1,109,-1,-1,-1],"loss_changes":[7.2747943E2,3.668943E2,8.1631065E1,3.195917E-1,0E0,2.1605067E2,8.6076836E1,2.4031603E-1,0E0,1.1321721E2,0E0,1.2488162E2,2.175766E0,4.2936283E-1,0E0,8.061505E1,3.4575317E1,1.1602127E1,1.863761E0,4.7652016E0,2.8245544E-1,0E0,0E0,0E0,0E0,0E0,1.8408419E1,1.4338394E1,0E0,2.2942829E-1,1.27307E-1,2.7326603E0,2.4478956E1,2.4395752E-1,8.2138157E-1,1.9354847E1,4.7890644E0,0E0,0E0,2.0226422E-1,0E0,0E0,0E0,1.2413445E0,0E0,2.8952003E-1,1.0976255E1,3.8729858E-1,8.604107E-1,1.5350357E-1,7.48775E-2,0E0,0E0,4.6502767E0,0E0,0E0,6.116564E-4,9.7751427E-1,1.3000088E0,0E0,0E0,0E0,0E0,6.8333817E-1,1.1293197E0,3.2075036E-1,2.7046204E-3,0E0,0E0,9.13604E-2,0E0,4.0828806E-1,0E0,0E0,0E0,0E0,9.249089E-1,6.8758345E-1,4.7112274E-1,0E0,2.2629482E-1,0E0,0E0,0E0,5.243399E-3,0E0,0E0,0E0,0E0,0E0,0E0,5.874671E-1,0E0,0E0,3.1533808E-1,6.5585487E-3,0E0,0E0,0E0,0E0,0E0,0E0,1.0945809E-1,0E0,0E0,0E0,0E0,2.4798378E-2,0E0,0E0,0E0],"parents":[2147483647,0,0,1,1,2,2,3,3,5,5,6,6,7,7,9,9,11,11,12,12,13,13,15,15,16,16,17,17,18,18,19,19,20,20,26,26,27,27,29,29,30,30,31,31,32,32,33,33,34,34,35,35,36,36,39,39,43,43,45,45,46,46,47,47,48,48,49,49,50,50,53,53,56,56,57,57,58,58,63,63,64,64,65,65,66,66,69,69,71,71,76,76,77,77,78,78,80,80,84,84,91,91,94,94,95,95,102,102,107,107],"right_children":[2,4,6,8,-1,10,12,14,-1,16,-1,18,20,22,-1,24,26,28,30,32,34,-1,-1,-1,-1,-1,36,38,-1,40,42,44,46,48,50,52,54,-1,-1,56,-1,-1,-1,58,-1,60,62,64,66,68,70,-1,-1,72,-1,-1,74,76,78,-1,-1,-1,-1,80,82,84,86,-1,-1,88,-1,90,-1,-1,-1,-1,92,94,96,-1,98,-1,-1,-1,100,-1,-1,-1,-1,-1,-1,102,-1,-1,104,106,-1,-1,-1,-1,-1,-1,108,-1,-1,-1,-1,110,-1,-1,-1],"split_conditions":[-1.5939443E0,-4.774529E-1,-1.5926343E0,-4.776893E-1,3.1066163E0,-4.760684E-1,-1.606841E0,-4.777906E-1,7.3908165E-2,1.0272677E0,3.371421E0,-4.8286885E-1,-5.519506E-1,-1.4318752E0,-1.24204904E-1,-4.778919E-1,-4.765074E-1,-3.75235E-1,1.6174536E0,9.584649E-1,2.3147955E0,1.03466004E-1,-9.3200676E-2,-1.14075996E-1,2.164728E0,-1.764185E-1,-4.7627103E-1,-4.0444434E-1,-8.9867346E-2,-8.2400566E-1,-4.3037924E-1,-5.544568E-1,-4.7589958E-1,7.544726E-1,1.8797313E0,-1.1479865E0,-1.1479865E0,4.7558257E-1,1.1023535E0,-4.1258243E-1,-1.7007092E-1,1.2710653E-1,1.2635553E-2,1.4689415E0,1.5597382E-1,-1.0568367E0,-4.7289422E-1,7.468768E-1,5.383699E-1,-1.0346336E0,1.9363941E0,-8.9867346E-2,1.3513166E0,1.1199017E0,-1.3480102E-1,-1.15363516E-1,-4.0478203E-1,1.3814194E0,-4.3277675E-1,-1.6683054E-1,3.4244658E-4,9.761427E-1,-9.050294E-2,7.000676E-1,4.160579E-1,4.082261E-1,1.1840357E0,-4.565414E-2,6.354186E-2,2.3276398E0,-1.5976417E-1,-1.5936168E0,6.5909475E-1,8.333695E-3,-3.891349E-4,-1.7703706E-1,-2.4536106E-1,7.57136E-1,7.345389E-1,-1.8122935E-1,2.5828674E0,-1.4543244E-1,-4.9172246E-1,-1.1048304E-1,5.33785E-1,-1.6060176E-1,-4.6405856E-2,1.1477423E-2,-8.9867346E-2,-8.9867346E-2,1.0195186E-1,-4.844716E-1,-1.5984294E-1,-1.5901445E-1,-4.3449894E-1,-5.572762E-1,1.1093248E-1,1.5197254E-2,-9.761625E-2,2.0890761E-2,-1.7795921E-3,1.1609728E-1,-5.5570984E-1,6.4383715E-2,-8.9430675E-2,-7.237691E-3,-4.4917405E-2,1.1755147E0,-9.225437E-2,-6.0948342E-2,-1.6818454E-2],"split_indices":[2,0,2,0,0,0,7,0,0,7,0,6,1,4,0,0,0,0,1,7,1,0,0,0,0,0,0,0,0,2,0,1,0,3,0,3,3,0,0,0,0,0,0,6,0,3,0,3,2,3,0,0,0,7,0,0,0,3,0,0,0,0,0,6,1,1,4,0,0,1,0,2,0,0,0,0,0,2,2,0,6,0,0,0,2,0,0,0,0,0,0,7,0,0,0,1,0,0,0,0,0,0,1,0,0,0,0,4,0,0,0],"split_type":[0,0,0,0,0,0,0,0,0,0,0,0,0,0,0,0,0,0,0,0,0,0,0,0,0,0,0,0,0,0,0,0,0,0,0,0,0,0,0,0,0,0,0,0,0,0,0,0,0,0,0,0,0,0,0,0,0,0,0,0,0,0,0,0,0,0,0,0,0,0,0,0,0,0,0,0,0,0,0,0,0,0,0,0,0,0,0,0,0,0,0,0,0,0,0,0,0,0,0,0,0,0,0,0,0,0,0,0,0,0,0],"sum_hessian":[4.95E2,1.4E1,4.81E2,5E0,9E0,4.4E1,4.37E2,4E0,1E0,4.3E1,1E0,4.9E1,3.88E2,2E0,2E0,5E0,3.8E1,2E1,2.9E1,1.32E2,2.56E2,1E0,1E0,2E0,3E0,2.9E1,9E0,1.9E1,1E0,2.6E1,3E0,1.16E2,1.6E1,2.43E2,1.3E1,3E0,6E0,8E0,1.1E1,4E0,2.2E1,1E0,2E0,1.14E2,2E0,1.3E1,3E0,1.36E2,1.07E2,3E0,1E1,1E0,2E0,3E0,3E0,2E0,2E0,9.6E1,1.8E1,1.2E1,1E0,2E0,1E0,1.31E2,5E0,6E0,1.01E2,1E0,2E0,2E0,8E0,2E0,1E0,1E0,1E0,7.2E1,2.4E1,1.2E1,6E0,1.25E2,6E0,4E0,1E0,2E0,4E0,1E2,1E0,1E0,1E0,1E0,1E0,1.3E1,1.1E1,9E0,3E0,3E0,3E0,2E0,4E0,3E0,1E0,1E0,1.2E1,2E0,1E0,1E0,2E0,7E0,5E0,1E0,6E0],"tree_param":{"num_deleted":"0","num_feature":"8","num_nodes":"111","size_leaf_vector":"1"}},{"base_weights":[2.0967674E-2,5.0051775E0,-1.3418609E-1,-8.610936E-2,7.559432E0,1.4475472E0,-2.0937903E-1,-1.8709382E-1,6.282194E-2,3.7577188E0,9.467621E0,6.0672957E-1,2.8657076E0,6.513614E-1,-3.1332964E-1,1.9390047E-2,-9.936393E-2,3.706563E0,-1.4804562E0,1.115295E0,3.4239585E0,1.6386998E0,9.0832815E-2,1.9962769E0,-3.1179148E-1,3.7087077E-1,-3.5473704E-1,8.7946095E-2,-7.922058E-2,-7.469716E-1,2.3218368E-1,-1.2595715E-1,1.706874E0,2.1215532E0,-7.638724E-2,-3.7685552E-1,2.0533869E-1,1.1444188E0,-1.1560404E-1,-2.7163205E-1,-3.963644E-1,-9.092241E-2,9.443595E-1,3.4876055E-1,2.6640205E0,-1.2211343E-1,-1.6261403E-1,1.0804055E-1,1.0108447E-2,9.4819516E-1,-1.2140442E-1,-3.264781E-1,1.218162E-1,-5.266681E-1,-3.8611138E-1,2.7983358E0,1.7798302E-1,1.5006403E-2,-8.580894E-2,7.65271E-1,-9.0207726E-2,-3.430063E-1,1.2477906E-1,-3.7324402E-1,1.824073E0,-3.4917727E-1,-4.783545E-1,-2.630186E-1,-3.930866E-1,8.7845194E-1,2.2499473E-1,7.0836428E-3,-3.3076108E-4,-9.385582E-2,8.665908E-2,-3.7631914E-1,-1.6595438E-1,-1.20631315E-1,2.9108228E-4,7.809142E-1,-7.69275E-2,-1.14470236E-1,1.5642822E-2,-1.1219629E-1,-1.3515519E-1,-3.41982E-1,-4.0980586E-1,-4.1844955E-1,-2.399308E-1,-2.9700422E-1,6.77459E-2,-2.3217264E-1,1.3627058E-1,-1.1523352E-1,-1.1173415E-1,-9.6575475E-1,-3.936488E-1,-1.2731501E-1,-1.4051083E-1,-9.734461E-2,-1.15886144E-1,-1.1608053E-1,2.0739734E-3,-3.1674616E-2,1.1455343E-1,-6.2371553E-3,-7.918137E-2,5.1565953E-2,9.755812E-3,5.935537E-3,-7.623747E-2,-1.076592E-1,-4.1796407E-1,-1.1933618E-1,-2.1906175E-1,-3.8756581E-4,-6.284231E-2,9.868269E-2,-1.5543915E-1,5.1506966E-2,-7.601607E-2,-7.6470815E-2,3.5565387E-2,6.27019E-2,-5.0199404E-2,-6.2231054E-3,-7.637299E-2,-2.3883516E-2,-6.919077E-2,-3.5933923E-2,-7.461424E-3,2.9331371E-2,6.2173293E-3],"categories":[],"categories_nodes":[],"categories_segments":[],"categories_sizes":[],"default_left":[0,0,0,0,0,0,0,0,0,0,0,0,0,0,0,0,0,0,0,0,0,0,0,0,0,0,0,0,0,0,0,0,0,0,0,0,0,0,0,0,0,0,0,0,0,0,0,0,0,0,0,0,0,0,0,0,0,0,0,0,0,0,0,0,0,0,0,0,0,0,0,0,0,0,0,0,0,0,0,0,0,0,0,0,0,0,0,0,0,0,0,0,0,0,0,0,0,0,0,0,0,0,0,0,0,0,0,0,0,0,0,0,0,0,0,0,0,0,0,0,0,0,0,0,0,0,0,0,0,0,0,0,0],"id":1,"left_children":[1,3,5,7,9,11,13,15,-1,17,19,21,-1,23,25,27,-1,-1,29,-1,-1,-1,31,33,35,37,39,-1,-1,-1,-1,-1,41,43,-1,45,47,-1,49,51,53,-1,-1,-1,55,-1,57,-1,-1,59,-1,61,63,65,67,69,-1,71,-1,-1,73,75,-1,77,79,81,-1,83,85,-1,-1,-1,-1,-1,-1,87,89,-1,-1,-1,-1,-1,-1,-1,91,93,95,97,99,101,103,105,107,-1,109,111,113,-1,115,117,-1,-1,119,121,-1,-1,-1,-1,-1,123,-1,-1,-1,-1,125,-1,-1,-1,127,-1,-1,129,-1,131,-1,-1,-1,-1,-1,-1,-1,-1,-1],"loss_changes":[3.8423782E2,1.9571759E2,5.7629845E1,2.1823367E-1,3.6967224E1,1.44127E2,4.1451824E1,1.5521377E-1,0E0,2.4346715E2,2.469165E1,5.2108624E1,0E0,6.539039E1,1.1803917E1,3.102146E-1,0E0,0E0,1.1029866E1,0E0,0E0,0E0,1.7222563E1,6.461876E0,1.086781E0,4.064941E1,1.2380562E0,0E0,0E0,0E0,0E0,0E0,1.5435625E1,7.307701E0,0E0,1.0843873E-1,9.414476E-2,0E0,7.149162E0,2.9097881E0,1.400032E-1,0E0,0E0,0E0,1.6774063E0,0E0,1.1389808E-1,0E0,0E0,8.551395E0,0E0,1.5783377E0,1.5007057E1,2.4757595E0,1.0438919E-1,7.29393E-1,0E0,4.4192123E-4,0E0,0E0,4.2796507E-1,6.158304E-1,0E0,1.5158951E-1,7.1501045E0,2.1487844E-1,0E0,1.7647576E-1,5.381012E-2,0E0,0E0,0E0,0E0,0E0,0E0,4.5122623E-1,6.326486E-1,0E0,0E0,0E0,0E0,0E0,0E0,0E0,2.6863563E-1,5.5849886E-1,1.1109276E0,5.9114456E-2,4.8410666E-1,3.5045516E-1,2.6191777E-1,4.1514903E-2,5.495943E-3,0E0,1.8581417E-1,5.37709E-1,3.0630112E-2,0E0,2.8532472E-2,3.9783973E-1,0E0,0E0,2.1682487E-1,5.6172557E-2,0E0,0E0,0E0,0E0,0E0,7.934211E-2,0E0,0E0,0E0,0E0,3.6978602E-2,0E0,0E0,0E0,5.5764377E-2,0E0,0E0,1.0429196E-2,0E0,6.8064798E-3,0E0,0E0,0E0,0E0,0E0,0E0,0E0,0E0,0E0],"parents":[2147483647,0,0,1,1,2,2,3,3,4,4,5,5,6,6,7,7,9,9,10,10,11,11,13,13,14,14,15,15,18,18,22,22,23,23,24,24,25,25,26,26,32,32,33,33,35,35,36,36,38,38,39,39,40,40,44,44,46,46,49,49,51,51,52,52,53,53,54,54,55,55,57,57,60,60,61,61,63,63,64,64,65,65,67,67,68,68,75,75,76,76,84,84,85,85,86,86,87,87,88,88,89,89,90,90,91,91,92,92,94,94,95,95,96,96,98,98,99,99,102,102,103,103,109,109,114,114,118,118,121,121,123,123],"right_children":[2,4,6,8,10,12,14,16,-1,18,20,22,-1,24,26,28,-1,-1,30,-1,-1,-1,32,34,36,38,40,-1,-1,-1,-1,-1,42,44,-1,46,48,-1,50,52,54,-1,-1,-1,56,-1,58,-1,-1,60,-1,62,64,66,68,70,-1,72,-1,-1,74,76,-1,78,80,82,-1,84,86,-1,-1,-1,-1,-1,-1,88,90,-1,-1,-1,-1,-1,-1,-1,92,94,96,98,100,102,104,106,108,-1,110,112,114,-1,116,118,-1,-1,120,122,-1,-1,-1,-1,-1,124,-1,-1,-1,-1,126,-1,-1,-1,128,-1,-1,130,-1,132,-1,-1,-1,-1,-1,-1,-1,-1,-1],"split_conditions":[-1.5939443E0,-4.774529E-1,-1.5932894E0,-4.776893E-1,-4.7616974E-1,-4.760684E-1,-1.606841E0,-4.777906E-1,6.282194E-2,1.0853081E0,1.0876143E0,1.000746E0,2.8657076E0,-4.8286885E-1,-1.5926343E0,-1.4318752E0,-9.936393E-2,3.706563E0,-4.7637233E-1,1.115295E0,3.4239585E0,1.6386998E0,1.1410421E0,-3.75235E-1,1.6174536E0,1.0272677E0,-5.519506E-1,8.7946095E-2,-7.922058E-2,-7.469716E-1,2.3218368E-1,-1.2595715E-1,-4.7762176E-1,-4.0444434E-1,-7.638724E-2,-4.1258243E-1,-4.3037924E-1,1.1444188E0,1.0856924E0,9.584649E-1,-1.2501979E0,-9.092241E-2,9.443595E-1,3.4876055E-1,-3.465192E-1,-1.2211343E-1,-4.0461424E-1,1.0804055E-1,1.0108447E-2,-1.4340055E0,-1.2140442E-1,-5.544568E-1,-4.7589958E-1,1.6182603E0,-5.6397533E-1,-3.7526554E-1,1.7798302E-1,-4.0478203E-1,-8.580894E-2,7.65271E-1,-4.762035E-1,1.4424525E0,1.2477906E-1,-1.0568367E0,-4.7289422E-1,1.2997212E0,-4.783545E-1,-1.0340493E0,-4.1238087E-1,8.7845194E-1,2.2499473E-1,7.0836428E-3,-3.3076108E-4,-9.385582E-2,8.665908E-2,1.3814194E0,-4.3277675E-1,-1.20631315E-1,2.9108228E-4,7.809142E-1,-7.69275E-2,-1.14470236E-1,1.5642822E-2,-1.1219629E-1,1.8789536E0,4.082261E-1,-4.117393E-1,-5.550833E-1,-2.4536106E-1,7.57136E-1,1.5539846E0,3.95382E-1,1.8797313E0,-1.1523352E-1,-4.1937086E-1,4.126119E-1,1.177645E0,-1.2731501E-1,-2.4478701E-1,-4.844716E-1,-1.15886144E-1,-1.1608053E-1,-4.3449894E-1,-5.550833E-1,1.1455343E-1,-6.2371553E-3,-7.918137E-2,5.1565953E-2,9.755812E-3,2.6191154E0,-7.623747E-2,-1.076592E-1,-4.1796407E-1,-1.1933618E-1,1.2333125E0,-3.8756581E-4,-6.284231E-2,9.868269E-2,-5.5570984E-1,5.1506966E-2,-7.601607E-2,-7.8236073E-1,3.5565387E-2,-4.2085665E-1,-5.0199404E-2,-6.2231054E-3,-7.637299E-2,-2.3883516E-2,-6.919077E-2,-3.5933923E-2,-7.461424E-3,2.9331371E-2,6.2173293E-3],"split_indices":[2,0,2,0,0,0,7,0,0,7,7,7,0,6,2,4,0,0,0,0,0,0,7,0,1,7,1,0,0,0,0,0,0,0,0,0,0,0,7,7,4,0,0,0,2,0,0,0,0,4,0,1,0,0,2,1,0,0,0,0,0,6,0,3,0,0,0,3,0,0,0,0,0,0,0,3,0,0,0,0,0,0,0,0,0,1,0,1,0,2,6,1,0,0,0,1,4,0,0,7,0,0,0,1,0,0,0,0,0,6,0,0,0,0,2,0,0,0,1,0,0,7,0,0,0,0,0,0,0,0,0,0,0],"split_type":[0,0,0,0,0,0,0,0,0,0,0,0,0,0,0,0,0,0,0,0,0,0,0,0,0,0,0,0,0,0,0,0,0,0,0,0,0,0,0,0,0,0,0,0,0,0,0,0,0,0,0,0,0,0,0,0,0,0,0,0,0,0,0,0,0,0,0,0,0,0,0,0,0,0,0,0,0,0,0,0,0,0,0,0,0,0,0,0,0,0,0,0,0,0,0,0,0,0,0,0,0,0,0,0,0,0,0,0,0,0,0,0,0,0,0,0,0,0,0,0,0,0,0,0,0,0,0,0,0,0,0,0,0],"sum_hessian":[4.95E2,1.4E1,4.81E2,5E0,9E0,2.1E1,4.6E2,4E0,1E0,4E0,5E0,2E1,1E0,4.9E1,4.11E2,2E0,2E0,1E0,3E0,2E0,3E0,1E0,1.9E1,2E1,2.9E1,2.3E1,3.88E2,1E0,1E0,2E0,1E0,1.5E1,4E0,1.9E1,1E0,2.6E1,3E0,2E0,2.1E1,1.32E2,2.56E2,2E0,2E0,8E0,1.1E1,2.2E1,4E0,1E0,2E0,4E0,1.7E1,1.16E2,1.6E1,1.5E1,2.41E2,1E1,1E0,2E0,2E0,1E0,3E0,1.14E2,2E0,1.3E1,3E0,1.4E1,1E0,1.5E1,2.26E2,9E0,1E0,1E0,1E0,2E0,1E0,9.5E1,1.9E1,1.2E1,1E0,2E0,1E0,1.3E1,1E0,7E0,8E0,6.1E1,1.65E2,7.1E1,2.4E1,1.2E1,7E0,6E0,2E0,5.1E1,1E1,3E0,1.62E2,6.9E1,2E0,1.3E1,1.1E1,9E0,3E0,6E0,1E0,1E0,5E0,1E0,1E0,6E0,4E0,2E0,1E0,1.57E2,5E0,1E0,1E0,1E0,1.2E1,2E0,1E0,5E0,1E0,5E0,1E0,1E0,4E0,7E0,5E0,2E0,3E0,2E0,3E0],"tree_param":{"num_deleted":"0","num_feature":"8","num_nodes":"133","size_leaf_vector":"1"}},{"base_weights":[4.4745024E-2,4.017172E0,-7.897105E-2,-6.4912625E-2,6.0647054E0,1.2510961E0,-1.4227366E-1,-1.4909336E-1,5.3398654E-2,2.8116372E0,4.066335E0,5.3738594E-1,2.4358516E0,4.853686E-1,-2.1809852E-1,1.648154E-2,-7.949114E-2,-1.1650164E0,7.4381495E0,1.3928947E0,9.995697E-2,1.4713844E0,-2.2102138E-1,3.3382156E-1,-2.5158948E-1,7.475418E-2,-6.733748E-2,-5.9757733E-1,1.9735612E-1,2.7147684E-1,2.6535678E0,-1.455382E-1,7.146548E-1,1.5665966E0,-6.492916E-2,-2.7124956E-1,1.7327431E-1,9.1553503E-1,-5.19833E-2,-1.0389997E-1,-2.6589805E-1,-9.127845E-2,8.024064E-1,2.5575772E-1,1.9716002E0,-1.2808298E-1,-8.717379E-2,9.1834456E-2,8.086753E-3,8.153514E-1,-8.70065E-2,-9.05974E-2,1.1846645E0,-3.0408517E-1,-2.2813831E-1,4.1857654E-1,-5.749367E-2,2.4070177E0,3.4050387E-1,-6.786812E-2,1.2755434E-2,6.5048033E-1,-6.494458E-2,-1.07996784E-1,6.2473136E-1,-2.9047757E-1,-6.34417E-1,-5.4070994E-2,-2.4929433E-1,7.758838E-1,1.9971743E-1,6.0210945E-3,-2.8114917E-4,-7.508464E-2,7.3660225E-2,2.474159E-4,-4.884597E-2,-2.9658943E-1,-1.0753531E-1,-8.628234E-2,-3.5526946E-1,-1.9601095E-1,1.5696126E-1,-5.3944945E-2,-2.5646198E-1,-4.3763378E-1,-2.802904E-1,3.3239286E-2,-5.1147904E-2,3.923428E-2,-2.3414202E-1,-3.9119523E-2,4.1184214E-1,-6.609716E-2,5.6671403E-2,-2.717434E-1,-1.8607742E-1,-8.25821E-2,-4.0660134E-1,-2.8880936E-1,-1.7812258E-1,1.6612798E-3,1.3296399E-2,2.257407E-2,-2.6910892E-1,3.023058E-2,-8.7250866E-2,2.956491E-2,1.4502692E-1,2.5962247E-2,7.911523E-3,-2.7487686E-1,-1.0745287E-1,-8.007475E-2,-8.059904E-2,-8.7767236E-2,-1.59466E-1,1.0739862E-1,-2.657555E-1,-8.79409E-2,-4.3252185E-3,-3.4804307E-2,-4.4555567E-2,6.0054306E-3,-2.445245E-3,-8.3093114E-2,-9.854514E-2,3.262704E-2,-6.4732514E-2,-1.2573735E-1,8.3880275E-2,-5.301583E-3,-5.5287126E-2,-2.1976577E-2,5.7610504E-2,-3.4176905E-2,-8.605139E-2,-2.921888E-2,2.2945736E-2,-1.3078452E-4,-4.421453E-2,-7.3013413E-3,-4.9159024E-2],"categories":[],"categories_nodes":[],"categories_segments":[],"categories_sizes":[],"default_left":[0,0,0,0,0,0,0,0,0,0,0,0,0,0,0,0,0,0,0,0,0,0,0,0,0,0,0,0,0,0,0,0,0,0,0,0,0,0,0,0,0,0,0,0,0,0,0,0,0,0,0,0,0,0,0,0,0,0,0,0,0,0,0,0,0,0,0,0,0,0,0,0,0,0,0,0,0,0,0,0,0,0,0,0,0,0,0,0,0,0,0,0,0,0,0,0,0,0,0,0,0,0,0,0,0,0,0,0,0,0,0,0,0,0,0,0,0,0,0,0,0,0,0,0,0,0,0,0,0,0,0,0,0,0,0,0,0,0,0,0,0,0,0],"id":2,"left_children":[1,3,5,7,9,11,13,15,-1,-1,17,19,-1,21,23,25,-1,27,29,-1,31,33,35,37,39,-1,-1,-1,-1,-1,-1,41,-1,43,-1,45,47,-1,49,51,53,-1,55,-1,57,59,-1,-1,-1,61,-1,-1,63,65,67,-1,-1,69,-1,-1,71,-1,73,75,-1,77,79,81,83,-1,-1,-1,-1,-1,-1,-1,-1,85,87,-1,-1,89,91,93,95,97,99,101,-1,-1,103,105,107,-1,109,111,113,-1,-1,115,117,-1,-1,-1,119,-1,121,-1,-1,-1,123,125,127,129,-1,-1,131,133,135,-1,-1,137,-1,-1,-1,-1,139,-1,-1,141,-1,-1,-1,-1,-1,-1,-1,-1,-1,-1,-1,-1,-1],"loss_changes":[2.4407793E2,1.25766754E2,4.076082E1,1.4922704E-1,2.7984253E1,1.03481865E2,2.2045258E1,1.0029882E-1,0E0,0E0,1.4977873E2,3.7249947E1,0E0,3.5150787E1,7.6995296E0,2.2413003E-1,0E0,7.339778E0,3.7959473E1,0E0,1.1552205E1,3.7137756E0,6.411433E-1,2.5325111E1,7.9442024E-1,0E0,0E0,0E0,0E0,0E0,0E0,3.1028974E0,0E0,4.1031837E0,0E0,3.7500978E-2,6.9496505E-2,0E0,4.7785664E0,9.546883E0,4.4107056E-1,0E0,2.0353618E0,0E0,1.6391869E0,7.19979E-2,0E0,0E0,0E0,6.0956516E0,0E0,0E0,6.02748E0,5.9335613E-1,6.567488E-1,0E0,0E0,4.632759E-1,0E0,0E0,3.1928835E-4,0E0,2.9162624E-1,1.8032078E-2,0E0,1.559496E-1,8.0349016E-1,6.597982E-1,2.1299648E-1,0E0,0E0,0E0,0E0,0E0,0E0,0E0,0E0,2.4975395E-1,6.770698E-2,0E0,0E0,1.9261333E-1,4.6590626E-1,1.4131568E-1,1.1722374E-1,1.8618891E0,7.736969E-2,6.755402E-4,0E0,0E0,1.5007001E-1,4.9190164E-2,4.2061806E-2,0E0,6.597476E-3,3.532982E-2,2.4987149E-1,0E0,0E0,1.879406E-2,3.788367E-1,0E0,0E0,0E0,6.308907E-2,0E0,1.0897309E-2,0E0,0E0,0E0,7.4654375E-4,1.825428E-2,1.1714819E-1,2.8151226E-1,0E0,0E0,1.786296E-2,7.5227134E-2,2.533555E-3,0E0,0E0,3.5312887E-2,0E0,0E0,0E0,0E0,1.4309714E-2,0E0,0E0,5.013542E-2,0E0,0E0,0E0,0E0,0E0,0E0,0E0,0E0,0E0,0E0,0E0,0E0,0E0],"parents":[2147483647,0,0,1,1,2,2,3,3,4,4,5,5,6,6,7,7,10,10,11,11,13,13,14,14,15,15,17,17,18,18,20,20,21,21,22,22,23,23,24,24,31,31,33,33,35,35,36,36,38,38,39,39,40,40,42,42,44,44,45,45,49,49,52,52,53,53,54,54,57,57,60,60,62,62,63,63,65,65,66,66,67,67,68,68,77,77,78,78,81,81,82,82,83,83,84,84,85,85,86,86,87,87,90,90,91,91,92,92,94,94,95,95,96,96,99,99,100,100,104,104,106,106,110,110,111,111,112,112,113,113,116,116,117,117,118,118,121,121,126,126,129,129],"right_children":[2,4,6,8,10,12,14,16,-1,-1,18,20,-1,22,24,26,-1,28,30,-1,32,34,36,38,40,-1,-1,-1,-1,-1,-1,42,-1,44,-1,46,48,-1,50,52,54,-1,56,-1,58,60,-1,-1,-1,62,-1,-1,64,66,68,-1,-1,70,-1,-1,72,-1,74,76,-1,78,80,82,84,-1,-1,-1,-1,-1,-1,-1,-1,86,88,-1,-1,90,92,94,96,98,100,102,-1,-1,104,106,108,-1,110,112,114,-1,-1,116,118,-1,-1,-1,120,-1,122,-1,-1,-1,124,126,128,130,-1,-1,132,134,136,-1,-1,138,-1,-1,-1,-1,140,-1,-1,142,-1,-1,-1,-1,-1,-1,-1,-1,-1,-1,-1,-1,-1],"split_conditions":[-1.5939443E0,-4.774529E-1,-1.5932894E0,-4.776893E-1,1.0853081E0,-4.760684E-1,-1.606841E0,-4.777906E-1,5.3398654E-2,2.8116372E0,-4.7616974E-1,1.000746E0,2.4358516E0,-4.8286885E-1,-1.5926343E0,-1.4318752E0,-7.949114E-2,-4.7637233E-1,1.0876143E0,1.3928947E0,1.1879356E0,-3.75235E-1,1.6174536E0,1.0272677E0,-1.1773719E0,7.475418E-2,-6.733748E-2,-5.9757733E-1,1.9735612E-1,2.7147684E-1,2.6535678E0,-4.7627103E-1,7.146548E-1,-4.0444434E-1,-6.492916E-2,-8.2400566E-1,-4.3037924E-1,9.1553503E-1,1.0856924E0,-1.0574211E0,7.544726E-1,-9.127845E-2,-1.431571E0,2.5575772E-1,-3.7839824E-1,-4.1258243E-1,-8.717379E-2,9.1834456E-2,8.086753E-3,-1.4340055E0,-8.70065E-2,-9.05974E-2,-4.7589958E-1,7.468768E-1,-6.632051E-1,4.1857654E-1,-5.749367E-2,-3.7685585E-1,3.4050387E-1,-6.786812E-2,-4.0478203E-1,6.5048033E-1,-4.762035E-1,-5.6667435E-1,6.2473136E-1,7.000676E-1,4.160579E-1,-4.247062E-1,5.383699E-1,7.758838E-1,1.9971743E-1,6.0210945E-3,-2.8114917E-4,-7.508464E-2,7.3660225E-2,2.474159E-4,-4.884597E-2,-1.2501979E0,2.5828674E0,-8.628234E-2,-3.5526946E-1,-5.575895E-1,1.5539846E0,4.082261E-1,1.3840487E0,1.2997212E0,2.3147955E0,-4.2031637E-1,-5.1147904E-2,3.923428E-2,1.5142514E0,-4.2389578E-1,-4.2389578E-1,-6.609716E-2,4.1104555E-1,1.0513722E0,-2.4667907E-1,-8.25821E-2,-4.0660134E-1,6.9170266E-1,1.8797313E0,1.6612798E-3,1.3296399E-2,2.257407E-2,-4.3277675E-1,3.023058E-2,-4.2102548E-1,2.956491E-2,1.4502692E-1,2.5962247E-2,-4.2085665E-1,1.1943824E0,-3.6415908E-1,1.1925565E0,-8.059904E-2,-8.7767236E-2,3.95382E-1,-1.0346336E0,1.9363941E0,-8.79409E-2,-4.3252185E-3,-4.2362562E-1,-4.4555567E-2,6.0054306E-3,-2.445245E-3,-8.3093114E-2,-2.5268978E-1,3.262704E-2,-6.4732514E-2,1.2365874E0,8.3880275E-2,-5.301583E-3,-5.5287126E-2,-2.1976577E-2,5.7610504E-2,-3.4176905E-2,-8.605139E-2,-2.921888E-2,2.2945736E-2,-1.3078452E-4,-4.421453E-2,-7.3013413E-3,-4.9159024E-2],"split_indices":[2,0,2,0,7,0,7,0,0,0,0,7,0,6,2,4,0,0,7,0,7,0,1,7,2,0,0,0,0,0,0,0,0,0,0,2,0,0,7,3,3,0,4,0,1,0,0,0,0,4,0,0,0,3,7,0,0,0,0,0,0,0,0,1,0,6,1,0,2,0,0,0,0,0,0,0,0,4,6,0,0,1,6,1,3,0,1,0,0,0,6,0,0,0,1,1,0,0,0,6,0,0,0,0,0,0,0,0,0,0,0,4,0,4,0,0,1,3,0,0,0,0,0,0,0,0,0,0,0,2,0,0,0,0,0,0,0,0,0,0,0,0,0],"split_type":[0,0,0,0,0,0,0,0,0,0,0,0,0,0,0,0,0,0,0,0,0,0,0,0,0,0,0,0,0,0,0,0,0,0,0,0,0,0,0,0,0,0,0,0,0,0,0,0,0,0,0,0,0,0,0,0,0,0,0,0,0,0,0,0,0,0,0,0,0,0,0,0,0,0,0,0,0,0,0,0,0,0,0,0,0,0,0,0,0,0,0,0,0,0,0,0,0,0,0,0,0,0,0,0,0,0,0,0,0,0,0,0,0,0,0,0,0,0,0,0,0,0,0,0,0,0,0,0,0,0,0,0,0,0,0,0,0,0,0,0,0,0,0],"sum_hessian":[4.95E2,1.4E1,4.81E2,5E0,9E0,2.1E1,4.6E2,4E0,1E0,2E0,7E0,2E1,1E0,4.9E1,4.11E2,2E0,2E0,3E0,4E0,1E0,1.9E1,2E1,2.9E1,2.3E1,3.88E2,1E0,1E0,2E0,1E0,1E0,3E0,1.8E1,1E0,1.9E1,1E0,2.6E1,3E0,2E0,2.1E1,3.5E1,3.53E2,1.6E1,2E0,8E0,1.1E1,4E0,2.2E1,1E0,2E0,4E0,1.7E1,3.1E1,4E0,1.72E2,1.81E2,1E0,1E0,6E0,5E0,2E0,2E0,1E0,3E0,2E0,2E0,1.67E2,5E0,2E1,1.61E2,5E0,1E0,1E0,1E0,2E0,1E0,1E0,1E0,1.61E2,6E0,4E0,1E0,1.2E1,8E0,6E0,1.55E2,1.4E1,1.47E2,2E0,4E0,1E0,1.1E1,5E0,3E0,2E0,4E0,1.25E2,3E1,1.3E1,1E0,1.34E2,1.3E1,1E0,1E0,1E0,1E1,1E0,4E0,1E0,2E0,2E0,2E0,1.22E2,3E0,1.4E1,1.6E1,1.29E2,5E0,3E0,1E1,9E0,1E0,3E0,1E0,1E0,1E0,1.2E2,2E0,1E0,2E0,1.3E1,1E0,1E0,4E0,1E0,2E0,2E0,8E0,2E0,1E0,1E0,1E0,4E0,9E0],"tree_param":{"num_deleted":"0","num_feature":"8","num_nodes":"143","size_leaf_vector":"1"}},{"base_weights":[5.597076E-2,3.1665392E0,-4.0947285E-2,-4.8551474E-2,4.7789397E0,1.0945493E0,-9.504702E-2,-1.1878024E-1,4.538885E-2,7.497699E0,3.1620374E0,4.8937747E-1,2.0704737E0,3.6890906E-1,-1.5112168E-1,1.4009307E-2,-6.359291E-2,2.728833E0,6.4513165E-1,-9.155667E-1,5.791713E0,1.1839606E0,1.1919284E-1,1.1017277E0,-1.5636098E-1,2.9524115E-1,-1.7827228E-1,6.3541055E-2,-5.723686E-2,-4.7806183E-1,1.6775273E-1,2.3075531E-1,2.0565147E0,-8.76765E-2,6.0745656E-1,1.1752107E0,-5.5189785E-2,-1.9540441E-1,1.4627233E-1,7.324281E-1,-1.0840591E-2,-5.924289E-2,-1.8987337E-1,-6.5505706E-2,6.820454E-1,1.688776E-1,1.4616009E0,-6.2560715E-2,-9.591951E-2,7.805929E-2,6.4694053E-3,8.125871E-1,-1.8362322E-1,-6.426753E-2,9.4449174E-1,-2.1979532E-1,-1.6038781E-1,3.5579008E-1,-4.8869617E-2,5.2099705E-1,2.553779E-1,1.0842125E-2,-5.1212396E-2,-4.3570712E-2,5.5290836E-1,6.2611185E-2,-6.510416E-2,-9.179726E-2,4.9978507E-1,-2.0784813E-1,-5.1768386E-1,-3.1967036E-2,-1.7604491E-1,5.1179323E-3,-2.3897589E-4,2.1030307E-4,-4.1519072E-2,-3.1306198E-1,-1.9548689E-1,-6.557458E-2,-3.0197906E-1,-1.3955057E-1,1.2698328E-1,-6.0634196E-2,-1.832388E-1,-1.8032785E-1,-3.4561113E-1,-1.9855627E-1,-6.492185E-2,3.334914E-2,-1.6970707E-1,-3.0816695E-2,3.3193743E-1,3.1507347E-4,-6.698119E-2,-1.9476426E-1,-1.3196965E-1,-5.9577085E-2,1.1301935E-2,-6.122358E-2,-1.3072826E-1,1.4120848E-3,-2.5051737E-2,1.918796E-2,-1.9676405E-1,-8.7968364E-2,5.5657763E-2,2.5130171E-2,1.1602153E-1,-3.7705842E-2,8.426338E-2,-5.9062857E-2,-8.324337E-2,-5.422433E-2,-5.7841666E-2,8.408751E-2,-5.9087615E-2,-6.4196855E-2,-3.676437E-3,-3.3130646E-2,-3.787223E-2,2.5695993E-2,-6.499976E-4,4.5574475E-2,4.165618E-2,2.7732983E-2,-5.1786005E-2,-9.204903E-2,7.1298234E-2,-1.8680088E-2,4.6088398E-2,-3.4412663E-2,1.9503871E-2,1.812966E-2,-2.0784617E-3,-3.7149206E-2,5.508824E-3],"categories":[],"categories_nodes":[],"categories_segments":[],"categories_sizes":[],"default_left":[0,0,0,0,0,0,0,0,0,0,0,0,0,0,0,0,0,0,0,0,0,0,0,0,0,0,0,0,0,0,0,0,0,0,0,0,0,0,0,0,0,0,0,0,0,0,0,0,0,0,0,0,0,0,0,0,0,0,0,0,0,0,0,0,0,0,0,0,0,0,0,0,0,0,0,0,0,0,0,0,0,0,0,0,0,0,0,0,0,0,0,0,0,0,0,0,0,0,0,0,0,0,0,0,0,0,0,0,0,0,0,0,0,0,0,0,0,0,0,0,0,0,0,0,0,0,0,0,0,0,0,0,0,0,0,0,0],"id":3,"left_children":[1,3,5,7,9,11,13,15,-1,17,19,21,-1,23,25,27,-1,-1,-1,29,31,-1,33,35,37,39,41,-1,-1,-1,-1,-1,-1,43,-1,45,-1,47,49,-1,51,53,55,-1,57,-1,59,-1,61,-1,-1,63,65,-1,67,69,71,-1,-1,-1,-1,73,-1,-1,-1,-1,-1,75,-1,77,79,81,83,-1,-1,-1,-1,85,87,-1,-1,89,91,93,95,97,-1,99,101,-1,103,105,107,109,-1,111,113,-1,-1,-1,115,-1,-1,-1,117,119,121,-1,-1,-1,123,-1,125,127,-1,129,-1,-1,-1,131,-1,-1,-1,133,-1,-1,-1,135,-1,-1,-1,-1,-1,-1,-1,-1,-1],"loss_changes":[1.4965889E2,7.799223E1,2.9713326E1,1.0218131E-1,2.0251663E1,7.3936035E1,1.2049208E1,6.484699E-2,0E0,6.080719E0,9.108491E1,2.6405119E1,0E0,1.9418652E1,5.0456696E0,1.6193396E-1,0E0,0E0,0E0,4.8904095E0,2.143039E1,0E0,8.061995E0,2.2002048E0,3.8305748E-1,1.5792261E1,5.259104E-1,0E0,0E0,0E0,0E0,0E0,0E0,2.0600233E0,0E0,2.6842804E0,0E0,1.526916E-2,5.1218353E-2,0E0,3.279238E0,5.8025293E0,2.7707005E-1,0E0,1.4705489E0,0E0,7.0406723E-1,0E0,4.1773535E-2,0E0,0E0,4.2155914E0,2.941925E-1,0E0,3.8911262E0,5.080948E-1,3.6031866E-1,0E0,0E0,0E0,0E0,2.3068584E-4,0E0,0E0,0E0,0E0,0E0,1.30281765E-2,0E0,1.5729666E-1,6.57385E-1,3.7682974E-1,1.233902E-1,0E0,0E0,0E0,0E0,1.5740258E0,4.842472E-2,0E0,0E0,1.1715397E-1,3.0130506E-1,1.0910863E-1,6.411362E-2,6.7199975E-2,0E0,2.913189E-2,6.862944E-3,0E0,8.8452905E-2,3.4549084E-2,2.2003919E-2,1.05789036E-1,0E0,1.2345791E-2,1.361661E-1,0E0,0E0,0E0,2.157446E-1,0E0,0E0,0E0,3.233835E-2,4.212646E-3,5.389006E-3,0E0,0E0,0E0,6.344095E-3,0E0,7.876668E-2,1.8748344E-1,0E0,5.0276186E-2,0E0,0E0,0E0,3.1476688E-2,0E0,0E0,0E0,4.3190364E-3,0E0,0E0,0E0,5.1400825E-2,0E0,0E0,0E0,0E0,0E0,0E0,0E0,0E0,0E0],"parents":[2147483647,0,0,1,1,2,2,3,3,4,4,5,5,6,6,7,7,9,9,10,10,11,11,13,13,14,14,15,15,19,19,20,20,22,22,23,23,24,24,25,25,26,26,33,33,35,35,37,37,38,38,40,40,41,41,42,42,44,44,46,46,48,48,51,51,52,52,54,54,55,55,56,56,61,61,67,67,69,69,70,70,71,71,72,72,77,77,78,78,81,81,82,82,83,83,84,84,85,85,87,87,88,88,90,90,91,91,92,92,93,93,95,95,96,96,100,100,104,104,105,105,106,106,110,110,112,112,113,113,115,115,119,119,123,123,127,127],"right_children":[2,4,6,8,10,12,14,16,-1,18,20,22,-1,24,26,28,-1,-1,-1,30,32,-1,34,36,38,40,42,-1,-1,-1,-1,-1,-1,44,-1,46,-1,48,50,-1,52,54,56,-1,58,-1,60,-1,62,-1,-1,64,66,-1,68,70,72,-1,-1,-1,-1,74,-1,-1,-1,-1,-1,76,-1,78,80,82,84,-1,-1,-1,-1,86,88,-1,-1,90,92,94,96,98,-1,100,102,-1,104,106,108,110,-1,112,114,-1,-1,-1,116,-1,-1,-1,118,120,122,-1,-1,-1,124,-1,126,128,-1,130,-1,-1,-1,132,-1,-1,-1,134,-1,-1,-1,136,-1,-1,-1,-1,-1,-1,-1,-1,-1],"split_conditions":[-1.5939443E0,-4.774529E-1,-1.5932894E0,-4.776893E-1,1.0853081E0,-4.760684E-1,-1.606841E0,-4.777906E-1,4.538885E-2,-4.772503E-1,-4.7616974E-1,1.000746E0,2.0704737E0,-4.8286885E-1,-1.5926343E0,-1.4318752E0,-6.359291E-2,2.728833E0,6.4513165E-1,-4.7637233E-1,1.0876143E0,1.1839606E0,1.1879356E0,-3.75235E-1,1.6174536E0,1.0272677E0,-1.1773719E0,6.3541055E-2,-5.723686E-2,-4.7806183E-1,1.6775273E-1,2.3075531E-1,2.0565147E0,-4.7627103E-1,6.0745656E-1,-4.0481684E-1,-5.5189785E-2,-4.1258243E-1,-4.3037924E-1,7.324281E-1,-1.4340055E0,-1.0574211E0,7.544726E-1,-6.5505706E-2,-1.431571E0,1.688776E-1,-3.7839824E-1,-6.2560715E-2,-4.0461424E-1,7.805929E-2,6.4694053E-3,-1.4352227E0,1.0514832E0,-6.426753E-2,-4.7589958E-1,7.468768E-1,-6.632051E-1,3.5579008E-1,-4.8869617E-2,5.2099705E-1,2.553779E-1,-4.0478203E-1,-5.1212396E-2,-4.3570712E-2,5.5290836E-1,6.2611185E-2,-6.510416E-2,-5.6667435E-1,4.9978507E-1,-1.2501979E0,4.160579E-1,-4.247062E-1,3.623791E-1,5.1179323E-3,-2.3897589E-4,2.1030307E-4,-4.1519072E-2,1.6182603E0,7.2525793E-1,-6.557458E-2,-3.0197906E-1,-5.575895E-1,1.5539846E0,4.160579E-1,1.3840487E0,1.2997212E0,-3.4561113E-1,2.3147955E0,-4.2031637E-1,3.334914E-2,1.5142514E0,1.5435284E0,-4.2389578E-1,4.082261E-1,-6.698119E-2,1.0513722E0,-2.4667907E-1,-5.9577085E-2,1.1301935E-2,-6.122358E-2,1.8797313E0,1.4120848E-3,-2.5051737E-2,1.918796E-2,-4.3277675E-1,-4.2102548E-1,-4.2389578E-1,2.5130171E-2,1.1602153E-1,-3.7705842E-2,5.383699E-1,-5.9062857E-2,-3.6415908E-1,1.1925565E0,-5.7841666E-2,-1.0346336E0,-5.9087615E-2,-6.4196855E-2,-3.676437E-3,-4.2362562E-1,-3.787223E-2,2.5695993E-2,-6.499976E-4,5.33785E-1,4.165618E-2,2.7732983E-2,-5.1786005E-2,1.2509971E0,7.1298234E-2,-1.8680088E-2,4.6088398E-2,-3.4412663E-2,1.9503871E-2,1.812966E-2,-2.0784617E-3,-3.7149206E-2,5.508824E-3],"split_indices":[2,0,2,0,7,0,7,0,0,0,0,7,0,6,2,4,0,0,0,0,7,0,7,0,1,7,2,0,0,0,0,0,0,0,0,0,0,0,0,0,4,3,3,0,4,0,1,0,0,0,0,4,7,0,0,3,7,0,0,0,0,0,0,0,0,0,0,1,0,4,1,0,4,0,0,0,0,0,3,0,0,1,6,1,3,0,0,1,0,0,6,6,0,1,0,1,0,0,0,0,0,0,0,0,0,0,0,0,0,0,2,0,0,4,0,3,0,0,0,0,0,0,0,2,0,0,0,2,0,0,0,0,0,0,0,0,0],"split_type":[0,0,0,0,0,0,0,0,0,0,0,0,0,0,0,0,0,0,0,0,0,0,0,0,0,0,0,0,0,0,0,0,0,0,0,0,0,0,0,0,0,0,0,0,0,0,0,0,0,0,0,0,0,0,0,0,0,0,0,0,0,0,0,0,0,0,0,0,0,0,0,0,0,0,0,0,0,0,0,0,0,0,0,0,0,0,0,0,0,0,0,0,0,0,0,0,0,0,0,0,0,0,0,0,0,0,0,0,0,0,0,0,0,0,0,0,0,0,0,0,0,0,0,0,0,0,0,0,0,0,0,0,0,0,0,0,0],"sum_hessian":[4.95E2,1.4E1,4.81E2,5E0,9E0,2.1E1,4.6E2,4E0,1E0,2E0,7E0,2E1,1E0,4.9E1,4.11E2,2E0,2E0,1E0,1E0,3E0,4E0,1E0,1.9E1,2E1,2.9E1,2.3E1,3.88E2,1E0,1E0,2E0,1E0,1E0,3E0,1.8E1,1E0,1.9E1,1E0,2.6E1,3E0,2E0,2.1E1,3.5E1,3.53E2,1.6E1,2E0,7E0,1.2E1,2.2E1,4E0,1E0,2E0,3E0,1.8E1,3.1E1,4E0,1.72E2,1.81E2,1E0,1E0,7E0,5E0,2E0,2E0,2E0,1E0,1E0,1.7E1,2E0,2E0,1.67E2,5E0,2E1,1.61E2,1E0,1E0,1E0,1E0,1.5E1,1.52E2,4E0,1E0,1.2E1,8E0,1E1,1.51E2,1.4E1,1E0,1.48E2,4E0,1E0,1.1E1,5E0,3E0,8E0,2E0,1.21E2,3E1,1.3E1,1E0,1.35E2,1.3E1,1E0,3E0,1E0,1E1,3E0,2E0,1E0,2E0,3E0,5E0,1.18E2,3E0,1.4E1,1.6E1,3E0,1E1,9E0,1E0,2E0,1E0,1E0,1E0,4E0,1E0,1E0,2E0,1.3E1,1E0,1E0,2E0,1E0,1E0,3E0,1E0,1E1,3E0],"tree_param":{"num_deleted":"0","num_feature":"8","num_nodes":"137","size_leaf_vector":"1"}},{"base_weights":[6.138382E-2,1.6540847E0,-6.312511E-2,8.73695E-1,5.4104176E0,2.755503E-1,-1.0407328E-1,3.1717675E0,3.0976695E-1,2.4206264E0,6.1921823E-1,8.135934E-1,-1.10264875E-1,2.5830516E-1,-1.2616327E-1,7.134439E-1,2.3195078E0,1.0063665E0,5.3793244E-2,8.699101E-1,-4.6911314E-2,-1.408162E-1,1.2352279E-1,1.2681284E0,-4.462626E-2,-3.0519782E-2,-1.3553333E-1,-4.792431E-1,8.226288E-1,-8.7392606E-2,5.1633805E-1,4.3594766E-1,1.1228895E0,-4.6055116E-2,-9.1462076E-2,6.63504E-2,5.1755193E-3,-3.6029834E-2,1.5195163E0,-4.5589775E-2,7.528394E-1,-1.6408494E-1,-1.15173735E-1,8.133724E-3,-2.9120606E-1,-2.2796367E-1,6.7245364E-1,5.6415695E-1,6.6164665E-2,1.377715E0,6.384448E-1,-3.7967198E-2,9.215792E-3,5.321951E-2,1.7524602E0,-7.8027666E-2,3.9982802E-1,-1.5178923E-1,-4.2363763E-1,-1.7706428E-2,-1.2534025E-1,-3.4920346E-2,3.8580522E-2,-1.4092678E-1,-7.032094E-1,2.9667422E-1,-4.1539177E-2,2.0490912E-1,7.7169366E-2,4.5166352E-1,9.1610245E-2,7.9141006E-2,2.2794442E-1,4.3502394E-3,-2.0313264E-4,1.4374252E-1,5.8530134E-1,1.787603E-4,-3.529121E-2,-2.4376127E-1,-1.3880248E-1,-4.9836677E-2,-2.566822E-1,-7.0348226E-2,1.6481696E-1,-1.7651206E-2,-1.2756126E-1,-9.500404E-2,-5.182706E-2,-2.8246817E-1,-3.397605E-2,-1.2944782E-1,-2.9376945E-1,-1.4131773E-1,-5.0173223E-2,6.1765034E-2,-9.2080995E-2,2.5967354E-1,-3.21914E-2,-4.1339383E-2,4.683496E-2,-2.5554752E-1,-1.2478125E-1,-1.4556737E-1,5.4009892E-2,-4.2980608E-2,9.6066445E-3,-1.461725E-1,-9.377259E-2,1.2002707E-3,-1.9415095E-2,2.8346766E-2,-5.524993E-4,-1.3212651E-1,1.4435339E-2,9.281723E-2,1.6578287E-2,4.1281525E-3,2.1908749E-2,-2.3189738E-2,-9.180664E-2,-1.3037549E-1,-9.2965335E-2,-1.1618378E-2,-4.6224393E-2,-7.735795E-2,-4.48386E-2,6.571334E-2,-1.4324269E-1,1.6309762E-2,-4.68637E-2,-7.1946084E-2,2.8801497E-2,-9.6044086E-2,-1.3966586E-1,-3.5313178E-2,-1.3836634E-1,4.6771914E-3,-2.8634345E-2,-1.5878074E-2,3.6870718E-2,-5.1746655E-2,-4.7347657E-2,-3.124975E-3,-2.9250765E-2,-1.05532534E-1,3.540775E-2,-1.4091516E-1,-4.438814E-2,-7.597232E-2,1.5264751E-1,-4.673169E-2,-6.543755E-2,2.2282122E-2,-4.5568116E-2,-4.66682E-2,-2.1800218E-2,-4.6102412E-2,-3.6954958E-2,8.748262E-3,-2.8722925E-2,-5.70017E-2,-6.8285265E-3,8.087888E-3,6.0603496E-2,4.355544E-3,-3.707432E-2],"categories":[],"categories_nodes":[],"categories_segments":[],"categories_sizes":[],"default_left":[0,0,0,0,0,0,0,0,0,0,0,0,0,0,0,0,0,0,0,0,0,0,0,0,0,0,0,0,0,0,0,0,0,0,0,0,0,0,0,0,0,0,0,0,0,0,0,0,0,0,0,0,0,0,0,0,0,0,0,0,0,0,0,0,0,0,0,0,0,0,0,0,0,0,0,0,0,0,0,0,0,0,0,0,0,0,0,0,0,0,0,0,0,0,0,0,0,0,0,0,0,0,0,0,0,0,0,0,0,0,0,0,0,0,0,0,0,0,0,0,0,0,0,0,0,0,0,0,0,0,0,0,0,0,0,0,0,0,0,0,0,0,0,0,0,0,0,0,0,0,0,0,0,0,0,0,0,0,0,0,0,0,0,0,0,0,0],"id":4,"left_children":[1,3,5,7,9,11,13,15,17,-1,-1,19,21,23,25,27,-1,-1,29,31,-1,33,35,37,-1,39,41,43,-1,45,-1,47,49,-1,51,-1,-1,-1,53,-1,55,57,59,61,-1,63,65,67,-1,69,71,-1,73,-1,75,77,-1,79,81,83,85,-1,-1,87,89,-1,-1,-1,-1,-1,-1,-1,-1,-1,-1,-1,-1,-1,-1,91,93,-1,-1,95,97,99,101,103,-1,-1,-1,105,-1,107,109,111,113,115,-1,-1,117,119,121,123,-1,-1,-1,125,127,-1,-1,-1,-1,129,131,-1,-1,-1,-1,-1,-1,133,135,-1,-1,137,-1,139,141,-1,-1,143,-1,145,147,149,151,-1,-1,-1,-1,153,-1,-1,-1,155,-1,157,159,161,163,-1,165,-1,-1,-1,-1,-1,-1,-1,-1,-1,-1,-1,-1,-1,-1],"loss_changes":[9.846394E1,1.0080346E2,6.421889E0,3.919187E1,3.6720062E1,1.0468969E1,3.3306231E0,6.17425E1,2.0083574E1,0E0,0E0,1.2831602E0,2.316697E-1,1.0054031E1,3.4448004E-1,1.3411865E1,0E0,0E0,6.035511E0,1.7061481E0,0E0,2.8836727E-3,3.7691902E-2,2.6253786E0,0E0,3.5393002E0,1.8688154E-1,9.659684E-1,0E0,2.716792E0,0E0,1.2412083E-1,6.017914E-1,0E0,2.9432848E-2,0E0,0E0,0E0,1.5649462E0,0E0,2.5131764E0,3.9844775E-1,2.0587087E-1,5.997679E-2,0E0,7.695409E-1,1.1634223E0,6.7299604E-3,0E0,4.9980354E-1,7.237959E-2,0E0,1.6667068E-4,0E0,3.2924175E-1,9.4128605E-3,0E0,1.3338351E-1,5.252975E-1,2.1337011E-1,4.319191E-2,0E0,0E0,1.1360198E-2,3.152151E-1,0E0,0E0,0E0,0E0,0E0,0E0,0E0,0E0,0E0,0E0,0E0,0E0,0E0,0E0,1.2184267E0,2.0775318E-2,0E0,0E0,5.4497577E-2,1.5692681E-1,4.519277E-2,3.4291506E-2,1.6527477E-1,0E0,0E0,0E0,3.8062602E-2,0E0,1.42223835E-2,4.198403E-3,6.41845E-3,6.5889806E-2,2.3554027E-2,0E0,0E0,2.460517E-3,3.3358186E-3,2.062893E-2,2.219379E-3,0E0,0E0,0E0,1.2885332E-2,1.19869955E-1,0E0,0E0,0E0,0E0,5.7902664E-2,4.213769E-2,0E0,0E0,0E0,0E0,0E0,0E0,3.5704374E-2,7.625529E-2,0E0,0E0,1.3258088E-2,0E0,3.364454E-2,6.510049E-3,0E0,0E0,3.7017865E-3,0E0,8.557847E-2,7.909536E-3,1.2623179E-1,1.1386365E-2,0E0,0E0,0E0,0E0,4.9143434E-2,0E0,0E0,0E0,4.6242207E-2,0E0,7.541418E-3,1.4123267E-2,7.4556254E-2,1.3167262E-2,0E0,2.5038833E-2,0E0,0E0,0E0,0E0,0E0,0E0,0E0,0E0,0E0,0E0,0E0,0E0,0E0,0E0],"parents":[2147483647,0,0,1,1,2,2,3,3,4,4,5,5,6,6,7,7,8,8,11,11,12,12,13,13,14,14,15,15,18,18,19,19,21,21,22,22,23,23,25,25,26,26,27,27,29,29,31,31,32,32,34,34,38,38,40,40,41,41,42,42,43,43,45,45,46,46,47,47,49,49,50,50,52,52,54,54,55,55,57,57,58,58,59,59,60,60,63,63,64,64,79,79,80,80,83,83,84,84,85,85,86,86,87,87,91,91,93,93,94,94,95,95,96,96,97,97,100,100,101,101,102,102,103,103,107,107,108,108,113,113,114,114,121,121,122,122,125,125,127,127,128,128,131,131,133,133,134,134,135,135,136,136,141,141,145,145,147,147,148,148,149,149,150,150,152,152],"right_children":[2,4,6,8,10,12,14,16,18,-1,-1,20,22,24,26,28,-1,-1,30,32,-1,34,36,38,-1,40,42,44,-1,46,-1,48,50,-1,52,-1,-1,-1,54,-1,56,58,60,62,-1,64,66,68,-1,70,72,-1,74,-1,76,78,-1,80,82,84,86,-1,-1,88,90,-1,-1,-1,-1,-1,-1,-1,-1,-1,-1,-1,-1,-1,-1,92,94,-1,-1,96,98,100,102,104,-1,-1,-1,106,-1,108,110,112,114,116,-1,-1,118,120,122,124,-1,-1,-1,126,128,-1,-1,-1,-1,130,132,-1,-1,-1,-1,-1,-1,134,136,-1,-1,138,-1,140,142,-1,-1,144,-1,146,148,150,152,-1,-1,-1,-1,154,-1,-1,-1,156,-1,158,160,162,164,-1,166,-1,-1,-1,-1,-1,-1,-1,-1,-1,-1,-1,-1,-1,-1],"split_conditions":[-1.5932894E0,-4.760684E-1,-1.606841E0,-1.5942718E0,-4.7583205E-1,-4.8286885E-1,-1.5926343E0,-1.5945994E0,1.000746E0,2.4206264E0,6.1921823E-1,-3.75235E-1,1.6174536E0,1.0856924E0,-1.1773719E0,-4.772503E-1,2.3195078E0,1.0063665E0,1.1879356E0,-4.0444434E-1,-4.6911314E-2,1.0316361E0,-4.3037924E-1,-4.775542E-1,-4.462626E-2,-1.0574211E0,5.269076E-1,-4.774529E-1,8.226288E-1,-4.7627103E-1,5.1633805E-1,-1.6395127E0,-3.7839824E-1,-4.6055116E-2,-4.3037924E-1,6.63504E-2,5.1755193E-3,-3.6029834E-2,-1.1479865E0,-4.5589775E-2,-4.7589958E-1,5.1839274E-1,-6.632051E-1,-4.776893E-1,-2.9120606E-1,-4.7698015E-1,-1.431571E0,-3.5568905E-1,6.6164665E-2,-3.7685585E-1,-3.768319E-1,-3.7967198E-2,-4.0478203E-1,5.321951E-2,1.0103552E0,-5.6667435E-1,3.9982802E-1,-1.2501979E0,4.160579E-1,-4.2362562E-1,5.33785E-1,-3.4920346E-2,3.8580522E-2,1.1076016E0,-4.7637233E-1,2.9667422E-1,-4.1539177E-2,2.0490912E-1,7.7169366E-2,4.5166352E-1,9.1610245E-2,7.9141006E-2,2.2794442E-1,4.3502394E-3,-2.0313264E-4,1.4374252E-1,5.8530134E-1,1.787603E-4,-3.529121E-2,1.6182603E0,4.941582E-1,-4.9836677E-2,-2.566822E-1,-5.572762E-1,-4.2102548E-1,4.0446687E-1,-5.604089E-1,1.094533E0,-5.182706E-2,-2.8246817E-1,-3.397605E-2,1.2997212E0,-2.9376945E-1,2.3147955E0,-4.2031637E-1,-4.348366E-1,-4.3277675E-1,-4.233903E-1,-3.21914E-2,-4.1339383E-2,-4.1937086E-1,-4.2970493E-1,1.3840487E0,-1.4358314E0,5.4009892E-2,-4.2980608E-2,9.6066445E-3,-1.2438072E0,1.8797313E0,1.2002707E-3,-1.9415095E-2,2.8346766E-2,-5.524993E-4,1.5142514E0,-5.560231E-1,9.281723E-2,1.6578287E-2,4.1281525E-3,2.1908749E-2,-2.3189738E-2,-9.180664E-2,-4.188981E-1,-2.4667907E-1,-1.1618378E-2,-4.6224393E-2,3.95382E-1,-4.48386E-2,-1.0346336E0,1.9363941E0,1.6309762E-2,-4.68637E-2,-4.247062E-1,2.8801497E-2,2.61563E0,1.1943824E0,1.1879917E0,-4.8101223E-1,4.6771914E-3,-2.8634345E-2,-1.5878074E-2,3.6870718E-2,2.3276398E0,-4.7347657E-2,-3.124975E-3,-2.9250765E-2,-4.3588343E-1,3.540775E-2,1.1754051E-2,-2.5268978E-1,-2.5245342E-1,-2.5339785E-1,-4.673169E-2,-2.4536106E-1,2.2282122E-2,-4.5568116E-2,-4.66682E-2,-2.1800218E-2,-4.6102412E-2,-3.6954958E-2,8.748262E-3,-2.8722925E-2,-5.70017E-2,-6.8285265E-3,8.087888E-3,6.0603496E-2,4.355544E-3,-3.707432E-2],"split_indices":[2,0,7,2,0,6,2,2,7,0,0,0,1,7,2,0,0,0,7,0,0,1,0,0,0,3,2,0,0,0,0,7,1,0,0,0,0,0,3,0,0,2,7,0,0,0,4,2,0,0,1,0,0,0,7,1,0,4,1,0,2,0,0,7,0,0,0,0,0,0,0,0,0,0,0,0,0,0,0,0,2,0,0,1,0,1,1,7,0,0,0,0,0,1,0,0,0,0,0,0,0,0,3,4,0,0,0,4,0,0,0,0,0,6,1,0,0,0,0,0,0,0,0,0,0,1,0,3,0,0,0,0,0,6,4,4,7,0,0,0,0,1,0,0,0,0,0,7,0,0,0,0,0,0,0,0,0,0,0,0,0,0,0,0,0,0,0],"split_type":[0,0,0,0,0,0,0,0,0,0,0,0,0,0,0,0,0,0,0,0,0,0,0,0,0,0,0,0,0,0,0,0,0,0,0,0,0,0,0,0,0,0,0,0,0,0,0,0,0,0,0,0,0,0,0,0,0,0,0,0,0,0,0,0,0,0,0,0,0,0,0,0,0,0,0,0,0,0,0,0,0,0,0,0,0,0,0,0,0,0,0,0,0,0,0,0,0,0,0,0,0,0,0,0,0,0,0,0,0,0,0,0,0,0,0,0,0,0,0,0,0,0,0,0,0,0,0,0,0,0,0,0,0,0,0,0,0,0,0,0,0,0,0,0,0,0,0,0,0,0,0,0,0,0,0,0,0,0,0,0,0,0,0,0,0,0,0],"sum_hessian":[4.95E2,3.5E1,4.6E2,3E1,5E0,4.9E1,4.11E2,5E0,2.5E1,2E0,3E0,2E1,2.9E1,2.3E1,3.88E2,4E0,1E0,1E0,2.4E1,1.9E1,1E0,2.6E1,3E0,6E0,1.7E1,3.5E1,3.53E2,3E0,1E0,2.3E1,1E0,8E0,1.1E1,1.9E1,7E0,1E0,2E0,1E0,5E0,3.1E1,4E0,1.44E2,2.09E2,2E0,1E0,2E1,3E0,4E0,4E0,6E0,5E0,5E0,2E0,1E0,4E0,2E0,2E0,1.39E2,5E0,2E1,1.89E2,1E0,1E0,1.8E1,2E0,2E0,1E0,2E0,2E0,5E0,1E0,2E0,3E0,1E0,1E0,1E0,3E0,1E0,1E0,1.5E1,1.24E2,4E0,1E0,1.6E1,4E0,4E0,1.85E2,9E0,9E0,1E0,1E0,1.4E1,1E0,1.2E2,4E0,2E0,1.4E1,3E0,1E0,1E0,3E0,2E0,1.83E2,8E0,1E0,1.3E1,1E0,1.07E2,1.3E1,1E0,3E0,1E0,1E0,1E1,4E0,2E0,1E0,2E0,1E0,1E0,1E0,1.53E2,3E1,1E0,7E0,6E0,1.01E2,3E0,1E1,1E0,9E0,2E0,2E0,3.5E1,1.18E2,1.4E1,1.6E1,1E0,5E0,1E0,2E0,2E0,8E0,1E0,1E0,3.4E1,1E0,1.16E2,2E0,1.2E1,2E0,1.2E1,4E0,1E0,1E0,1.2E1,2.2E1,6.3E1,5.3E1,1E0,1E0,3E0,9E0,1E0,1E0,2E0,2E0],"tree_param":{"num_deleted":"0","num_feature":"8","num_nodes":"167","size_leaf_vector":"1"}},{"base_weights":[5.995219E-2,1.3606418E0,-4.1750155E-2,7.490164E-1,4.293933E0,2.1575205E-1,-7.289909E-2,2.6960025E0,2.7090362E-1,1.9365009E0,1.5996472E0,6.243578E-1,-7.746372E-2,2.1004725E-1,-9.016853E-2,6.0642725E-1,1.9715818E0,8.554116E-1,5.363003E-2,1.0325926E-1,5.710194E-1,6.6886723E-1,-3.9874613E-2,-3.0458905E-2,1.0434744E-1,1.7101268E0,-4.0566507E-3,-1.2499237E-2,-9.7812384E-2,-4.0735665E-1,6.992345E-1,-6.604854E-2,4.388874E-1,3.4385705E-1,8.5688597E-1,5.6397844E-2,4.140413E-3,1.2218113E-1,6.4737594E-1,5.721332E-1,-1.2514625E-1,-3.2340247E-2,5.999307E-1,-1.9107935E-1,-9.312187E-2,6.913662E-3,-2.4752514E-1,-1.772938E-1,5.3450125E-1,4.5132548E-1,5.0285153E-2,1.0965693E0,1.5870926E-1,-2.593132E-2,3.821769E-1,4.5236584E-2,-1.4885312E-1,-6.632351E-2,3.1986243E-1,-9.283841E-2,-2.4970403E-1,-8.792238E-2,-1.640454E-1,-2.9682292E-2,3.279344E-2,-1.0157822E-1,-5.9772795E-1,2.3733939E-1,-3.5308298E-2,1.6392727E-1,2.0578492E-1,3.6361748E-1,7.7868715E-2,-1.223357E-1,-3.2890324E-2,1.5194714E-4,-2.9997528E-2,-3.1007439E-2,8.165646E-3,-9.351887E-2,-1.8590791E-2,-5.5410683E-1,-9.733391E-2,-6.688612E-2,-3.783375E-2,-2.4009795E-1,-2.887964E-2,1.3838214E-2,7.8765005E-2,-1.2467526E-1,-9.05405E-2,-7.454215E-2,8.916075E-2,-3.1168206E-2,-2.1817987E-1,3.009659E-2,-1.13016956E-1,-1.0832413E-1,4.5908406E-2,-3.2008547E-2,-7.8035645E-2,-9.90458E-2,-8.034435E-2,-3.7578404E-2,-1.1142905E-1,-3.410062E-2,1.9458996E-1,-1.2506579E-1,-3.6567394E-2,-3.582715E-2,-1.3895038E-2,-6.6665344E-2,-1.02020115E-1,-3.2721113E-2,-9.444511E-2,-7.5886875E-2,3.8856015E-2,-2.7510578E-2,-5.654097E-2,2.409475E-2,-2.4835106E-2,2.3041196E-2,7.425379E-2,-1.803452E-2,-4.2511933E-2,2.9116279E-2,-3.403781E-2,-3.749451E-2,-1.3900925E-2,-7.810708E-2,-1.0540967E-1,-5.821591E-2,4.617682E-2,-1.0949485E-1,-7.3952205E-2,-4.69628E-4,-8.8012874E-2,3.12745E-3,1.8622436E-2,1.8574537E-3,-1.5612743E-2,-1.7271906E-2,2.779028E-2,3.373317E-2,-2.8216254E-2,-3.1744596E-2,-9.118258E-3,2.330347E-3,-2.4174117E-2,-1.5981024E-2,-3.458771E-2,-3.019867E-2,-1.0659469E-2,-2.8553303E-2,-7.828333E-3],"categories":[],"categories_nodes":[],"categories_segments":[],"categories_sizes":[],"default_left":[0,0,0,0,0,0,0,0,0,0,0,0,0,0,0,0,0,0,0,0,0,0,0,0,0,0,0,0,0,0,0,0,0,0,0,0,0,0,0,0,0,0,0,0,0,0,0,0,0,0,0,0,0,0,0,0,0,0,0,0,0,0,0,0,0,0,0,0,0,0,0,0,0,0,0,0,0,0,0,0,0,0,0,0,0,0,0,0,0,0,0,0,0,0,0,0,0,0,0,0,0,0,0,0,0,0,0,0,0,0,0,0,0,0,0,0,0,0,0,0,0,0,0,0,0,0,0,0,0,0,0,0,0,0,0,0,0,0,0,0,0,0,0,0,0,0,0,0,0,0,0,0,0,0,0],"id":5,"left_children":[1,3,5,7,9,11,13,15,17,-1,19,21,23,25,27,29,-1,-1,31,-1,-1,33,-1,-1,35,37,39,41,43,45,-1,47,-1,49,51,-1,-1,-1,-1,53,55,-1,57,59,61,63,-1,65,67,69,-1,71,-1,-1,-1,-1,73,75,-1,77,-1,79,81,-1,-1,83,85,-1,-1,-1,87,-1,-1,-1,-1,-1,-1,-1,-1,89,91,93,95,97,-1,-1,-1,-1,-1,99,101,103,105,-1,-1,-1,107,109,-1,-1,-1,111,113,115,117,119,121,123,125,-1,-1,127,129,131,133,135,137,139,-1,-1,-1,-1,-1,-1,-1,-1,-1,-1,141,143,145,147,-1,149,151,-1,153,-1,-1,-1,-1,-1,-1,-1,-1,-1,-1,-1,-1,-1,-1,-1,-1,-1,-1],"loss_changes":[6.566927E1,6.1370483E1,3.7133713E0,2.8126892E1,2.4609505E1,6.038848E0,2.0321052E0,4.460896E1,1.4424438E1,0E0,8.702307E-1,7.967243E-1,1.4185815E-1,7.715087E0,2.297244E-1,9.690072E0,0E0,0E0,4.3132844E0,0E0,0E0,9.275131E-1,0E0,0E0,2.770048E-2,8.713722E-1,1.6065536E0,2.1658325E0,1.3707042E-1,6.9791216E-1,0E0,1.6981636E0,0E0,9.4812036E-2,3.6285782E-1,0E0,0E0,0E0,0E0,1.9588282E0,1.467348E-1,0E0,1.6240108E0,9.3070567E-1,1.1058855E-1,4.333322E-2,0E0,6.077857E-1,7.626034E-1,4.30727E-3,0E0,2.6538515E-1,0E0,0E0,0E0,0E0,1.3808268E-1,6.8007894E-3,0E0,2.1757796E-2,0E0,1.2164974E-1,5.1854134E-1,0E0,0E0,7.7365935E-3,2.2774291E-1,0E0,0E0,0E0,1.5078187E-2,0E0,0E0,0E0,0E0,0E0,0E0,0E0,0E0,1.5993357E-2,1.5736735E-1,1.5831715E-1,7.333499E-2,1.0770468E-1,0E0,0E0,0E0,0E0,0E0,2.8258264E-2,1.5630722E-2,1.8991813E-2,1.2359376E-1,0E0,0E0,0E0,1.2928084E-2,6.630346E-4,0E0,0E0,0E0,7.0673227E-3,8.353621E-2,3.2229517E-2,4.653629E-2,3.4499556E-2,1.2157783E-2,8.774459E-3,5.2109443E-2,0E0,0E0,4.441805E-2,2.3038387E-3,1.5647262E-1,2.2435486E-2,6.1707795E-3,1.993429E-3,4.456103E-3,0E0,0E0,0E0,0E0,0E0,0E0,0E0,0E0,0E0,0E0,4.7206763E-2,7.135052E-2,1.6152859E-4,4.1945286E-2,0E0,1.1786401E-2,4.2603076E-2,0E0,1.7818809E-4,0E0,0E0,0E0,0E0,0E0,0E0,0E0,0E0,0E0,0E0,0E0,0E0,0E0,0E0,0E0,0E0,0E0,0E0],"parents":[2147483647,0,0,1,1,2,2,3,3,4,4,5,5,6,6,7,7,8,8,10,10,11,11,12,12,13,13,14,14,15,15,18,18,21,21,24,24,25,25,26,26,27,27,28,28,29,29,31,31,33,33,34,34,39,39,40,40,42,42,43,43,44,44,45,45,47,47,48,48,49,49,51,51,56,56,57,57,59,59,61,61,62,62,65,65,66,66,70,70,79,79,80,80,81,81,82,82,83,83,89,89,90,90,91,91,92,92,96,96,97,97,101,101,102,102,103,103,104,104,105,105,106,106,107,107,108,108,111,111,112,112,113,113,114,114,115,115,116,116,117,117,128,128,129,129,130,130,131,131,133,133,134,134,136,136],"right_children":[2,4,6,8,10,12,14,16,18,-1,20,22,24,26,28,30,-1,-1,32,-1,-1,34,-1,-1,36,38,40,42,44,46,-1,48,-1,50,52,-1,-1,-1,-1,54,56,-1,58,60,62,64,-1,66,68,70,-1,72,-1,-1,-1,-1,74,76,-1,78,-1,80,82,-1,-1,84,86,-1,-1,-1,88,-1,-1,-1,-1,-1,-1,-1,-1,90,92,94,96,98,-1,-1,-1,-1,-1,100,102,104,106,-1,-1,-1,108,110,-1,-1,-1,112,114,116,118,120,122,124,126,-1,-1,128,130,132,134,136,138,140,-1,-1,-1,-1,-1,-1,-1,-1,-1,-1,142,144,146,148,-1,150,152,-1,154,-1,-1,-1,-1,-1,-1,-1,-1,-1,-1,-1,-1,-1,-1,-1,-1,-1,-1],"split_conditions":[-1.5932894E0,-4.760684E-1,-1.606841E0,-1.5942718E0,-4.7583205E-1,-4.8286885E-1,-1.5926343E0,-1.5945994E0,1.000746E0,1.9365009E0,-4.7579828E-1,-3.75235E-1,1.6174536E0,1.0272677E0,-1.1773719E0,-4.772503E-1,1.9715818E0,8.554116E-1,1.1879356E0,1.0325926E-1,5.710194E-1,-4.0444434E-1,-3.9874613E-2,-3.0458905E-2,-4.3037924E-1,1.0103552E0,-1.4340055E0,-1.0574211E0,-1.2501979E0,-4.774529E-1,6.992345E-1,-4.7627103E-1,4.388874E-1,-1.6395127E0,-3.7996462E-1,5.6397844E-2,4.140413E-3,1.2218113E-1,6.4737594E-1,-1.4352227E0,1.0514832E0,-3.2340247E-2,-4.7589958E-1,1.6182603E0,2.6100533E0,-4.776893E-1,-2.4752514E-1,-4.7698015E-1,-1.431571E0,-3.5568905E-1,5.0285153E-2,-3.7685585E-1,1.5870926E-1,-2.593132E-2,3.821769E-1,4.5236584E-2,1.0653206E0,-5.6667435E-1,3.1986243E-1,1.2997212E0,-2.4970403E-1,1.5498022E0,3.5903162E-1,-2.9682292E-2,3.279344E-2,1.1076016E0,-4.7637233E-1,2.3733939E-1,-3.5308298E-2,1.6392727E-1,-4.0535712E-1,3.6361748E-1,7.7868715E-2,-1.223357E-1,-3.2890324E-2,1.5194714E-4,-2.9997528E-2,-3.1007439E-2,8.165646E-3,-5.5852926E-1,7.2405905E-1,-4.3753806E-1,-4.2085665E-1,1.094533E0,-3.783375E-2,-2.4009795E-1,-2.887964E-2,1.3838214E-2,7.8765005E-2,-4.2652968E-1,9.6857905E-1,4.1449153E-1,-4.3419608E-1,-3.1168206E-2,-2.1817987E-1,3.009659E-2,1.0513722E0,-4.7775683E-1,4.5908406E-2,-3.2008547E-2,-7.8035645E-2,-5.6397533E-1,-3.2610252E-1,4.082261E-1,2.6023855E0,-4.348366E-1,-4.2389578E-1,5.269076E-1,-3.6415908E-1,-3.582715E-2,-1.3895038E-2,-1.0340493E0,-1.0854671E0,1.148819E0,1.1764277E0,-5.572762E-1,-4.1937086E-1,-4.2031637E-1,-5.654097E-2,2.409475E-2,-2.4835106E-2,2.3041196E-2,7.425379E-2,-1.803452E-2,-4.2511933E-2,2.9116279E-2,-3.403781E-2,-3.749451E-2,1.8789536E0,2.017501E0,8.524735E-2,9.7223085E-1,4.617682E-2,1.1330992E0,-4.871622E-1,-4.69628E-4,-2.972819E-1,3.12745E-3,1.8622436E-2,1.8574537E-3,-1.5612743E-2,-1.7271906E-2,2.779028E-2,3.373317E-2,-2.8216254E-2,-3.1744596E-2,-9.118258E-3,2.330347E-3,-2.4174117E-2,-1.5981024E-2,-3.458771E-2,-3.019867E-2,-1.0659469E-2,-2.8553303E-2,-7.828333E-3],"split_indices":[2,0,7,2,0,6,2,2,7,0,0,0,1,7,2,0,0,0,7,0,0,0,0,0,0,7,4,3,4,0,0,0,0,7,1,0,0,0,0,4,7,0,0,0,6,0,0,0,4,2,0,0,0,0,0,0,7,1,0,0,0,6,4,0,0,7,0,0,0,0,0,0,0,0,0,0,0,0,0,1,2,0,0,7,0,0,0,0,0,0,4,1,0,0,0,0,1,0,0,0,0,2,0,1,6,0,0,2,0,0,0,3,3,2,4,1,0,0,0,0,0,0,0,0,0,0,0,0,0,1,6,4,0,2,7,0,7,0,0,0,0,0,0,0,0,0,0,0,0,0,0,0,0,0,0],"split_type":[0,0,0,0,0,0,0,0,0,0,0,0,0,0,0,0,0,0,0,0,0,0,0,0,0,0,0,0,0,0,0,0,0,0,0,0,0,0,0,0,0,0,0,0,0,0,0,0,0,0,0,0,0,0,0,0,0,0,0,0,0,0,0,0,0,0,0,0,0,0,0,0,0,0,0,0,0,0,0,0,0,0,0,0,0,0,0,0,0,0,0,0,0,0,0,0,0,0,0,0,0,0,0,0,0,0,0,0,0,0,0,0,0,0,0,0,0,0,0,0,0,0,0,0,0,0,0,0,0,0,0,0,0,0,0,0,0,0,0,0,0,0,0,0,0,0,0,0,0,0,0,0,0,0,0],"sum_hessian":[4.95E2,3.5E1,4.6E2,3E1,5E0,4.9E1,4.11E2,5E0,2.5E1,2E0,3E0,2E1,2.9E1,2.3E1,3.88E2,4E0,1E0,1E0,2.4E1,1E0,2E0,1.9E1,1E0,2.6E1,3E0,2E0,2.1E1,3.5E1,3.53E2,3E0,1E0,2.3E1,1E0,8E0,1.1E1,1E0,2E0,1E0,1E0,3E0,1.8E1,3.1E1,4E0,1.5E1,3.38E2,2E0,1E0,2E1,3E0,4E0,4E0,5E0,6E0,2E0,1E0,1E0,1.7E1,2E0,2E0,1.4E1,1E0,3.17E2,2.1E1,1E0,1E0,1.8E1,2E0,2E0,1E0,2E0,2E0,4E0,1E0,1E0,1.6E1,1E0,1E0,1.3E1,1E0,2.93E2,2.4E1,2E0,1.9E1,9E0,9E0,1E0,1E0,1E0,1E0,2.2E1,2.71E2,1.6E1,8E0,1E0,1E0,1E0,1.8E1,8E0,1E0,2.1E1,1E0,1.43E2,1.28E2,9E0,7E0,4E0,4E0,1.5E1,3E0,6E0,2E0,1.4E1,1.29E2,3E1,9.8E1,6E0,3E0,4E0,3E0,1E0,3E0,2E0,2E0,4E0,1.1E1,1E0,2E0,6E0,8E0,1.9E1,1.1E2,2.7E1,3E0,5.4E1,4.4E1,1E0,5E0,2E0,1E0,2E0,2E0,6E0,2E0,1E0,1.8E1,1.09E2,1E0,7E0,2E1,6E0,4.8E1,2.5E1,1.9E1,4E0,1E0],"tree_param":{"num_deleted":"0","num_feature":"8","num_nodes":"155","size_leaf_vector":"1"}},{"base_weights":[5.7305288E-2,1.1253072E0,-2.622047E-2,1.7308421E-1,2.3047683E0,1.6897075E-1,-4.9845085E-2,7.2709984E-1,-6.0628176E-2,4.545935E0,1.6598918E0,4.7834268E-1,-5.322196E-2,1.8935862E-1,-6.4475015E-2,2.787442E-2,-7.359963E-2,1.6758446E0,3.698263E-1,5.0586975E-1,3.6359577E0,5.135576E-1,-3.389342E-2,-7.219888E-2,8.817777E-2,1.4536077E0,8.353807E-3,-1.5917794E-3,-7.068779E-2,-4.7201667E-2,-9.263763E-2,-3.8576373E-1,1.164586E0,1.5492007E0,2.687783E-1,2.7479059E-1,6.498365E-1,-8.082873E-2,-4.1599415E-2,4.7938175E-2,3.3123258E-3,1.0385399E-1,5.502695E-1,4.895546E-1,-9.33913E-2,-7.64712E-2,4.779549E-1,-1.5078966E-1,-6.6698655E-2,-8.1351586E-2,3.9022136E-2,-1.0077915E-1,-2.9045877E-3,-2.1039638E-1,-3.946322E-2,3.8576454E-1,5.444458E-1,1.10170186E-1,3.8216732E-2,8.4117955E-1,3.9299434E-1,-5.2842293E-3,-2.496863E-2,-2.0860674E-2,8.441812E-3,-2.0745058E-2,3.2485035E-1,3.8451094E-2,-1.1282085E-1,-2.0377971E-2,-3.2708075E-2,-5.637498E-2,2.5588995E-1,-6.650967E-2,-2.1224843E-1,-6.2345553E-2,-1.2964815E-1,-3.1898476E-2,-1.5342562E-2,-1.4760351E-2,-3.5510387E-2,-3.1465665E-1,3.7305424E-1,3.0699733E-1,9.5377974E-2,2.56088E-1,1.8216488E-1,-1.0398535E-1,-2.3603642E-2,1.2915731E-4,-2.5497898E-2,-7.45655E-2,6.9407974E-3,-6.7135945E-2,-2.1556797E-2,-4.709908E-1,-6.892835E-2,-2.0408325E-1,6.2487748E-2,8.373941E-2,2.1130659E-2,-4.5538124E-2,-2.5689611E-2,-9.2057206E-2,-6.4701244E-2,-5.71359E-2,5.1397808E-2,-2.6492976E-2,-1.854529E-1,2.5582101E-2,-8.2232565E-2,-2.1203817E-3,-1.890187E-2,-2.2842461E-2,-6.6330306E-2,-2.1474624E-2,-6.579934E-2,-3.982133E-2,-8.678737E-2,-3.0154077E-2,1.3797536E-1,-9.152506E-2,-2.6827555E-2,-5.1195208E-2,1.3537426E-2,-6.7459136E-2,-4.28408E-2,-5.7679236E-2,3.2636672E-2,-2.2008464E-2,-4.381925E-2,4.023719E-2,-2.790205E-2,5.940303E-2,5.8455493E-2,-1.3706235E-2,-1.0403988E-1,2.4748838E-2,-2.7230248E-2,-1.6605485E-2,-4.561976E-3,-6.533387E-2,-9.273101E-2,5.311189E-2,-6.373133E-2,-7.3950686E-2,-1.3600485E-2,2.5019587E-3,1.5829066E-2,1.4859617E-3,-1.2490194E-2,2.5313301E-2,-1.3827636E-2,2.1188568E-2,3.2904425E-3,-9.295648E-3,-3.247403E-2,-2.0143189E-2,-4.388701E-5,9.034941E-3,-3.0878581E-2,-7.967505E-3,-4.195392E-2,-3.9918424E-4,-2.4561523E-2,-1.6502997E-2,9.702754E-3],"categories":[],"categories_nodes":[],"categories_segments":[],"categories_sizes":[],"default_left":[0,0,0,0,0,0,0,0,0,0,0,0,0,0,0,0,0,0,0,0,0,0,0,0,0,0,0,0,0,0,0,0,0,0,0,0,0,0,0,0,0,0,0,0,0,0,0,0,0,0,0,0,0,0,0,0,0,0,0,0,0,0,0,0,0,0,0,0,0,0,0,0,0,0,0,0,0,0,0,0,0,0,0,0,0,0,0,0,0,0,0,0,0,0,0,0,0,0,0,0,0,0,0,0,0,0,0,0,0,0,0,0,0,0,0,0,0,0,0,0,0,0,0,0,0,0,0,0,0,0,0,0,0,0,0,0,0,0,0,0,0,0,0,0,0,0,0,0,0,0,0,0,0,0,0,0,0,0,0,0,0,0,0,0,0,0,0],"id":6,"left_children":[1,3,5,7,9,11,13,-1,15,17,19,21,23,25,27,-1,29,-1,-1,31,33,35,-1,37,39,41,43,45,47,49,51,53,55,-1,-1,57,59,61,63,-1,-1,-1,-1,65,67,69,71,73,75,77,-1,79,-1,-1,-1,81,-1,-1,-1,83,85,-1,-1,-1,-1,-1,-1,-1,87,-1,-1,89,-1,91,-1,93,95,-1,-1,-1,-1,97,-1,-1,-1,99,-1,-1,-1,-1,-1,101,-1,103,105,107,109,-1,-1,-1,-1,111,-1,113,115,117,119,-1,-1,-1,121,-1,-1,-1,-1,123,125,127,129,131,133,135,137,139,-1,141,143,145,147,149,-1,151,-1,-1,153,-1,155,-1,-1,-1,-1,157,159,-1,161,163,165,-1,-1,-1,-1,-1,-1,-1,-1,-1,-1,-1,-1,-1,-1,-1,-1,-1,-1,-1,-1],"loss_changes":[4.427552E1,4.0033035E1,2.1342397E0,1.1192709E1,1.5578644E1,3.462468E0,1.4540168E0,0E0,4.6671987E-2,3.4528923E0,3.0086617E1,4.953103E-1,8.68663E-2,5.4799013E0,1.5186179E-1,0E0,5.176075E-3,0E0,0E0,6.322589E0,1.6307869E1,4.7220898E-1,0E0,3.7674308E-3,2.0332629E-2,6.295662E-1,1.1228362E0,1.3292443E0,1.0305858E-1,7.112113E-2,5.7781115E-3,3.0885005E-1,2.3384008E0,0E0,0E0,7.585508E-2,2.59161E-1,1.5683323E-3,1.7542556E-2,0E0,0E0,0E0,0E0,1.4007514E0,9.625226E-2,1.4958084E-3,1.0499853E0,7.0365036E-1,8.481169E-2,1.3530068E-3,0E0,2.3409128E-3,0E0,0E0,0E0,2.7944238E0,0E0,0E0,0E0,2.4650478E-1,4.9797654E-2,0E0,0E0,0E0,0E0,0E0,0E0,0E0,1.1641005E-1,0E0,0E0,4.913573E-3,0E0,1.2557708E-2,0E0,6.0883403E-2,4.0278673E-1,0E0,0E0,0E0,0E0,7.1529996E-1,0E0,0E0,0E0,6.0076416E-3,0E0,0E0,0E0,0E0,0E0,5.977228E-4,0E0,1.1336446E-2,9.378474E-2,1.14384115E-1,4.5991436E-2,0E0,0E0,0E0,0E0,3.5866825E-3,0E0,3.0402854E-2,1.1070728E-2,8.865669E-3,8.888729E-2,0E0,0E0,0E0,6.8119317E-3,0E0,0E0,0E0,0E0,1.814515E-2,6.865263E-3,2.387958E-2,2.750444E-2,3.471233E-2,1.7068945E-2,3.8514286E-3,3.5448562E-2,5.5789948E-5,0E0,6.670594E-3,1.0315134E-1,9.035386E-3,1.5160353E-3,2.8519048E-3,0E0,1.9131612E-2,0E0,0E0,1.5376033E-3,0E0,2.656877E-5,0E0,0E0,0E0,0E0,2.6185155E-2,2.3143843E-2,0E0,5.0044954E-2,5.6433342E-3,1.1291546E-2,0E0,0E0,0E0,0E0,0E0,0E0,0E0,0E0,0E0,0E0,0E0,0E0,0E0,0E0,0E0,0E0,0E0,0E0,0E0,0E0],"parents":[2147483647,0,0,1,1,2,2,3,3,4,4,5,5,6,6,8,8,9,9,10,10,11,11,12,12,13,13,14,14,16,16,19,19,20,20,21,21,23,23,24,24,25,25,26,26,27,27,28,28,29,29,30,30,31,31,32,32,35,35,36,36,37,37,38,38,43,43,44,44,45,45,46,46,47,47,48,48,49,49,51,51,55,55,59,59,60,60,68,68,71,71,73,73,75,75,76,76,81,81,85,85,91,91,93,93,94,94,95,95,96,96,101,101,103,103,104,104,105,105,106,106,110,110,115,115,116,116,117,117,118,118,119,119,120,120,121,121,122,122,123,123,125,125,126,126,127,127,128,128,129,129,131,131,134,134,136,136,141,141,142,142,144,144,145,145,146,146],"right_children":[2,4,6,8,10,12,14,-1,16,18,20,22,24,26,28,-1,30,-1,-1,32,34,36,-1,38,40,42,44,46,48,50,52,54,56,-1,-1,58,60,62,64,-1,-1,-1,-1,66,68,70,72,74,76,78,-1,80,-1,-1,-1,82,-1,-1,-1,84,86,-1,-1,-1,-1,-1,-1,-1,88,-1,-1,90,-1,92,-1,94,96,-1,-1,-1,-1,98,-1,-1,-1,100,-1,-1,-1,-1,-1,102,-1,104,106,108,110,-1,-1,-1,-1,112,-1,114,116,118,120,-1,-1,-1,122,-1,-1,-1,-1,124,126,128,130,132,134,136,138,140,-1,142,144,146,148,150,-1,152,-1,-1,154,-1,156,-1,-1,-1,-1,158,160,-1,162,164,166,-1,-1,-1,-1,-1,-1,-1,-1,-1,-1,-1,-1,-1,-1,-1,-1,-1,-1,-1,-1],"split_conditions":[-1.5932894E0,-4.774529E-1,-1.606841E0,1.000746E0,1.0853081E0,-4.8286885E-1,-1.5926343E0,7.2709984E-1,-1.5949268E0,-4.772503E-1,-4.760684E-1,-3.75235E-1,1.6174536E0,1.0272677E0,-1.1773719E0,2.787442E-2,1.1076016E0,1.6758446E0,3.698263E-1,1.1199017E0,-4.7583205E-1,-4.0444434E-1,-3.389342E-2,1.0316361E0,-4.3037924E-1,1.0103552E0,-1.4340055E0,-1.0574211E0,-1.2501979E0,1.094533E0,-4.7758797E-1,-4.772503E-1,-4.7616974E-1,1.5492007E0,2.687783E-1,-1.6395127E0,-3.7996462E-1,-4.4952676E-1,-4.3037924E-1,4.7938175E-2,3.3123258E-3,1.0385399E-1,5.502695E-1,-1.4352227E0,1.0514832E0,-1.1316262E0,-4.7589958E-1,1.6182603E0,2.6128416E0,1.0514832E0,3.9022136E-2,-4.7782436E-1,-2.9045877E-3,-2.1039638E-1,-3.946322E-2,-1.5939443E0,5.444458E-1,1.10170186E-1,3.8216732E-2,-3.7736344E-1,-3.7614778E-1,-5.2842293E-3,-2.496863E-2,-2.0860674E-2,8.441812E-3,-2.0745058E-2,3.2485035E-1,3.8451094E-2,1.0653206E0,-2.0377971E-2,-3.2708075E-2,-5.6667435E-1,2.5588995E-1,1.2997212E0,-2.1224843E-1,1.4424525E0,3.5903162E-1,-3.1898476E-2,-1.5342562E-2,-1.4760351E-2,-3.5510387E-2,-4.7637233E-1,3.7305424E-1,3.0699733E-1,9.5377974E-2,-3.7685585E-1,1.8216488E-1,-1.0398535E-1,-2.3603642E-2,1.2915731E-4,-2.5497898E-2,1.4577656E0,6.9407974E-3,-5.5852926E-1,9.423229E-1,-4.3753806E-1,-4.2085665E-1,-2.0408325E-1,6.2487748E-2,8.373941E-2,2.1130659E-2,-1.0220712E0,-2.5689611E-2,-4.2652968E-1,-5.569629E-1,4.1449153E-1,-4.3419608E-1,-2.6492976E-2,-1.854529E-1,2.5582101E-2,1.0513722E0,-2.1203817E-3,-1.890187E-2,-2.2842461E-2,-6.6330306E-2,8.229623E-1,1.3913524E0,4.082261E-1,2.6023855E0,-7.9927313E-1,1.0522662E0,5.269076E-1,-3.6415908E-1,-4.645187E-1,1.3537426E-2,1.1840357E0,1.2411723E0,7.2405905E-1,-4.1937086E-1,-4.2031637E-1,-4.381925E-2,-4.3449894E-1,-2.790205E-2,5.940303E-2,-4.2102548E-1,-1.3706235E-2,3.602489E-1,2.4748838E-2,-2.7230248E-2,-1.6605485E-2,-4.561976E-3,1.1791666E0,-2.5268978E-1,5.311189E-2,1.1812968E0,-5.572762E-1,-4.3466777E-1,2.5019587E-3,1.5829066E-2,1.4859617E-3,-1.2490194E-2,2.5313301E-2,-1.3827636E-2,2.1188568E-2,3.2904425E-3,-9.295648E-3,-3.247403E-2,-2.0143189E-2,-4.388701E-5,9.034941E-3,-3.0878581E-2,-7.967505E-3,-4.195392E-2,-3.9918424E-4,-2.4561523E-2,-1.6502997E-2,9.702754E-3],"split_indices":[2,0,7,7,7,6,2,0,2,0,0,0,1,7,2,0,7,0,0,7,0,0,0,1,0,7,4,3,4,7,0,0,0,0,0,7,1,0,0,0,0,0,0,4,7,3,0,0,6,7,0,0,0,0,0,2,0,0,0,0,0,0,0,0,0,0,0,0,7,0,0,1,0,0,0,6,4,0,0,0,0,0,0,0,0,0,0,0,0,0,0,7,0,1,3,0,0,0,0,0,0,3,0,0,1,1,0,0,0,0,1,0,0,0,0,2,3,1,6,7,4,2,0,0,0,4,2,2,0,0,0,0,0,0,0,0,4,0,0,0,0,4,0,0,4,1,0,0,0,0,0,0,0,0,0,0,0,0,0,0,0,0,0,0,0,0,0],"split_type":[0,0,0,0,0,0,0,0,0,0,0,0,0,0,0,0,0,0,0,0,0,0,0,0,0,0,0,0,0,0,0,0,0,0,0,0,0,0,0,0,0,0,0,0,0,0,0,0,0,0,0,0,0,0,0,0,0,0,0,0,0,0,0,0,0,0,0,0,0,0,0,0,0,0,0,0,0,0,0,0,0,0,0,0,0,0,0,0,0,0,0,0,0,0,0,0,0,0,0,0,0,0,0,0,0,0,0,0,0,0,0,0,0,0,0,0,0,0,0,0,0,0,0,0,0,0,0,0,0,0,0,0,0,0,0,0,0,0,0,0,0,0,0,0,0,0,0,0,0,0,0,0,0,0,0,0,0,0,0,0,0,0,0,0,0,0,0],"sum_hessian":[4.95E2,3.5E1,4.6E2,2E1,1.5E1,4.9E1,4.11E2,1E0,1.9E1,2E0,1.3E1,2E1,2.9E1,2.3E1,3.88E2,1E0,1.8E1,1E0,1E0,9E0,4E0,1.9E1,1E0,2.6E1,3E0,2E0,2.1E1,3.5E1,3.53E2,9E0,9E0,4E0,5E0,2E0,2E0,8E0,1.1E1,1.9E1,7E0,1E0,2E0,1E0,1E0,3E0,1.8E1,3.1E1,4E0,1.5E1,3.38E2,8E0,1E0,8E0,1E0,1E0,3E0,3E0,2E0,4E0,4E0,5E0,6E0,1E0,1.8E1,5E0,2E0,2E0,1E0,1E0,1.7E1,2.7E1,4E0,2E0,2E0,1.4E1,1E0,3.18E2,2E1,3E0,5E0,3E0,5E0,2E0,1E0,3E0,2E0,5E0,1E0,1E0,1.6E1,1E0,1E0,1.3E1,1E0,2.84E2,3.4E1,2E0,1.8E1,1E0,1E0,4E0,1E0,5E0,8E0,2.2E1,2.62E2,2.3E1,1.1E1,1E0,1E0,1E0,1.7E1,2E0,3E0,2.1E1,1E0,7E0,2.55E2,1.6E1,7E0,6E0,5E0,1.4E1,3E0,5E0,2E0,2.36E2,1.9E1,1.3E1,3E0,4E0,3E0,3E0,3E0,2E0,3E0,4E0,1E1,1E0,2E0,4E0,1E0,2.21E2,1.5E1,1E0,1.8E1,9E0,4E0,2E0,1E0,2E0,2E0,2E0,1E0,2E0,1E0,1E0,9E0,2.15E2,6E0,1E0,1.4E1,1.3E1,5E0,1E0,8E0,2E0,2E0],"tree_param":{"num_deleted":"0","num_feature":"8","num_nodes":"167","size_leaf_vector":"1"}},{"base_weights":[5.2834496E-2,1.4412067E0,9.518275E-3,-1.9128455E-2,2.1732872E0,5.374054E-1,-1.569438E-2,-5.4545157E-2,2.3693258E-2,3.864045E0,1.2675922E0,2.855505E-1,8.739536E-1,1.3452917E-1,-3.38873E-2,3.5777588E-3,-2.8345905E-2,1.4244679E0,3.1435233E-1,-4.986551E-1,2.4270716E0,6.180349E-1,9.381641E-2,3.73121E-1,-3.6969412E-2,1.6876313E-1,-4.630304E-2,3.3168823E-2,-3.1558834E-2,-2.3487179E-1,5.3114608E-2,4.7453646E-2,8.864251E-1,-1.2507681E-2,3.170961E-1,4.0138018E-1,-2.880941E-2,-5.211965E-2,7.453704E-2,1.2355665E0,1.5618903E-2,3.814511E-3,-5.1268943E-2,-1.79067E-2,2.590223E-1,2.0884082E-1,5.123364E-1,-5.809275E-2,-3.0671947E-2,4.074744E-2,2.6498558E-3,8.8275865E-2,4.6772906E-1,4.187145E-1,-7.006537E-2,-5.5188783E-2,3.806727E-1,-1.21303976E-1,-4.7812216E-2,1.4065261E-1,-2.409257E-2,2.7909786E-1,9.681563E-2,5.506307E-1,1.3664854E-2,-4.491595E-3,-1.787228E-2,-1.5645504E-2,6.753451E-3,-1.6596043E-2,2.7612278E-1,3.2683432E-2,-8.606287E-2,-1.4462642E-2,-2.4971666E-2,-4.7918737E-2,2.0471197E-1,-4.920817E-2,-1.8041116E-1,-4.406957E-2,-1.0238804E-1,1.09107785E-1,1.0147047E-1,7.3010447E-3,3.2655343E-2,2.478191E-1,3.976385E-1,-8.838754E-2,-5.646361E-2,1.0978282E-4,-2.1673216E-2,-5.553241E-2,5.89968E-3,-4.7042947E-2,-8.752564E-3,-4.0034217E-1,-4.9953807E-2,-4.7630314E-3,5.0424743E-2,4.2125642E-1,3.1304277E-2,-2.1528631E-2,-1.3232721E-2,-2.0058796E-2,-1.1603072E-2,-6.831712E-2,-4.5071077E-2,-4.335861E-2,6.1432034E-2,-2.251903E-2,-1.5763494E-1,2.1744786E-2,-6.0782645E-2,1.4936438E-1,2.2016132E-1,-1.6301213E-2,-5.6380756E-2,-6.0011137E-2,-4.208197E-2,-2.1783842E-2,-6.760409E-2,-1.5154819E-2,1.2573248E-1,-7.4607044E-2,-2.840044E-2,7.6090485E-2,1.7961074E-2,-6.149687E-2,-1.970244E-2,-2.1302824E-4,-4.4794712E-2,-4.3666992E-2,2.7428418E-2,-1.7606765E-2,-3.3959918E-2,1.6683538E-2,-1.4024827E-2,1.5343827E-2,4.7522414E-2,-1.1553406E-2,-9.488806E-2,2.1036513E-2,-1.6952325E-2,-1.5903516E-2,-2.5732838E-2,-1.2385258E-2,3.51916E-3,1.9000934E-2,-6.413531E-3,6.183617E-3,-1.3743811E-2,-3.393084E-4,-1.4874595E-2,2.0015656E-3,1.3454703E-2,1.188773E-3,-9.992155E-3,-8.226911E-3,-3.0468518E-2],"categories":[],"categories_nodes":[],"categories_segments":[],"categories_sizes":[],"default_left":[0,0,0,0,0,0,0,0,0,0,0,0,0,0,0,0,0,0,0,0,0,0,0,0,0,0,0,0,0,0,0,0,0,0,0,0,0,0,0,0,0,0,0,0,0,0,0,0,0,0,0,0,0,0,0,0,0,0,0,0,0,0,0,0,0,0,0,0,0,0,0,0,0,0,0,0,0,0,0,0,0,0,0,0,0,0,0,0,0,0,0,0,0,0,0,0,0,0,0,0,0,0,0,0,0,0,0,0,0,0,0,0,0,0,0,0,0,0,0,0,0,0,0,0,0,0,0,0,0,0,0,0,0,0,0,0,0,0,0,0,0,0,0,0,0,0,0,0,0,0,0,0,0,0,0,0,0,0,0],"id":7,"left_children":[1,3,5,7,9,11,13,15,-1,17,19,21,-1,23,25,27,-1,-1,-1,29,31,-1,33,35,37,39,41,-1,-1,-1,-1,-1,-1,43,-1,45,-1,47,49,51,53,55,57,-1,59,61,63,65,67,-1,-1,-1,-1,69,71,73,75,77,79,-1,-1,81,83,85,-1,-1,-1,-1,-1,-1,-1,-1,87,-1,-1,89,-1,91,-1,93,95,-1,97,-1,-1,-1,99,-1,101,-1,-1,103,-1,105,107,109,111,-1,-1,113,-1,-1,-1,-1,-1,115,117,119,121,-1,-1,-1,123,-1,125,-1,-1,127,129,131,133,135,137,139,141,-1,-1,143,145,147,149,151,153,155,-1,-1,-1,-1,-1,-1,157,-1,-1,-1,-1,-1,-1,-1,-1,-1,-1,-1,-1,-1,-1,-1,-1,-1,-1],"loss_changes":[2.9815245E1,1.6077818E1,6.423582E0,2.5155382E-2,1.0415073E1,1.2331839E1,1.2644743E0,1.1945543E-2,0E0,2.4947205E0,1.7593689E1,6.9518676E0,0E0,2.059702E0,1.044429E0,4.654228E-2,0E0,0E0,0E0,9.0689E-1,5.518852E0,0E0,2.0613852E0,3.169601E-1,5.456532E-2,3.9016964E0,9.700942E-2,0E0,0E0,0E0,0E0,0E0,0E0,2.5887248E-1,0E0,3.2027197E-1,0E0,1.6771331E-3,1.4907729E-2,4.5486164E-1,7.891944E-1,8.215003E-1,7.990068E-2,0E0,2.5124696E-1,4.3813974E-2,1.894226E-1,3.857389E-4,1.0312945E-2,0E0,0E0,0E0,0E0,1.0021999E0,6.378666E-2,2.2524074E-3,6.7922974E-1,5.241802E-1,6.47313E-2,0E0,0E0,3.8227677E-2,1.7125048E-3,1.3505483E-1,0E0,0E0,0E0,0E0,0E0,0E0,0E0,0E0,9.44836E-2,0E0,0E0,3.5500568E-3,0E0,7.6256916E-3,0E0,3.3086717E-2,3.0808425E-1,0E0,2.6118813E-2,0E0,0E0,0E0,1.8385172E-2,0E0,4.773587E-5,0E0,0E0,8.763373E-5,0E0,9.254158E-3,6.581271E-2,8.2642525E-2,2.9596716E-2,0E0,0E0,1.3656735E-2,0E0,0E0,0E0,0E0,0E0,2.8249584E-2,9.621501E-3,7.942952E-3,4.6226572E-2,0E0,0E0,0E0,5.9390888E-3,0E0,6.2768906E-3,0E0,0E0,1.3635308E-3,2.6113749E-2,1.3043828E-2,1.6244195E-2,1.3779031E-2,4.0838122E-3,5.1304176E-3,2.3346765E-2,0E0,0E0,3.8994104E-3,2.5194217E-3,2.1529794E-2,1.5326351E-2,1.9567208E-3,1.1471368E-3,1.8252209E-3,0E0,0E0,0E0,0E0,0E0,0E0,3.665462E-4,0E0,0E0,0E0,0E0,0E0,0E0,0E0,0E0,0E0,0E0,0E0,0E0,0E0,0E0,0E0,0E0,0E0,0E0],"parents":[2147483647,0,0,1,1,2,2,3,3,4,4,5,5,6,6,7,7,9,9,10,10,11,11,13,13,14,14,15,15,19,19,20,20,22,22,23,23,24,24,25,25,26,26,33,33,35,35,37,37,38,38,39,39,40,40,41,41,42,42,44,44,45,45,46,46,47,47,48,48,53,53,54,54,55,55,56,56,57,57,58,58,61,61,62,62,63,63,72,72,75,75,77,77,79,79,80,80,82,82,86,86,88,88,91,91,93,93,94,94,95,95,96,96,99,99,105,105,106,106,107,107,108,108,112,112,114,114,117,117,118,118,119,119,120,120,121,121,122,122,123,123,124,124,127,127,128,128,129,129,130,130,131,131,132,132,133,133,140,140],"right_children":[2,4,6,8,10,12,14,16,-1,18,20,22,-1,24,26,28,-1,-1,-1,30,32,-1,34,36,38,40,42,-1,-1,-1,-1,-1,-1,44,-1,46,-1,48,50,52,54,56,58,-1,60,62,64,66,68,-1,-1,-1,-1,70,72,74,76,78,80,-1,-1,82,84,86,-1,-1,-1,-1,-1,-1,-1,-1,88,-1,-1,90,-1,92,-1,94,96,-1,98,-1,-1,-1,100,-1,102,-1,-1,104,-1,106,108,110,112,-1,-1,114,-1,-1,-1,-1,-1,116,118,120,122,-1,-1,-1,124,-1,126,-1,-1,128,130,132,134,136,138,140,142,-1,-1,144,146,148,150,152,154,156,-1,-1,-1,-1,-1,-1,158,-1,-1,-1,-1,-1,-1,-1,-1,-1,-1,-1,-1,-1,-1,-1,-1,-1,-1],"split_conditions":[-1.5939443E0,-4.774529E-1,-1.5932894E0,-4.776893E-1,1.0853081E0,-4.760684E-1,-1.606841E0,-4.777906E-1,2.3693258E-2,-4.772503E-1,-4.7616974E-1,1.000746E0,8.739536E-1,-4.8286885E-1,-1.5926343E0,-1.4318752E0,-2.8345905E-2,1.4244679E0,3.1435233E-1,-4.7637233E-1,1.0876143E0,6.180349E-1,1.1879356E0,-3.75235E-1,1.6174536E0,1.0272677E0,-1.1773719E0,3.3168823E-2,-3.1558834E-2,-2.3487179E-1,5.3114608E-2,4.7453646E-2,8.864251E-1,-4.7627103E-1,3.170961E-1,-4.0444434E-1,-2.880941E-2,1.0316361E0,-4.3037924E-1,1.0103552E0,-1.4340055E0,-1.0574211E0,-1.2501979E0,-1.79067E-2,-1.431571E0,-1.6395127E0,-3.465192E-1,-4.4952676E-1,-4.3037924E-1,4.074744E-2,2.6498558E-3,8.8275865E-2,4.6772906E-1,-1.4352227E0,1.0514832E0,-1.5710198E0,-4.7589958E-1,1.6182603E0,2.6128416E0,1.4065261E-1,-2.409257E-2,-3.5568905E-1,-3.750112E-1,-3.9063427E-1,1.3664854E-2,-4.491595E-3,-1.787228E-2,-1.5645504E-2,6.753451E-3,-1.6596043E-2,2.7612278E-1,3.2683432E-2,1.0653206E0,-1.4462642E-2,-2.4971666E-2,-5.6667435E-1,2.0471197E-1,1.2997212E0,-1.8041116E-1,1.5498022E0,3.5903162E-1,1.09107785E-1,-4.0535712E-1,7.3010447E-3,3.2655343E-2,2.478191E-1,-3.7526554E-1,-8.838754E-2,1.1544952E0,1.0978282E-4,-2.1673216E-2,-4.3568188E-1,5.89968E-3,-5.5852926E-1,7.2405905E-1,-4.3753806E-1,-4.2085665E-1,-4.7630314E-3,5.0424743E-2,-3.6368426E-2,3.1304277E-2,-2.1528631E-2,-1.3232721E-2,-2.0058796E-2,-1.1603072E-2,-4.2652968E-1,-4.3588343E-1,4.1449153E-1,-4.3419608E-1,-2.251903E-2,-1.5763494E-1,2.1744786E-2,5.557258E-2,1.4936438E-1,-3.7685585E-1,-1.6301213E-2,-5.6380756E-2,6.317057E-1,-4.3449894E-1,4.082261E-1,2.6023855E0,-4.348366E-1,-4.2389578E-1,-4.1238087E-1,-3.6415908E-1,7.6090485E-2,1.7961074E-2,-4.3726897E-1,-4.3973297E-1,6.100911E-1,-5.569629E-1,-5.572762E-1,-4.1937086E-1,-4.2031637E-1,-3.3959918E-2,1.6683538E-2,-1.4024827E-2,1.5343827E-2,4.7522414E-2,-1.1553406E-2,5.216677E-1,2.1036513E-2,-1.6952325E-2,-1.5903516E-2,-2.5732838E-2,-1.2385258E-2,3.51916E-3,1.9000934E-2,-6.413531E-3,6.183617E-3,-1.3743811E-2,-3.393084E-4,-1.4874595E-2,2.0015656E-3,1.3454703E-2,1.188773E-3,-9.992155E-3,-8.226911E-3,-3.0468518E-2],"split_indices":[2,0,2,0,7,0,7,0,0,0,0,7,0,6,2,4,0,0,0,0,7,0,7,0,1,7,2,0,0,0,0,0,0,0,0,0,0,1,0,7,4,3,4,0,4,7,2,0,0,0,0,0,0,4,7,2,0,0,6,0,0,2,2,0,0,0,0,0,0,0,0,0,7,0,0,1,0,0,0,6,4,0,0,0,0,0,1,0,7,0,0,0,0,1,2,0,0,0,0,3,0,0,0,0,0,0,0,1,0,0,0,0,7,0,0,0,0,2,0,1,6,0,0,0,0,0,0,0,0,2,1,1,0,0,0,0,0,0,0,0,2,0,0,0,0,0,0,0,0,0,0,0,0,0,0,0,0,0,0],"split_type":[0,0,0,0,0,0,0,0,0,0,0,0,0,0,0,0,0,0,0,0,0,0,0,0,0,0,0,0,0,0,0,0,0,0,0,0,0,0,0,0,0,0,0,0,0,0,0,0,0,0,0,0,0,0,0,0,0,0,0,0,0,0,0,0,0,0,0,0,0,0,0,0,0,0,0,0,0,0,0,0,0,0,0,0,0,0,0,0,0,0,0,0,0,0,0,0,0,0,0,0,0,0,0,0,0,0,0,0,0,0,0,0,0,0,0,0,0,0,0,0,0,0,0,0,0,0,0,0,0,0,0,0,0,0,0,0,0,0,0,0,0,0,0,0,0,0,0,0,0,0,0,0,0,0,0,0,0,0,0],"sum_hessian":[4.95E2,1.4E1,4.81E2,5E0,9E0,2.1E1,4.6E2,4E0,1E0,2E0,7E0,2E1,1E0,4.9E1,4.11E2,2E0,2E0,1E0,1E0,3E0,4E0,1E0,1.9E1,2E1,2.9E1,2.3E1,3.88E2,1E0,1E0,2E0,1E0,1E0,3E0,1.8E1,1E0,1.9E1,1E0,2.6E1,3E0,2E0,2.1E1,3.5E1,3.53E2,1.6E1,2E0,8E0,1.1E1,1.9E1,7E0,1E0,2E0,1E0,1E0,3E0,1.8E1,3.1E1,4E0,1.5E1,3.38E2,1E0,1E0,4E0,4E0,1E1,1E0,1E0,1.8E1,5E0,2E0,2E0,1E0,1E0,1.7E1,2.7E1,4E0,2E0,2E0,1.4E1,1E0,3.18E2,2E1,2E0,2E0,1E0,3E0,2E0,8E0,1E0,1.6E1,1E0,1E0,1.3E1,1E0,2.93E2,2.5E1,2E0,1.8E1,1E0,1E0,7E0,1E0,5E0,1.1E1,6E0,7E0,2.2E1,2.71E2,1.7E1,8E0,1E0,1E0,1E0,1.7E1,4E0,3E0,2.1E1,1E0,4.2E1,2.29E2,1E1,7E0,4E0,4E0,1.1E1,6E0,2E0,1E0,4E1,2E0,1.4E1,2.15E2,7E0,3E0,4E0,3E0,1E0,3E0,2E0,2E0,5E0,6E0,1E0,5E0,3.2E1,8E0,1E0,1E0,3E0,1.1E1,3E0,2.12E2,1E0,6E0,2E0,1E0,2E0,2E0,1E0,5E0],"tree_param":{"num_deleted":"0","num_feature":"8","num_nodes":"159","size_leaf_vector":"1"}},{"base_weights":[4.801798E-2,7.723431E-1,-8.649531E-3,1.3818884E-1,1.5563991E0,1.08455665E-1,-2.2840332E-2,5.253296E-1,-3.0011589E-2,3.2844384E0,1.0749336E0,2.9461902E-1,-2.5473874E-2,1.4834529E-1,-3.3343196E-2,2.013927E-2,-3.8657557E-2,1.2107978E0,2.6719952E-1,3.1994945E-1,2.3699152E0,3.1751263E-1,-2.4487996E-2,-3.764138E-2,6.3025266E-2,1.0502315E0,1.8617842E-2,6.6622226E-3,-3.7317354E-2,-2.1489356E-2,-5.1960003E-2,-2.6105097E-1,7.5079155E-1,1.0633229E0,1.21634774E-1,1.5308541E-1,3.942746E-1,-3.1161385E-2,-2.0133303E-2,3.463533E-2,2.119887E-3,7.503448E-2,3.975697E-1,3.5798186E-1,-5.3807102E-2,-3.986447E-2,3.0310062E-1,-9.4254754E-2,-3.4165453E-2,-4.4761136E-2,2.8193505E-2,-5.789415E-2,2.1710528E-4,-1.4360614E-1,-2.6091045E-2,2.9406524E-1,3.3284885E-1,1.9044554E-1,2.7336678E-2,4.2067796E-1,1.161511E-2,-3.645004E-2,5.402762E-3,-1.3276836E-2,2.3470439E-1,2.778091E-2,-6.708561E-2,-3.3954944E-2,-6.498492E-2,-4.0730927E-2,1.6376959E-1,-3.926963E-2,-3.560905E-1,-3.0927699E-2,-8.141324E-2,-2.6825005E-2,-8.400633E-3,-7.4102636E-3,-2.1112192E-2,-2.0687233E-1,2.695317E-1,6.745273E-2,8.7286234E-2,1.6350068E-2,-4.048562E-3,4.4279498E-1,2.6608624E-2,-3.789768E-2,-4.3947254E-3,-7.512941E-2,-4.156931E-2,-8.319511E-3,-1.2715082E-2,-2.1724578E-2,-5.2895388E-3,9.3314055E-5,-1.8422231E-2,-4.4116374E-2,5.0147297E-3,-1.5334947E-1,-6.89125E-3,-3.310886E-2,-5.242025E-3,-3.4029084E-1,-3.6252923E-2,-1.3824E-1,4.5147445E-2,6.205881E-3,2.2843838E-2,2.9477049E-2,1.4022695E-1,-5.6455904E-3,-1.2047278E-2,-5.382157E-2,-3.1979073E-2,-2.8687289E-2,-1.5364488E-2,-3.63422E-2,-2.272446E-2,-3.2713298E-2,5.028297E-2,-1.9141177E-2,-1.339897E-1,1.8483067E-2,-4.5112554E-2,-3.979979E-3,-1.7783774E-2,-2.0111319E-2,-1.2148482E-2,2.0810317E-3,-1.2423247E-2,-4.0462993E-2,-2.560115E-2,4.5901265E-2,-3.2019883E-2,-1.5226656E-2,-5.266827E-2,-1.0076627E-2,1.00585975E-1,-6.7270935E-2,-2.8427452E-2,-8.21582E-3,-1.1724206E-2,1.2956858E-4,8.0689567E-4,-3.4746073E-2,-5.36271E-2,1.5400482E-2,-4.07592E-2,-1.186504E-2,6.1526455E-2,-2.0192493E-2,-5.8969364E-2,-3.2468632E-2,2.3063958E-2,-5.449623E-3,-7.990953E-2,1.41810095E-2,-1.086924E-2,1.2275059E-2,3.8017932E-2,-9.650294E-3,-8.555649E-2,1.8644102E-2,-1.3856861E-2,3.6790583E-3,-6.9658207E-3,-3.9300244E-2,4.360211E-2,-6.268441E-2,-4.4249E-2,-4.7260784E-3,8.7024964E-2,-2.3505881E-2,-3.641524E-2,-8.810428E-3,7.870683E-2,-3.887295E-2,3.5974883E-2,-1.0045766E-1,-3.2093406E-2,-3.961384E-2,-2.2066005E-3,5.3374968E-3,1.14365015E-2,9.5102197E-4,-4.696307E-3,-7.294281E-3,-2.6318936E-2,-2.9560683E-2,-6.9928747E-3,-4.46305E-3,1.7881036E-2,2.0927077E-3,-4.3713136E-4,-1.0048582E-2,-2.2265714E-2,-1.983412E-2,-9.474404E-3,-1.2226995E-3,-1.37078725E-2,9.501546E-3,-9.75313E-3,-2.7891353E-3,3.666941E-2,1.985431E-2,-1.2102089E-2,4.13373E-2,1.3768292E-2,-1.4129422E-2,1.09938765E-2,2.1788644E-2,-1.6647052E-2,-1.6590586E-2,-5.5708792E-2,3.4978765E-3,-1.8268945E-2,-2.88409E-4,-1.4145619E-2,2.0431818E-3,3.5869182E-4],"categories":[],"categories_nodes":[],"categories_segments":[],"categories_sizes":[],"default_left":[0,0,0,0,0,0,0,0,0,0,0,0,0,0,0,0,0,0,0,0,0,0,0,0,0,0,0,0,0,0,0,0,0,0,0,0,0,0,0,0,0,0,0,0,0,0,0,0,0,0,0,0,0,0,0,0,0,0,0,0,0,0,0,0,0,0,0,0,0,0,0,0,0,0,0,0,0,0,0,0,0,0,0,0,0,0,0,0,0,0,0,0,0,0,0,0,0,0,0,0,0,0,0,0,0,0,0,0,0,0,0,0,0,0,0,0,0,0,0,0,0,0,0,0,0,0,0,0,0,0,0,0,0,0,0,0,0,0,0,0,0,0,0,0,0,0,0,0,0,0,0,0,0,0,0,0,0,0,0,0,0,0,0,0,0,0,0,0,0,0,0,0,0,0,0,0,0,0,0,0,0,0,0,0,0,0,0,0,0,0,0,0,0,0,0,0,0,0,0,0,0,0,0,0,0,0,0,0,0,0,0,0,0,0,0,0,0,0,0,0,0],"id":8,"left_children":[1,3,5,7,9,11,13,-1,15,17,19,21,23,25,27,-1,29,-1,-1,31,33,35,-1,37,39,41,43,45,47,49,51,53,55,-1,-1,57,59,61,-1,-1,-1,-1,-1,63,65,67,69,71,73,75,-1,77,-1,-1,-1,79,-1,81,83,85,-1,87,-1,-1,-1,-1,89,91,93,95,-1,97,99,101,103,-1,-1,-1,-1,105,-1,107,-1,-1,-1,109,-1,111,-1,-1,113,-1,-1,-1,-1,-1,-1,115,-1,-1,-1,117,119,121,123,-1,-1,-1,-1,-1,-1,-1,-1,125,127,129,-1,131,133,135,137,-1,-1,-1,139,-1,-1,141,-1,143,-1,145,147,149,151,153,155,157,159,161,163,-1,165,-1,-1,167,169,171,173,-1,175,177,179,181,183,185,187,-1,-1,-1,-1,-1,189,191,-1,193,-1,195,-1,197,199,201,203,-1,205,-1,207,209,211,213,215,217,-1,219,-1,-1,-1,-1,-1,-1,-1,-1,-1,-1,-1,-1,-1,-1,-1,-1,-1,-1,-1,-1,-1,-1,-1,-1,-1,-1,-1,-1,-1,-1,-1,-1,-1,-1,-1,-1,-1],"loss_changes":[2.0365347E1,1.7684574E1,7.6857466E-1,5.7496877E0,9.781307E0,1.254144E0,7.4569744E-1,0E0,1.939293E-2,1.802433E0,1.2929413E1,2.0680344E-1,3.4676775E-2,2.7884324E0,6.2094867E-2,0E0,3.2226183E-3,0E0,0E0,2.6991894E0,1.0099194E1,1.9207764E-1,0E0,3.0647293E-3,1.0918973E-2,3.2863784E-1,5.599872E-1,5.086056E-1,6.0308963E-2,3.1077972E-2,3.1682234E-3,1.4779991E-1,6.5671444E-1,0E0,0E0,3.2377765E-2,1.0575557E-1,6.8975426E-3,0E0,0E0,0E0,0E0,0E0,7.1740824E-1,4.3150388E-2,2.5438368E-3,4.3964303E-1,2.4516377E-1,4.903522E-2,4.2315945E-3,0E0,1.9899178E-3,0E0,0E0,0E0,1.3968761E0,0E0,5.4545343E-2,4.062908E-3,4.8835516E-2,0E0,1.391545E-4,0E0,0E0,0E0,0E0,7.379924E-2,2.9333308E-4,4.8243627E-4,2.564915E-3,0E0,5.078988E-3,1.4323309E-1,1.758629E-2,2.3317434E-1,0E0,0E0,0E0,0E0,3.415801E-1,0E0,5.1056966E-5,0E0,0E0,0E0,4.7411203E-2,0E0,1.06628984E-4,0E0,0E0,2.7636997E-4,0E0,0E0,0E0,0E0,0E0,0E0,1.7365068E-4,0E0,0E0,0E0,8.978397E-3,4.130382E-2,5.970919E-2,1.9252991E-2,0E0,0E0,0E0,0E0,0E0,0E0,0E0,0E0,5.4158084E-4,3.9836392E-4,2.8265496E-3,0E0,8.745909E-3,4.739892E-2,5.4790583E-3,2.8339991E-2,0E0,0E0,0E0,4.7425292E-3,0E0,0E0,1.060192E-4,0E0,1.8494475E-6,0E0,1.0027438E-2,4.0404014E-2,1.4450131E-2,1.9208752E-2,8.0111185E-3,9.854885E-3,9.2119025E-3,2.6136376E-3,1.7410293E-3,1.0894229E-2,0E0,9.707432E-4,0E0,0E0,9.838827E-2,1.1335313E-3,2.6359268E-2,4.82212E-3,0E0,1.48042925E-2,4.9663134E-2,1.796168E-2,1.1441447E-3,8.642054E-4,4.014722E-4,4.07584E-5,0E0,0E0,0E0,0E0,0E0,9.348132E-4,6.3786935E-3,0E0,6.096045E-5,0E0,2.0013988E-2,0E0,1.5195459E-4,1.3219453E-3,1.6199045E-2,1.4701014E-2,0E0,2.0388376E-2,0E0,7.247079E-3,2.3466382E-2,4.4260822E-2,1.6673625E-2,1.7092897E-2,1.7028954E-3,0E0,1.0161195E-5,0E0,0E0,0E0,0E0,0E0,0E0,0E0,0E0,0E0,0E0,0E0,0E0,0E0,0E0,0E0,0E0,0E0,0E0,0E0,0E0,0E0,0E0,0E0,0E0,0E0,0E0,0E0,0E0,0E0,0E0,0E0,0E0,0E0,0E0,0E0,0E0,0E0],"parents":[2147483647,0,0,1,1,2,2,3,3,4,4,5,5,6,6,8,8,9,9,10,10,11,11,12,12,13,13,14,14,16,16,19,19,20,20,21,21,23,23,24,24,25,25,26,26,27,27,28,28,29,29,30,30,31,31,32,32,35,35,36,36,37,37,43,43,44,44,45,45,46,46,47,47,48,48,49,49,51,51,55,55,57,57,58,58,59,59,61,61,66,66,67,67,68,68,69,69,71,71,72,72,73,73,74,74,79,79,81,81,85,85,87,87,90,90,97,97,101,101,102,102,103,103,104,104,113,113,114,114,115,115,117,117,118,118,119,119,120,120,124,124,127,127,129,129,131,131,132,132,133,133,134,134,135,135,136,136,137,137,138,138,139,139,140,140,142,142,145,145,146,146,147,147,148,148,150,150,151,151,152,152,153,153,154,154,155,155,156,156,162,162,163,163,165,165,167,167,169,169,170,170,171,171,172,172,174,174,176,176,177,177,178,178,179,179,180,180,181,181,183,183],"right_children":[2,4,6,8,10,12,14,-1,16,18,20,22,24,26,28,-1,30,-1,-1,32,34,36,-1,38,40,42,44,46,48,50,52,54,56,-1,-1,58,60,62,-1,-1,-1,-1,-1,64,66,68,70,72,74,76,-1,78,-1,-1,-1,80,-1,82,84,86,-1,88,-1,-1,-1,-1,90,92,94,96,-1,98,100,102,104,-1,-1,-1,-1,106,-1,108,-1,-1,-1,110,-1,112,-1,-1,114,-1,-1,-1,-1,-1,-1,116,-1,-1,-1,118,120,122,124,-1,-1,-1,-1,-1,-1,-1,-1,126,128,130,-1,132,134,136,138,-1,-1,-1,140,-1,-1,142,-1,144,-1,146,148,150,152,154,156,158,160,162,164,-1,166,-1,-1,168,170,172,174,-1,176,178,180,182,184,186,188,-1,-1,-1,-1,-1,190,192,-1,194,-1,196,-1,198,200,202,204,-1,206,-1,208,210,212,214,216,218,-1,220,-1,-1,-1,-1,-1,-1,-1,-1,-1,-1,-1,-1,-1,-1,-1,-1,-1,-1,-1,-1,-1,-1,-1,-1,-1,-1,-1,-1,-1,-1,-1,-1,-1,-1,-1,-1,-1],"split_conditions":[-1.5932894E0,-4.774529E-1,-1.606841E0,1.000746E0,1.0853081E0,-4.8286885E-1,-1.5926343E0,5.253296E-1,-1.5949268E0,-4.772503E-1,-4.760684E-1,-3.75235E-1,1.6174536E0,1.0272677E0,-1.1773719E0,2.013927E-2,1.1076016E0,1.2107978E0,2.6719952E-1,1.1199017E0,-4.7583205E-1,-4.0481684E-1,-2.4487996E-2,-2.023117E0,-4.3037924E-1,1.0103552E0,-1.4340055E0,-1.0574211E0,-1.2498935E0,1.094533E0,-4.7758797E-1,-4.772503E-1,-4.7616974E-1,1.0633229E0,1.21634774E-1,-3.5568905E-1,-2.0884652E-2,-4.247062E-1,-2.0133303E-2,3.463533E-2,2.119887E-3,7.503448E-2,3.975697E-1,-1.4352227E0,1.0514832E0,-1.1316262E0,-4.7589958E-1,1.6182603E0,2.6128416E0,-1.5939443E0,2.8193505E-2,-4.7782436E-1,2.1710528E-4,-1.4360614E-1,-2.6091045E-2,-1.5939443E0,3.3284885E-1,-3.6715135E-1,-4.057961E-1,-3.7526554E-1,1.161511E-2,-2.0284982E0,5.402762E-3,-1.3276836E-2,2.3470439E-1,2.778091E-2,1.0653206E0,9.584649E-1,1.0068959E0,-5.6667435E-1,1.6376959E-1,1.2997212E0,4.0164742E-1,1.5498022E0,3.5903162E-1,-2.6825005E-2,-8.400633E-3,-7.4102636E-3,-2.1112192E-2,-4.7637233E-1,2.695317E-1,-4.057961E-1,8.7286234E-2,1.6350068E-2,-4.048562E-3,-3.8810965E-1,2.6608624E-2,-4.4935793E-1,-4.3947254E-3,-7.512941E-2,1.1544952E0,-8.319511E-3,-1.2715082E-2,-2.1724578E-2,-5.2895388E-3,9.3314055E-5,-1.8422231E-2,-1.0220712E0,5.0147297E-3,-1.5334947E-1,-6.89125E-3,1.0939578E0,7.2405905E-1,-4.3753806E-1,-4.2085665E-1,-1.3824E-1,4.5147445E-2,6.205881E-3,2.2843838E-2,2.9477049E-2,1.4022695E-1,-5.6455904E-3,-1.2047278E-2,-1.1479865E0,1.1829388E0,1.4577656E0,-1.5364488E-2,6.9853854E-1,1.1520939E0,4.1449153E-1,-4.3419608E-1,-1.9141177E-2,-1.339897E-1,1.8483067E-2,4.126119E-1,-3.979979E-3,-1.7783774E-2,-4.7812828E-1,-1.2148482E-2,-4.0640393E-1,-1.2423247E-2,-3.2643914E-1,1.8797313E0,1.1281868E0,-5.5477005E-1,4.082261E-1,2.588444E0,-4.348366E-1,-4.2389578E-1,-4.188981E-1,-3.6415908E-1,-8.21582E-3,-4.7762176E-1,1.2956858E-4,8.0689567E-4,1.3086748E0,-3.234338E-1,2.3147955E0,6.536571E-1,-1.186504E-2,-4.9117595E-1,1.2405173E0,-2.5245342E-1,4.0446687E-1,-4.1937086E-1,-4.2031637E-1,-4.188981E-1,1.41810095E-2,-1.086924E-2,1.2275059E-2,3.8017932E-2,-9.650294E-3,-4.117393E-1,-4.1238087E-1,-1.3856861E-2,-4.7802696E-1,-6.9658207E-3,7.859555E-1,4.360211E-2,-4.8804322E-1,-3.2299587E-1,2.017501E0,-1.0346336E0,-2.3505881E-2,1.9363941E0,-8.810428E-3,1.0945663E0,-4.7639975E-1,-2.4418023E-1,-3.2245559E-1,-2.4667907E-1,-5.572762E-1,-2.2066005E-3,4.1104555E-1,1.14365015E-2,9.5102197E-4,-4.696307E-3,-7.294281E-3,-2.6318936E-2,-2.9560683E-2,-6.9928747E-3,-4.46305E-3,1.7881036E-2,2.0927077E-3,-4.3713136E-4,-1.0048582E-2,-2.2265714E-2,-1.983412E-2,-9.474404E-3,-1.2226995E-3,-1.37078725E-2,9.501546E-3,-9.75313E-3,-2.7891353E-3,3.666941E-2,1.985431E-2,-1.2102089E-2,4.13373E-2,1.3768292E-2,-1.4129422E-2,1.09938765E-2,2.1788644E-2,-1.6647052E-2,-1.6590586E-2,-5.5708792E-2,3.4978765E-3,-1.8268945E-2,-2.88409E-4,-1.4145619E-2,2.0431818E-3,3.5869182E-4],"split_indices":[2,0,7,7,7,6,2,0,2,0,0,0,1,7,2,0,7,0,0,7,0,0,0,7,0,7,4,3,4,7,0,0,0,0,0,2,3,0,0,0,0,0,0,4,7,3,0,0,6,2,0,0,0,0,0,2,0,2,0,1,0,7,0,0,0,0,7,7,7,1,0,0,1,6,4,0,0,0,0,0,0,0,0,0,0,1,0,0,0,0,7,0,0,0,0,0,0,3,0,0,0,4,2,0,0,0,0,0,0,0,0,0,0,3,7,7,0,0,2,1,0,0,0,0,1,0,0,0,0,0,0,0,0,2,1,1,6,0,0,0,0,0,0,0,0,3,0,1,7,0,1,2,0,1,0,0,0,0,0,0,0,0,0,0,0,0,0,2,0,1,0,1,3,0,0,0,4,7,0,0,0,1,0,1,0,0,0,0,0,0,0,0,0,0,0,0,0,0,0,0,0,0,0,0,0,0,0,0,0,0,0,0,0,0,0,0,0,0,0,0,0],"split_type":[0,0,0,0,0,0,0,0,0,0,0,0,0,0,0,0,0,0,0,0,0,0,0,0,0,0,0,0,0,0,0,0,0,0,0,0,0,0,0,0,0,0,0,0,0,0,0,0,0,0,0,0,0,0,0,0,0,0,0,0,0,0,0,0,0,0,0,0,0,0,0,0,0,0,0,0,0,0,0,0,0,0,0,0,0,0,0,0,0,0,0,0,0,0,0,0,0,0,0,0,0,0,0,0,0,0,0,0,0,0,0,0,0,0,0,0,0,0,0,0,0,0,0,0,0,0,0,0,0,0,0,0,0,0,0,0,0,0,0,0,0,0,0,0,0,0,0,0,0,0,0,0,0,0,0,0,0,0,0,0,0,0,0,0,0,0,0,0,0,0,0,0,0,0,0,0,0,0,0,0,0,0,0,0,0,0,0,0,0,0,0,0,0,0,0,0,0,0,0,0,0,0,0,0,0,0,0,0,0,0,0,0,0,0,0,0,0,0,0,0,0],"sum_hessian":[4.95E2,3.5E1,4.6E2,2E1,1.5E1,4.9E1,4.11E2,1E0,1.9E1,2E0,1.3E1,2E1,2.9E1,2.3E1,3.88E2,1E0,1.8E1,1E0,1E0,9E0,4E0,1.9E1,1E0,2.6E1,3E0,2E0,2.1E1,3.5E1,3.53E2,9E0,9E0,4E0,5E0,2E0,2E0,7E0,1.2E1,2.3E1,3E0,1E0,2E0,1E0,1E0,3E0,1.8E1,3.1E1,4E0,1.7E1,3.36E2,8E0,1E0,8E0,1E0,1E0,3E0,3E0,2E0,5E0,2E0,1.1E1,1E0,2.1E1,2E0,2E0,1E0,1E0,1.7E1,2.7E1,4E0,2E0,2E0,1.5E1,2E0,3.16E2,2E1,1E0,7E0,3E0,5E0,2E0,1E0,3E0,2E0,1E0,1E0,1E1,1E0,1.9E1,2E0,1E0,1.6E1,1.8E1,9E0,3E0,1E0,1E0,1E0,1.4E1,1E0,1E0,1E0,2.91E2,2.5E1,2E0,1.8E1,1E0,1E0,1E0,2E0,1E0,9E0,3E0,1.6E1,5E0,1.1E1,6E0,8E0,2.2E2,7.1E1,1.7E1,8E0,1E0,1E0,1E0,1.7E1,1E0,4E0,6E0,5E0,2E0,4E0,1.57E2,6.3E1,8E0,6.3E1,1E1,7E0,4E0,4E0,6E0,1.1E1,2E0,4E0,1E0,1E0,1.12E2,4.5E1,1.7E1,4.6E1,1E0,7E0,4.5E1,1.8E1,7E0,3E0,3E0,4E0,1E0,3E0,2E0,2E0,3E0,3E0,3E0,8E0,2E0,2E0,1.1E2,2E0,2E1,2.5E1,1.4E1,3E0,3E0,4.3E1,1E0,6E0,3.4E1,1.1E1,6E0,1.2E1,5E0,2E0,2E0,1E0,2E0,1E0,1E0,3E0,2E0,1E0,2E0,1E0,1E0,1E0,9.6E1,1.4E1,1.7E1,3E0,1E0,2.4E1,6E0,8E0,1E0,2E0,1E0,4.2E1,1E0,5E0,3.1E1,3E0,8E0,3E0,5E0,1E0,5E0,7E0,1E0,4E0,1E0,1E0],"tree_param":{"num_deleted":"0","num_feature":"8","num_nodes":"221","size_leaf_vector":"1"}},{"base_weights":[4.1890197E-2,6.382146E-1,-4.7683013E-3,1.21024154E-1,1.2771386E0,1.2881021E-1,-1.2076785E-2,4.4653016E-1,-2.1768022E-2,2.7917726E0,8.6134994E-1,8.9269656E-1,1.8788883E-2,8.215927E-2,-2.4158344E-2,1.7118378E-2,-2.8920155E-2,1.0291781E0,2.271196E-1,2.579237E-1,1.8959324E0,6.377929E-2,3.3793417E-1,3.0594417E-1,-4.2653747E-2,2.2109418E-1,-1.7833808E-2,7.368881E-3,-2.7296258E-2,-5.465476E-2,-2.0678993E-2,-2.1667512E-1,6.104354E-1,8.506585E-1,3.2435942E-1,-3.540489E-2,1.9949871E-1,2.3613775E-2,-5.3769246E-2,3.584604E-1,1.5576346E-1,-2.77126E-2,5.330649E-2,-2.9406648E-2,2.4125849E-1,-7.6093726E-2,-2.4608867E-2,-2.2203559E-2,-2.2801254E-2,8.737351E-3,-3.9202537E-2,-1.22065224E-1,-2.0220557E-2,3.2979128E-1,2.928008E-1,2.2090316E-2,1.2387142E-1,-2.258584E-3,-1.3673618E-2,-6.386E-2,-3.1889006E-2,6.2026393E-2,1.6754837E-1,1.1663594E-1,1.11401446E-1,-2.2508169E-2,-1.5603311E-2,2.9440034E-2,1.6959072E-3,-2.4505671E-2,-5.0970793E-2,-3.4621295E-2,1.3101564E-1,-2.8853524E-2,-3.0267692E-1,-2.1814268E-2,-6.562215E-2,-9.306146E-3,-6.8545586E-4,2.3964483E-2,-4.9300883E-3,-4.369507E-2,1.8453934E-4,-1.7584147E-1,1.9915287E-1,-4.4346336E-2,-2.4644723E-2,1.4821169E-1,-1.772127E-2,-2.6519008E-2,1.4407377E-2,-6.18717E-3,-9.122695E-3,-6.5693534E-3,-1.8916044E-2,7.931292E-5,-1.5658896E-2,-9.801464E-3,4.262522E-3,-1.3034704E-1,-5.8575626E-3,-2.0424152E-2,-5.0441485E-2,-2.892472E-1,-2.685913E-2,-4.7879737E-2,-1.5326587E-3,-1.1750399E-1,3.8375333E-2,-4.523384E-3,-1.7649785E-2,-1.5200991E-2,-9.938674E-3,1.8286926E-1,7.729963E-2,-8.120896E-3,-2.2433156E-3,5.176842E-3,1.3064772E-3,-2.1988245E-2,4.0195778E-2,4.421876E-2,-6.990309E-2,-1.6269999E-2,-1.1389125E-1,1.571061E-2,-3.417005E-2,-3.1653834E-3,-5.1705047E-2,-2.807827E-3,-5.6592226E-3,7.373991E-2,2.7356362E-1,3.8384486E-2,4.158025E-2,-2.4165869E-2,-4.996716E-3,-9.730489E-3,3.7994917E-2,1.5827582E-3,1.8315684E-2,-1.1498582E-1,-3.298849E-2,-5.3690203E-2,-1.9935789E-2,-1.9437985E-2,-7.707167E-3,1.7788014E-3,-3.0423237E-3,5.275011E-3,2.5014961E-2,9.667001E-2,1.9133164E-2,-3.4412744E-3,1.731323E-2,-2.3118969E-2,-5.9149757E-2,-2.597281E-2,3.7371863E-2,-1.3837949E-2,1.9999139E-2,-4.280372E-2,-1.4689195E-2,-1.4882249E-2,-1.4212251E-2,-7.478978E-3,-6.902793E-2,1.6405366E-2,-3.3872325E-2,-2.5729636E-2,-1.0584619E-2,8.092189E-3,-2.3399811E-2,-4.888559E-2,-1.8945973E-2,-9.697443E-3,8.605741E-2,1.1566723E-2,-5.350601E-3,2.149527E-3,-2.2185355E-2,-2.3648543E-2,-5.9439433E-3,-3.5704405E-3,1.5198881E-2,-6.949008E-3,-1.42707415E-2,-9.107744E-3,-5.578155E-3,1.0786937E-2,-6.3986885E-3,-2.191339E-2,-2.5294067E-3,5.082432E-3,-8.693E-3,7.755059E-3,-1.9713307E-2,3.1864867E-2,9.147958E-3,-1.6587363E-3,-7.7683185E-3],"categories":[],"categories_nodes":[],"categories_segments":[],"categories_sizes":[],"default_left":[0,0,0,0,0,0,0,0,0,0,0,0,0,0,0,0,0,0,0,0,0,0,0,0,0,0,0,0,0,0,0,0,0,0,0,0,0,0,0,0,0,0,0,0,0,0,0,0,0,0,0,0,0,0,0,0,0,0,0,0,0,0,0,0,0,0,0,0,0,0,0,0,0,0,0,0,0,0,0,0,0,0,0,0,0,0,0,0,0,0,0,0,0,0,0,0,0,0,0,0,0,0,0,0,0,0,0,0,0,0,0,0,0,0,0,0,0,0,0,0,0,0,0,0,0,0,0,0,0,0,0,0,0,0,0,0,0,0,0,0,0,0,0,0,0,0,0,0,0,0,0,0,0,0,0,0,0,0,0,0,0,0,0,0,0,0,0,0,0,0,0,0,0,0,0,0,0,0,0,0,0,0,0,0,0,0,0,0,0,0,0,0,0,0,0,0,0,0,0,0,0],"id":9,"left_children":[1,3,5,7,9,11,13,-1,15,17,19,21,23,25,27,-1,29,-1,-1,31,33,-1,-1,35,37,39,41,43,45,47,49,51,53,-1,55,57,-1,-1,59,61,63,65,67,69,71,73,75,77,-1,79,81,-1,-1,-1,83,-1,-1,-1,-1,-1,85,-1,-1,87,-1,89,-1,-1,-1,91,93,95,-1,97,99,101,103,-1,-1,-1,-1,105,-1,107,-1,109,111,113,-1,115,117,-1,-1,-1,-1,-1,-1,-1,-1,-1,-1,119,121,123,125,127,-1,-1,-1,-1,-1,129,-1,131,133,-1,-1,-1,-1,135,137,139,141,-1,-1,-1,143,-1,145,147,-1,149,151,-1,153,155,157,159,-1,-1,-1,161,163,165,167,-1,-1,-1,-1,-1,-1,-1,-1,-1,-1,169,171,173,175,-1,177,-1,-1,179,-1,-1,181,183,185,187,189,-1,-1,191,193,195,197,-1,-1,-1,199,-1,-1,-1,-1,-1,-1,-1,-1,-1,-1,-1,-1,-1,-1,-1,-1,-1,-1,-1,-1],"loss_changes":[1.3803549E1,1.1741467E1,4.5160982E-1,4.132764E0,7.671587E0,2.000278E0,5.0065583E-1,0E0,1.2926169E-2,1.3022575E0,8.251114E0,2.3744082E-1,4.0120834E-1,6.985694E-1,3.868483E-2,0E0,2.899371E-3,0E0,0E0,1.8052826E0,6.4634876E0,0E0,0E0,5.137917E-1,2.9864207E-2,1.3262391E-1,2.2560667E-2,3.1674552E-1,4.455024E-2,1.0836944E-3,9.060845E-3,1.145408E-1,6.0981274E-1,0E0,3.6197603E-2,5.076814E-4,0E0,0E0,5.58715E-2,6.660658E-2,9.164706E-2,2.243735E-3,7.98989E-3,2.132859E-3,2.8473747E-1,1.8393573E-1,3.719397E-2,4.559881E-4,0E0,1.3848138E-2,1.815699E-3,0E0,0E0,0E0,9.86161E-1,0E0,0E0,0E0,0E0,0E0,4.4125132E-4,0E0,0E0,9.1976106E-2,0E0,3.9355652E-3,0E0,0E0,0E0,1.4476478E-5,3.75662E-4,1.8531492E-3,0E0,3.0947933E-3,1.0348591E-1,1.1584848E-2,1.7426708E-1,0E0,0E0,0E0,0E0,1.208622E-3,0E0,2.4679163E-1,0E0,1.2328764E-3,5.3799804E-4,1.7813563E-2,0E0,2.8249808E-5,1.0762014E-5,0E0,0E0,0E0,0E0,0E0,0E0,0E0,0E0,0E0,0E0,2.970764E-2,2.8882395E-2,4.3139875E-2,1.2794777E-2,5.967915E-4,0E0,0E0,0E0,0E0,0E0,3.1021063E-4,0E0,5.900681E-2,5.534712E-3,0E0,0E0,0E0,0E0,1.0868594E-2,3.5762947E-2,1.6445345E-3,1.6177315E-2,0E0,0E0,0E0,3.9310325E-3,0E0,7.188078E-4,2.5234534E-4,0E0,1.2415107E-3,2.0289838E-2,0E0,4.940709E-3,8.26478E-3,3.2076105E-2,7.4147284E-3,0E0,0E0,0E0,2.1556616E-3,1.3787309E-3,1.3669617E-3,6.633325E-3,0E0,0E0,0E0,0E0,0E0,0E0,0E0,0E0,0E0,0E0,8.1374645E-3,1.3467742E-2,2.9379185E-3,2.8333673E-2,0E0,3.4959721E-3,0E0,0E0,9.640304E-4,0E0,0E0,3.6748685E-4,4.4818567E-3,2.18248E-4,6.4389706E-3,2.3769364E-2,0E0,0E0,4.2708134E-3,7.690419E-3,1.5636697E-2,3.481783E-3,0E0,0E0,0E0,1.03940954E-4,0E0,0E0,0E0,0E0,0E0,0E0,0E0,0E0,0E0,0E0,0E0,0E0,0E0,0E0,0E0,0E0,0E0,0E0,0E0,0E0],"parents":[2147483647,0,0,1,1,2,2,3,3,4,4,5,5,6,6,8,8,9,9,10,10,11,11,12,12,13,13,14,14,16,16,19,19,20,20,23,23,24,24,25,25,26,26,27,27,28,28,29,29,30,30,31,31,32,32,34,34,35,35,38,38,39,39,40,40,41,41,42,42,43,43,44,44,45,45,46,46,47,47,49,49,50,50,54,54,60,60,63,63,65,65,69,69,70,70,71,71,73,73,74,74,75,75,76,76,81,81,83,83,85,85,86,86,87,87,89,89,90,90,101,101,102,102,103,103,104,104,105,105,111,111,113,113,114,114,119,119,120,120,121,121,122,122,126,126,128,128,129,129,131,131,132,132,134,134,135,135,136,136,137,137,141,141,142,142,143,143,144,144,155,155,156,156,157,157,158,158,160,160,163,163,166,166,167,167,168,168,169,169,170,170,173,173,174,174,175,175,176,176,180,180],"right_children":[2,4,6,8,10,12,14,-1,16,18,20,22,24,26,28,-1,30,-1,-1,32,34,-1,-1,36,38,40,42,44,46,48,50,52,54,-1,56,58,-1,-1,60,62,64,66,68,70,72,74,76,78,-1,80,82,-1,-1,-1,84,-1,-1,-1,-1,-1,86,-1,-1,88,-1,90,-1,-1,-1,92,94,96,-1,98,100,102,104,-1,-1,-1,-1,106,-1,108,-1,110,112,114,-1,116,118,-1,-1,-1,-1,-1,-1,-1,-1,-1,-1,120,122,124,126,128,-1,-1,-1,-1,-1,130,-1,132,134,-1,-1,-1,-1,136,138,140,142,-1,-1,-1,144,-1,146,148,-1,150,152,-1,154,156,158,160,-1,-1,-1,162,164,166,168,-1,-1,-1,-1,-1,-1,-1,-1,-1,-1,170,172,174,176,-1,178,-1,-1,180,-1,-1,182,184,186,188,190,-1,-1,192,194,196,198,-1,-1,-1,200,-1,-1,-1,-1,-1,-1,-1,-1,-1,-1,-1,-1,-1,-1,-1,-1,-1,-1,-1,-1],"split_conditions":[-1.5932894E0,-4.774529E-1,-1.5926343E0,1.000746E0,1.0853081E0,1.0272677E0,-1.606841E0,4.4653016E-1,-1.5949268E0,-4.772503E-1,-4.760684E-1,1.0103552E0,-1.4340055E0,-4.8286885E-1,-1.1773719E0,1.7118378E-2,1.0514832E0,1.0291781E0,2.271196E-1,1.1199017E0,-4.7583205E-1,6.377929E-2,3.3793417E-1,-1.4352227E0,1.0514832E0,-3.8184425E-1,1.6174536E0,-1.0574211E0,-1.2498935E0,-4.778919E-1,1.1076016E0,-4.772503E-1,-1.5949268E0,8.506585E-1,-4.7579828E-1,-4.7826335E-1,1.9949871E-1,2.3613775E-2,1.0653206E0,-3.8372386E-1,-1.6110691E0,-2.023117E0,-4.3037924E-1,-1.5710198E0,-4.7589958E-1,1.6182603E0,2.6128416E0,-4.7795942E-1,-2.2801254E-2,-1.5939443E0,-4.7758797E-1,-1.22065224E-1,-2.0220557E-2,3.2979128E-1,-1.5939443E0,2.2090316E-2,1.2387142E-1,-2.258584E-3,-1.3673618E-2,-6.386E-2,-1.4318752E0,6.2026393E-2,1.6754837E-1,-3.7685585E-1,1.11401446E-1,-4.247062E-1,-1.5603311E-2,2.9440034E-2,1.6959072E-3,9.584649E-1,-4.7603464E-1,-5.6667435E-1,1.3101564E-1,1.2997212E0,4.0164742E-1,1.2467397E0,3.5903162E-1,-9.306146E-3,-6.8545586E-4,2.3964483E-2,-4.9300883E-3,-1.431571E0,1.8453934E-4,-4.7637233E-1,1.9915287E-1,-1.1479865E0,-1.5929619E0,-3.5699904E-1,-1.772127E-2,-5.0044143E-1,-4.0478203E-1,-6.18717E-3,-9.122695E-3,-6.5693534E-3,-1.8916044E-2,7.931292E-5,-1.5658896E-2,-9.801464E-3,4.262522E-3,-1.3034704E-1,-5.8575626E-3,1.3913524E0,-5.560231E-1,-4.3753806E-1,-4.2085665E-1,-1.43644E0,-1.5326587E-3,-1.1750399E-1,3.8375333E-2,-4.523384E-3,-1.7649785E-2,1.1560327E0,-9.938674E-3,-3.6715135E-1,-3.7839824E-1,-8.120896E-3,-2.2433156E-3,5.176842E-3,1.3064772E-3,1.4424525E0,-5.5539656E-1,-2.515406E-1,-5.131049E-1,-1.6269999E-2,-1.1389125E-1,1.571061E-2,4.126119E-1,-3.1653834E-3,-1.5936168E0,-4.7802696E-1,-5.6592226E-3,-4.057961E-1,-3.9063427E-1,3.8384486E-2,-1.6395127E0,1.1934695E0,9.423229E-1,1.1767321E0,3.7994917E-2,1.5827582E-3,1.8315684E-2,-2.4644269E-1,-2.4667907E-1,-4.188981E-1,-3.6415908E-1,-1.9437985E-2,-7.707167E-3,1.7788014E-3,-3.0423237E-3,5.275011E-3,2.5014961E-2,9.667001E-2,1.9133164E-2,-3.4412744E-3,1.731323E-2,1.0939578E0,-2.5268978E-1,5.269076E-1,-4.3419608E-1,-1.3837949E-2,-2.4536106E-1,-4.280372E-2,-1.4689195E-2,-5.121651E-1,-1.4212251E-2,-7.478978E-3,-4.117393E-1,-4.1238087E-1,1.0513722E0,-2.7877796E-1,1.1520939E0,8.092189E-3,-2.3399811E-2,4.160579E-1,5.383699E-1,-4.3449894E-1,1.0571353E0,1.1566723E-2,-5.350601E-3,2.149527E-3,-5.1153857E-1,-2.3648543E-2,-5.9439433E-3,-3.5704405E-3,1.5198881E-2,-6.949008E-3,-1.42707415E-2,-9.107744E-3,-5.578155E-3,1.0786937E-2,-6.3986885E-3,-2.191339E-2,-2.5294067E-3,5.082432E-3,-8.693E-3,7.755059E-3,-1.9713307E-2,3.1864867E-2,9.147958E-3,-1.6587363E-3,-7.7683185E-3],"split_indices":[2,0,2,7,7,7,7,0,2,0,0,7,4,6,2,0,7,0,0,7,0,0,0,4,7,1,1,3,4,0,7,0,2,0,0,0,0,0,7,1,7,7,0,2,0,0,6,0,0,2,0,0,0,0,2,0,0,0,0,0,4,0,0,0,0,0,0,0,0,7,0,1,0,0,1,2,4,0,0,0,0,4,0,0,0,3,2,2,0,2,0,0,0,0,0,0,0,0,0,0,0,3,1,0,0,4,0,0,0,0,0,7,0,2,1,0,0,0,0,6,1,0,1,0,0,0,1,0,2,0,0,0,0,0,7,4,3,4,0,0,0,0,0,0,0,0,0,0,0,0,0,0,0,0,0,4,0,2,0,0,0,0,0,1,0,0,0,0,1,1,2,0,0,1,2,0,4,0,0,0,1,0,0,0,0,0,0,0,0,0,0,0,0,0,0,0,0,0,0,0,0],"split_type":[0,0,0,0,0,0,0,0,0,0,0,0,0,0,0,0,0,0,0,0,0,0,0,0,0,0,0,0,0,0,0,0,0,0,0,0,0,0,0,0,0,0,0,0,0,0,0,0,0,0,0,0,0,0,0,0,0,0,0,0,0,0,0,0,0,0,0,0,0,0,0,0,0,0,0,0,0,0,0,0,0,0,0,0,0,0,0,0,0,0,0,0,0,0,0,0,0,0,0,0,0,0,0,0,0,0,0,0,0,0,0,0,0,0,0,0,0,0,0,0,0,0,0,0,0,0,0,0,0,0,0,0,0,0,0,0,0,0,0,0,0,0,0,0,0,0,0,0,0,0,0,0,0,0,0,0,0,0,0,0,0,0,0,0,0,0,0,0,0,0,0,0,0,0,0,0,0,0,0,0,0,0,0,0,0,0,0,0,0,0,0,0,0,0,0,0,0,0,0,0,0],"sum_hessian":[4.95E2,3.5E1,4.6E2,2E1,1.5E1,2.3E1,4.37E2,1E0,1.9E1,2E0,1.3E1,2E0,2.1E1,4.9E1,3.88E2,1E0,1.8E1,1E0,1E0,9E0,4E0,1E0,1E0,3E0,1.8E1,2E1,2.9E1,3.5E1,3.53E2,3E0,1.5E1,4E0,5E0,2E0,2E0,2E0,1E0,1E0,1.7E1,5E0,1.5E1,2.6E1,3E0,3.1E1,4E0,1.7E1,3.36E2,2E0,1E0,6E0,9E0,1E0,3E0,1E0,4E0,1E0,1E0,1E0,1E0,1E0,1.6E1,4E0,1E0,1.4E1,1E0,2.3E1,3E0,1E0,2E0,2.7E1,4E0,2E0,2E0,1.5E1,2E0,3.16E2,2E1,1E0,1E0,1E0,5E0,8E0,1E0,2E0,2E0,4E0,1.2E1,1.2E1,2E0,2.1E1,2E0,1.9E1,8E0,2E0,2E0,1E0,1E0,1.4E1,1E0,1E0,1E0,3.03E2,1.3E1,2E0,1.8E1,7E0,1E0,1E0,1E0,2E0,2E0,7E0,5E0,7E0,5E0,2E1,1E0,1E0,1E0,2.96E2,7E0,2E0,1.1E1,1E0,1E0,1E0,1.7E1,1E0,6E0,2E0,5E0,4E0,3E0,1E0,4E0,2.62E2,3.4E1,5E0,2E0,1E0,1E0,4E0,7E0,6E0,1.1E1,3E0,3E0,1E0,1E0,1E0,3E0,2E0,1E0,1E0,3E0,2.56E2,6E0,2.3E1,1.1E1,2E0,3E0,2E0,2E0,4E0,3E0,3E0,3E0,3E0,8E0,2.11E2,4.5E1,1E0,5E0,4E0,1.9E1,6E0,5E0,2E0,1E0,1E0,3E0,2E0,1E0,2E0,1E0,6E0,2E0,1.26E2,8.5E1,8E0,3.7E1,2E0,2E0,4E0,1.5E1,4E0,2E0,3E0,2E0,1E0,2E0],"tree_param":{"num_deleted":"0","num_feature":"8","num_nodes":"201","size_leaf_vector":"1"}},{"base_weights":[3.6856204E-2,8.266418E-1,1.2201349E-2,-7.0118643E-3,1.2441698E0,3.028208E-1,-1.6941591E-3,1.7427184E-2,-1.9381067E-2,2.3730066E0,6.653348E-1,1.7255402E-1,4.5576355E-1,1.1125043E-1,-7.879036E-3,-1.2281057E-2,4.2252406E-2,8.748013E-1,1.9305168E-1,-2.8502467E-1,1.2925555E0,3.795506E-1,5.4664847E-2,7.587919E-1,1.7892478E-2,6.817661E-2,-1.763457E-2,2.0369805E-2,1.1070314E-2,-1.357559E-1,3.2619026E-2,5.6356615E-1,2.7570534E-1,-1.2362961E-2,1.9922899E-1,5.421238E-2,2.87244E-1,2.6005256E-1,-3.40303E-2,1.7960423E-1,-1.2095276E-2,-1.5467964E-2,-5.307442E-2,-9.568976E-3,1.4550618E-2,1.8776752E-2,1.0529066E-1,-2.4100749E-2,5.8272157E-2,-3.0094158E-2,1.695739E-1,2.0071704E-2,-4.3354835E-2,1.9463664E-1,-1.8156607E-2,-2.0120457E-2,4.5098513E-2,-3.714807E-2,-1.2485218E-2,-1.9486466E-1,-2.0430453E-2,-1.9398661E-2,-1.18732825E-2,3.9754417E-2,-1.3531944E-2,-1.9197962E-3,-1.1622575E-2,-5.4280996E-2,-2.4618456E-2,9.350329E-2,2.5426695E-1,-1.5917422E-2,-1.2092565E-2,2.5024028E-2,4.5224032E-3,-2.0540217E-2,-2.5727534E-1,7.0163794E-2,-1.5331739E-2,-1.3407505E-2,-9.680755E-2,1.3354022E-2,-2.6511412E-2,-2.0858973E-2,1.5685838E-4,-1.3606934E-2,-6.1462666E-3,1.1703435E-1,3.483087E-2,1.2919378E-1,1.7592654E-1,-1.9034408E-2,1.2246271E-2,1.6520262E-3,3.8305522E-4,-2.1630326E-2,3.6231459E-3,-1.1079498E-1,-4.9789287E-3,-2.6862679E-2,1.919681E-1,-1.4159228E-2,-3.9529346E-2,-4.2879064E-2,-1.4754329E-2,-2.329963E-3,-2.2393834E-2,1.2195951E-2,5.3959347E-2,-2.9250742E-3,1.5882397E-2,6.756035E-2,2.7078065E-1,-1.1387015E-2,-1.6325882E-2,4.400316E-3,1.1105061E-3,-1.520666E-2,-2.7023979E-2,-1.3871925E-2,-1.572108E-2,-2.9428108E-2,1.0481248E-1,-1.5361208E-2,3.1933688E-2,3.7585933E-2,-5.5514053E-2,-5.7962076E-3,-5.571767E-2,1.43908635E-2,-2.6068378E-2,-2.3280738E-2,-1.8956817E-3,3.225222E-2,2.0709991E-2,1.62632E-2,3.113705E-1,-5.114645E-3,-1.8916017E-3,-3.5159325E-3,-5.822363E-3,-1.0071521E-2,-1.9315515E-2,5.73911E-4,-5.2234577E-3,6.741285E-5,-1.3310062E-2,-1.3657754E-2,-3.0515032E-2,3.8239148E-2,7.740994E-5,1.3453425E-3,1.5568328E-2,-9.198866E-2,-2.5778163E-2,-1.8918835E-2,-5.052351E-3,-2.8563528E-3,1.2919048E-2,-1.7207067E-2,-1.1416594E-2,-8.406768E-3,-1.4658797E-2,1.0356617E-2,-3.1089308E-3,1.11971475E-1,1.8865086E-2,-4.6669603E-3,-2.6056422E-2,-1.640959E-2,9.4921375E-3,-9.723648E-3,-5.3522023E-3,-1.1070358E-2,2.224909E-2,-4.0931914E-2,-1.40297925E-2,-1.18730785E-2,-1.1014494E-2,-1.5001349E-3,-5.522429E-3,-7.910224E-3,-2.1130776E-3,2.4909556E-3,-4.824436E-3,-8.321056E-3,-2.1440117E-3,-4.0973355E-3,-1.0135059E-2,2.9485786E-2,-2.176206E-4,1.06174145E-2,-4.548011E-3,1.8270985E-3,-5.365954E-3],"categories":[],"categories_nodes":[],"categories_segments":[],"categories_sizes":[],"default_left":[0,0,0,0,0,0,0,0,0,0,0,0,0,0,0,0,0,0,0,0,0,0,0,0,0,0,0,0,0,0,0,0,0,0,0,0,0,0,0,0,0,0,0,0,0,0,0,0,0,0,0,0,0,0,0,0,0,0,0,0,0,0,0,0,0,0,0,0,0,0,0,0,0,0,0,0,0,0,0,0,0,0,0,0,0,0,0,0,0,0,0,0,0,0,0,0,0,0,0,0,0,0,0,0,0,0,0,0,0,0,0,0,0,0,0,0,0,0,0,0,0,0,0,0,0,0,0,0,0,0,0,0,0,0,0,0,0,0,0,0,0,0,0,0,0,0,0,0,0,0,0,0,0,0,0,0,0,0,0,0,0,0,0,0,0,0,0,0,0,0,0,0,0,0,0,0,0,0,0,0,0,0,0,0,0,0,0,0,0,0,0,0,0,0,0],"id":10,"left_children":[1,3,5,7,9,11,13,15,-1,17,19,21,-1,23,25,-1,27,-1,-1,29,31,-1,33,35,37,39,41,-1,43,-1,-1,-1,45,47,-1,-1,-1,49,51,53,55,57,59,-1,-1,-1,-1,61,63,65,-1,-1,67,69,-1,71,73,75,77,79,81,83,-1,-1,-1,-1,-1,-1,85,87,89,91,-1,-1,93,95,97,99,101,-1,-1,-1,103,105,-1,-1,-1,107,109,-1,111,113,115,-1,-1,117,-1,-1,-1,119,121,123,125,127,129,-1,131,-1,-1,-1,-1,133,135,-1,137,-1,-1,139,141,143,-1,145,-1,147,149,151,153,-1,155,157,159,161,-1,-1,163,-1,165,-1,-1,-1,-1,-1,167,-1,-1,-1,-1,169,171,-1,173,-1,-1,175,177,-1,-1,-1,-1,179,-1,-1,181,-1,-1,-1,-1,183,185,187,189,-1,-1,-1,191,-1,-1,193,-1,-1,-1,-1,-1,-1,-1,-1,-1,-1,-1,-1,-1,-1,-1,-1,-1],"loss_changes":[9.648049E0,5.2298307E0,1.9469763E0,9.570774E-3,4.9552574E0,3.2238717E0,3.229073E-1,8.974182E-3,0E0,9.408798E-1,5.13709E0,2.6357956E0,0E0,1.4372989E0,3.261823E-1,0E0,2.4472335E-3,0E0,0E0,3.130102E-1,2.4614353E0,0E0,8.251876E-1,1.7155087E-1,2.854694E-1,4.4939762E-1,2.9048108E-2,0E0,6.372028E-3,0E0,0E0,0E0,2.6152775E-2,1.7157303E-2,0E0,0E0,0E0,3.7121448E-1,2.0783128E-2,8.7583005E-2,1.46771185E-2,2.3333386E-2,9.784794E-2,0E0,0E0,0E0,0E0,4.6939775E-4,2.9002555E-2,3.6679977E-4,0E0,0E0,4.194575E-2,9.683746E-2,0E0,1.649376E-3,5.8414508E-3,1.5557253E-1,7.753591E-2,6.2363103E-2,8.683612E-3,4.4728164E-4,0E0,0E0,0E0,0E0,0E0,0E0,5.2708946E-4,8.34921E-3,9.004921E-2,2.3399596E-3,0E0,0E0,2.552988E-6,1.7546061E-3,7.476857E-2,1.3515744E-1,8.377455E-3,0E0,0E0,0E0,2.8311927E-3,1.0740757E-4,0E0,0E0,0E0,2.1482177E-2,3.7457286E-3,0E0,8.449575E-2,5.078567E-4,7.775525E-6,0E0,0E0,1.0095835E-3,0E0,0E0,0E0,1.5956317E-3,1.8452783E-1,1.7222174E-2,1.934386E-2,1.0406934E-3,4.3321485E-3,0E0,2.3973174E-5,0E0,0E0,0E0,0E0,9.002721E-3,2.7073085E-2,0E0,4.4628978E-5,0E0,0E0,8.017663E-5,4.1148067E-4,3.6854355E-4,0E0,1.3388989E-3,0E0,7.1983114E-3,2.4336006E-2,1.1881767E-3,1.0643959E-2,0E0,8.0158934E-5,3.1524994E-3,3.0115945E-4,3.894372E-5,0E0,0E0,2.07449E-3,0E0,3.8022727E-2,0E0,0E0,0E0,0E0,0E0,1.0633301E-3,0E0,0E0,0E0,0E0,1.7164923E-2,1.190491E-4,0E0,6.560162E-3,0E0,0E0,3.6702454E-3,7.806993E-4,0E0,0E0,0E0,0E0,1.0574469E-5,0E0,0E0,3.4925982E-4,0E0,0E0,0E0,0E0,8.7376544E-4,5.598506E-5,1.0965116E-2,2.6381671E-2,0E0,0E0,0E0,2.9947422E-3,0E0,0E0,6.490435E-4,0E0,0E0,0E0,0E0,0E0,0E0,0E0,0E0,0E0,0E0,0E0,0E0,0E0,0E0,0E0,0E0,0E0],"parents":[2147483647,0,0,1,1,2,2,3,3,4,4,5,5,6,6,7,7,9,9,10,10,11,11,13,13,14,14,16,16,19,19,20,20,22,22,23,23,24,24,25,25,26,26,28,28,32,32,33,33,37,37,38,38,39,39,40,40,41,41,42,42,47,47,48,48,49,49,52,52,53,53,55,55,56,56,57,57,58,58,59,59,60,60,61,61,68,68,69,69,70,70,71,71,74,74,75,75,76,76,77,77,78,78,82,82,83,83,87,87,88,88,90,90,91,91,92,92,95,95,99,99,100,100,101,101,102,102,103,103,104,104,106,106,111,111,112,112,114,114,117,117,118,118,119,119,121,121,123,123,124,124,125,125,126,126,128,128,129,129,130,130,131,131,134,134,136,136,142,142,147,147,148,148,150,150,153,153,154,154,159,159,162,162,167,167,168,168,169,169,170,170,174,174,177,177],"right_children":[2,4,6,8,10,12,14,16,-1,18,20,22,-1,24,26,-1,28,-1,-1,30,32,-1,34,36,38,40,42,-1,44,-1,-1,-1,46,48,-1,-1,-1,50,52,54,56,58,60,-1,-1,-1,-1,62,64,66,-1,-1,68,70,-1,72,74,76,78,80,82,84,-1,-1,-1,-1,-1,-1,86,88,90,92,-1,-1,94,96,98,100,102,-1,-1,-1,104,106,-1,-1,-1,108,110,-1,112,114,116,-1,-1,118,-1,-1,-1,120,122,124,126,128,130,-1,132,-1,-1,-1,-1,134,136,-1,138,-1,-1,140,142,144,-1,146,-1,148,150,152,154,-1,156,158,160,162,-1,-1,164,-1,166,-1,-1,-1,-1,-1,168,-1,-1,-1,-1,170,172,-1,174,-1,-1,176,178,-1,-1,-1,-1,180,-1,-1,182,-1,-1,-1,-1,184,186,188,190,-1,-1,-1,192,-1,-1,194,-1,-1,-1,-1,-1,-1,-1,-1,-1,-1,-1,-1,-1,-1,-1,-1,-1],"split_conditions":[-1.5939443E0,-4.774529E-1,-1.5932894E0,-1.4318752E0,1.0853081E0,-4.760684E-1,-1.5926343E0,-1.4358314E0,-1.9381067E-2,-4.772503E-1,-4.7616974E-1,1.000746E0,4.5576355E-1,1.0272677E0,-1.606841E0,-1.2281057E-2,-4.777906E-1,8.748013E-1,1.9305168E-1,-4.7637233E-1,-4.7583205E-1,3.795506E-1,1.1879356E0,1.0103552E0,-1.4340055E0,-4.8286885E-1,2.6128416E0,2.0369805E-2,-4.776893E-1,-1.357559E-1,3.2619026E-2,5.6356615E-1,-4.7579828E-1,-4.7627103E-1,1.9922899E-1,5.421238E-2,2.87244E-1,-1.4352227E0,1.0514832E0,-3.75235E-1,1.6174536E0,-1.2495892E0,3.5903162E-1,-9.568976E-3,1.4550618E-2,1.8776752E-2,1.0529066E-1,-4.774529E-1,-1.431571E0,-4.7826335E-1,1.695739E-1,2.0071704E-2,1.0653206E0,-4.0444434E-1,-1.8156607E-2,-2.023117E0,-4.3037924E-1,1.6182603E0,-1.1773719E0,-4.3753806E-1,-4.2085665E-1,-4.775542E-1,-1.18732825E-2,3.9754417E-2,-1.3531944E-2,-1.9197962E-3,-1.1622575E-2,-5.4280996E-2,1.0822331E0,-3.5568905E-1,-1.6445096E0,-4.247062E-1,-1.2092565E-2,2.5024028E-2,-4.048158E-1,1.2997212E0,4.0164742E-1,-1.0574211E0,1.2467397E0,-1.3407505E-2,-9.680755E-2,1.3354022E-2,4.126119E-1,-1.4358314E0,1.5685838E-4,-1.3606934E-2,-6.1462666E-3,-3.6715135E-1,-2.8480465E-2,1.2919378E-1,-1.6372064E0,-8.2400566E-1,-4.0478203E-1,1.6520262E-3,3.8305522E-4,-1.585757E0,3.6231459E-3,-1.1079498E-1,-4.9789287E-3,-1.2071738E0,-4.7589958E-1,1.3913524E0,-5.560231E-1,-4.188981E-1,-3.6415908E-1,-2.329963E-3,-4.7758797E-1,1.2195951E-2,5.3959347E-2,-2.9250742E-3,1.5882397E-2,-3.7839824E-1,-3.812177E-1,-1.1387015E-2,-2.0284982E0,4.400316E-3,1.1105061E-3,9.584649E-1,-4.3571565E-1,-1.5798621E0,-1.572108E-2,-5.6667435E-1,1.0481248E-1,2.47085E0,1.2411723E0,-2.515406E-1,-5.131049E-1,-5.7962076E-3,-4.117393E-1,-4.1238087E-1,1.0513722E0,-1.431571E0,